{"learner":{"attributes":{"best_iteration":"123","best_ntree_limit":"124","best_score":"0.14208365671388004","scikit_learn":"{\"n_estimators\": 1400, \"objective\": \"reg:squarederror\", \"max_depth\": 7, \"max_leaves\": null, \"max_bin\": null, \"grow_policy\": null, \"learning_rate\": 0.098, \"verbosity\": null, \"booster\": \"gbtree\", \"tree_method\": null, \"gamma\": 0.5197799325791111, \"min_child_weight\": 3, \"max_delta_step\": null, \"subsample\": null, \"sampling_method\": null, \"colsample_bytree\": 1, \"colsample_bylevel\": null, \"colsample_bynode\": null, \"reg_alpha\": 1, \"reg_lambda\": null, \"scale_pos_weight\": null, \"base_score\": null, \"missing\": NaN, \"num_parallel_tree\": null, \"random_state\": null, \"n_jobs\": null, \"monotone_constraints\": null, \"interaction_constraints\": null, \"importance_type\": null, \"gpu_id\": null, \"validate_parameters\": null, \"predictor\": null, \"enable_categorical\": false, \"feature_types\": null, \"max_cat_to_onehot\": null, \"max_cat_threshold\": null, \"eval_metric\": \"mape\", \"early_stopping_rounds\": 60, \"callbacks\": null, \"evals_result_\": {\"validation_0\": {\"mape\": [0.932121007612657, 0.8542220885412452, 0.7829908150232961, 0.7161572655337186, 0.6600851216760611, 0.6074176888251321, 0.5582199897655271, 0.5121222101131586, 0.4752370270539095, 0.4420954117009447, 0.4127259404841261, 0.38275387705452585, 0.3546120730713468, 0.3315817334226083, 0.3117787310527892, 0.2938884004690338, 0.27799622393518564, 0.2620904886695592, 0.24897170177055905, 0.2369957037742092, 0.22694379234498194, 0.2127889878236144, 0.20364202608817505, 0.1964070315320583, 0.19015806832502194, 0.18164579800068964, 0.17090399562450548, 0.16586924866762692, 0.16173681971076953, 0.15340457411337094, 0.14686156856102864, 0.13900459998103096, 0.13196796450371992, 0.13122030599802773, 0.12904673302129466, 0.1268539430297494, 0.12337436825427042, 0.12324721638765691, 0.12219139617849335, 0.1172021931207596, 0.11649312373138343, 0.11314692993087166, 0.11052539486210794, 0.10996722788735337, 0.10615042181087547, 0.1052672529963436, 0.10574075742458854, 0.10635128643792638, 0.10723651271910928, 0.10805892535581212, 0.10734368582095202, 0.10758326145248366, 0.10842101279315271, 0.10972063835083545, 0.1085257114881144, 0.10963425558565901, 0.11118821004842303, 0.11246341848867307, 0.11339075548127811, 0.113825116904802, 0.1150999839688636, 0.11747758225332977, 0.11772878685200329, 0.11814598756461481, 0.11827936997951391, 0.11981362469058983, 0.12032392849754854, 0.12101261312391166, 0.12140775122298826, 0.12175203179111052, 0.12028829802350782, 0.12175951119479926, 0.12229993462434804, 0.12240419422846124, 0.12251021248843384, 0.12388557035075737, 0.12389428576122948, 0.12140813564170269, 0.12122657215724479, 0.16177555966906404, 0.16012642105436653, 0.15795336374946398, 0.15773611350376662, 0.1549903714131797, 0.15751053486813307, 0.12995664685865768, 0.10454712780288644, 0.10346920942979199, 0.10230746513212366, 0.08046915349354494, 0.07827685212161042, 0.07927882435409495, 0.07762951277330556, 0.07695983753197314, 0.07606572002297801, 0.07606525180668401, 0.07607411717793587, 0.0760447374379475, 0.07656823336205205, 0.07660804565794321, 0.07512114453048808, 0.0758763676172251, 0.0761352769874791, 0.07479870834063174, 0.07477536500754532, 0.07429431054368381, 0.07471372375881623, 0.07382845101722826, 0.07415769905151012, 0.07169951182286986, 0.07177558764220134, 0.07173721385358074, 0.07154272297882806, 0.0701016475431171, 0.06917796986445998, 0.06822393400130164, 0.06823988135706888, 0.0676787900870265, 0.06767984354104943, 0.06760018813021439, 0.0674619564467604, 0.0677362036259717, 0.06723949123075464, 0.06705255725097267, 0.06807402900546122, 0.06841532545003955, 0.0686744415221703, 0.0686653998363014, 0.072045792269687, 0.07198151076590278, 0.0724336219391878, 0.0701526808112338, 0.0697047708530725, 0.06966855416110712, 0.0690182159504307, 0.06919485000664923, 0.06958117269817621, 0.06956669495472738, 0.06951180589309626, 0.06913916149356561, 0.06911225164436657, 0.06894756473995095, 0.06898622978650511, 0.06897069536200304, 0.07007873831275528, 0.06964089352765267, 0.06949363567806406, 0.06936394450521509, 0.0691039604519651, 0.06888438623419396, 0.06899276743218256, 0.06875279509896665, 0.07200063966368876, 0.07168552335222189, 0.07208921055210395, 0.07208865748984292, 0.07213232541332212, 0.07102440525242838, 0.06973169487690159, 0.06954861911293389, 0.06902245474688547, 0.06897956390058063, 0.06885199503047738, 0.06882049990571645, 0.06869656590832145, 0.06922492580501247, 0.06918685251765756, 0.06912784861076923, 0.06938028493260773, 0.06934010410525153, 0.06890995333958012, 0.06859148371243592, 0.06848779613648999, 0.06786462215402368, 0.06783804769178524, 0.06755231210715361, 0.06752342327978383, 0.06948782734273147, 0.06945404632273161, 0.06902807113932816, 0.06903426030156855, 0.06905507306031451, 0.0690736693533296, 0.06895981370936466]}, \"validation_1\": {\"mape\": [1.463504119566285, 1.4172933983007197, 1.3678016919944296, 1.304005949442118, 1.2736467847167199, 1.2315052104604387, 1.1813805706766425, 1.1258908026176084, 1.1062302081326034, 1.089853469249782, 1.0778016462327027, 1.0446366897052566, 1.007629497151993, 0.9883609059994278, 0.9779866741199853, 0.9691462428604519, 0.9620297933445685, 0.9462191232101058, 0.9398462482640434, 0.9330343641789072, 0.9314086298831215, 0.899234673431188, 0.8917604906305722, 0.8922271949125207, 0.8937663600493935, 0.8767618436291936, 0.8404969298749494, 0.8376668933694937, 0.8376686248363554, 0.8071073752767315, 0.7875799587760905, 0.7533273402681978, 0.7222746188183857, 0.7332851875328164, 0.7317932183830463, 0.7287061403644209, 0.7177249084368039, 0.7256613309238884, 0.7257932500516814, 0.6978625097880322, 0.698601681860403, 0.6822499532166026, 0.6694795067120355, 0.6689939794662516, 0.6454016730912923, 0.6424035529282655, 0.647635423101691, 0.6532085685402879, 0.660095489467108, 0.6663399323275865, 0.670112826226379, 0.6802825658340372, 0.6865692801727186, 0.6944106220073532, 0.6951489215060133, 0.7007257934342634, 0.7101554200822604, 0.717730437901489, 0.7234352319210302, 0.7260291304073629, 0.7334852522935145, 0.7561029123563284, 0.7576062775716474, 0.7593850130633854, 0.7602935711868029, 0.766541418659002, 0.7694736109779095, 0.7734387263467029, 0.775652136457999, 0.7776801959740978, 0.7934895803408233, 0.8006821822558104, 0.8036258953628158, 0.8043814886705288, 0.810196132612063, 0.8161780173077224, 0.8208108607863307, 0.801757894109485, 0.8023665719129841, 0.9598715662547558, 0.9553360454361127, 0.9518521218445686, 0.9518350572637025, 0.9419533621975713, 0.9682792596564465, 0.7568752533924069, 0.562014741636386, 0.5585602143511063, 0.5541535344822024, 0.3860923302858465, 0.3809463627089319, 0.38652306870849107, 0.38139952824499623, 0.37449082113890697, 0.2486495335184647, 0.2491964526852985, 0.24993497535707804, 0.2493495481314742, 0.17053723859168496, 0.17077877592408353, 0.16594785815561142, 0.16847727243400845, 0.17242014389331003, 0.16801103284781016, 0.16802108416325467, 0.16655047328204808, 0.1700499635792705, 0.16106440655223567, 0.15754547143325462, 0.15248527301697856, 0.1514849188648902, 0.15076009530582649, 0.15075485113042347, 0.14858855486187084, 0.14851246696216508, 0.14610612314609409, 0.14826994763431847, 0.1447693285123218, 0.1447600439310655, 0.14480360841011555, 0.1443283159725016, 0.14440933105455198, 0.14292171146707736, 0.14208365671388004, 0.14224275168446296, 0.14280890255637207, 0.14597424973879689, 0.14590574509740403, 0.15922241083545832, 0.1591576407385024, 0.16293194491381696, 0.1537113878339349, 0.1519990624246233, 0.15185797764950967, 0.15044249877308422, 0.15096796455629924, 0.1534158610061529, 0.1533877260906123, 0.1532283695687232, 0.15203348955902968, 0.15201813998403887, 0.15143647634289448, 0.1517869721017322, 0.1516564042536446, 0.1577556440296251, 0.1560855859092645, 0.1557428751662441, 0.15564891470055386, 0.15306237906052506, 0.1519630820258226, 0.15265894732616264, 0.1521437602909957, 0.16741079574803855, 0.16679576171249513, 0.16720377866755287, 0.1659963384944737, 0.1664833789857864, 0.16270479949348385, 0.1577822717811433, 0.15771894022523444, 0.15605935015838507, 0.1558789472619378, 0.1552216391645538, 0.15534710218953895, 0.15521773311217937, 0.15736903647131276, 0.15733808480556027, 0.1571169042199989, 0.15811941483161618, 0.15814398590621828, 0.1546326094848109, 0.1542645536016092, 0.1539952294541737, 0.15350960619529902, 0.1533453709084277, 0.15267781399187114, 0.152542754157428, 0.16199818994359294, 0.16187651752602158, 0.1649435601705131, 0.16500415484895023, 0.16515001021180387, 0.16525555308978276, 0.1611787421785242]}}, \"_estimator_type\": \"regressor\"}"},"feature_names":["current_price","pe_ratio","eps_ratio","market_cap","day_change","week_change","half_year_change","year_change","free_cach_flow_change_1y","free_cach_flow_change_2y","free_cach_flow_change_3y","revenue_change_1y","revenue_change_2y","revenue_change_3y"],"feature_types":["float","float","float","float","float","float","float","float","float","float","float","float","float","float"],"gradient_booster":{"model":{"gbtree_model_param":{"num_parallel_tree":"1","num_trees":"184","size_leaf_vector":"0"},"tree_info":[0,0,0,0,0,0,0,0,0,0,0,0,0,0,0,0,0,0,0,0,0,0,0,0,0,0,0,0,0,0,0,0,0,0,0,0,0,0,0,0,0,0,0,0,0,0,0,0,0,0,0,0,0,0,0,0,0,0,0,0,0,0,0,0,0,0,0,0,0,0,0,0,0,0,0,0,0,0,0,0,0,0,0,0,0,0,0,0,0,0,0,0,0,0,0,0,0,0,0,0,0,0,0,0,0,0,0,0,0,0,0,0,0,0,0,0,0,0,0,0,0,0,0,0,0,0,0,0,0,0,0,0,0,0,0,0,0,0,0,0,0,0,0,0,0,0,0,0,0,0,0,0,0,0,0,0,0,0,0,0,0,0,0,0,0,0,0,0,0,0,0,0,0,0,0,0,0,0,0,0,0,0,0,0],"trees":[{"base_weights":[5.5629612E1,3.7557236E1,3.1530487E2,2.019747E1,9.619767E1,2.7465286E2,8.44895E2,1.05244665E1,3.906433E1,7.4171555E1,1.2752806E2,2.198039E2,3.6424976E2,5.069743E0,1.6459404E1,3.1435368E1,4.696445E1,6.4118454E1,8.472936E1,1.1285E2,1.4388667E2,1.9135762E2,2.512213E2,2.039492E0,7.6460323E0,1.3497956E1,1.9952421E1,2.7757193E1,3.471398E1,4.3299786E1,5.273225E1,7.569159E-1,3.4584079E0,6.2638283E0,9.048333E0,1.2031667E1,1.4802735E1,1.7701445E1,2.1750792E1,1.03206E-1,1.240175E0,2.3735828E0,3.833429E0,5.561831E0,6.997931E0],"categories":[],"categories_nodes":[],"categories_segments":[],"categories_sizes":[],"default_left":[1,1,1,1,1,1,0,1,1,1,1,1,0,1,1,1,1,0,0,0,0,0,0,1,1,1,1,0,0,0,0,1,1,1,0,0,0,0,0,0,0,0,0,0,0],"id":0,"left_children":[1,3,5,7,9,11,-1,13,15,17,19,21,-1,23,25,27,29,-1,-1,-1,-1,-1,-1,31,33,35,37,-1,-1,-1,-1,39,41,43,-1,-1,-1,-1,-1,-1,-1,-1,-1,-1,-1],"loss_changes":[8.580596E6,1.7417475E6,2.328768E6,2.4098575E5,2.601635E5,4.69753E5,0E0,2.8254156E4,2.5446062E4,1.9042625E4,2.192375E4,1.583125E4,0E0,3.5502373E3,4.0315234E3,1.7596719E3,2.2285625E3,0E0,0E0,0E0,0E0,0E0,0E0,3.7897882E2,4.067627E2,2.3509375E2,3.4467188E2,0E0,0E0,0E0,0E0,3.42266E1,2.5377197E1,1.4482422E1,0E0,0E0,0E0,0E0,0E0,0E0,0E0,0E0,0E0,0E0,0E0],"parents":[2147483647,0,0,1,1,2,2,3,3,4,4,5,5,7,7,8,8,9,9,10,10,11,11,13,13,14,14,15,15,16,16,23,23,24,24,25,25,26,26,31,31,32,32,33,33],"right_children":[2,4,6,8,10,12,-1,14,16,18,20,22,-1,24,26,28,30,-1,-1,-1,-1,-1,-1,32,34,36,38,-1,-1,-1,-1,40,42,44,-1,-1,-1,-1,-1,-1,-1,-1,-1,-1,-1],"split_conditions":[1.77505E2,5.805E1,5.83635E2,2.4955E1,1.00675E2,2.9239E2,8.279971E1,1.0855E1,4.002E1,7.4315E1,1.31025E2,2.22295E2,3.5696476E1,5.29E0,1.718E1,3.1795E1,4.9385002E1,6.2836084E0,8.303477E0,1.1059299E1,1.4100894E1,1.8753046E1,2.4619686E1,2.6325E0,8.41E0,1.3934999E1,2.0265E1,2.7202048E0,3.4019701E0,4.243379E0,5.1677604E0,1.145E0,3.59875E0,7.035E0,8.8673663E-1,1.1791033E0,1.450668E0,1.7347416E0,2.1315775E0,1.0114188E-2,1.2153715E-1,2.326111E-1,3.7567604E-1,5.4505944E-1,6.857972E-1],"split_indices":[0,0,0,0,0,0,0,0,0,0,0,0,0,0,0,0,0,0,0,0,0,0,0,0,0,0,0,0,0,0,0,0,0,0,0,0,0,0,0,0,0,0,0,0,0],"split_type":[0,0,0,0,0,0,0,0,0,0,0,0,0,0,0,0,0,0,0,0,0,0,0,0,0,0,0,0,0,0,0,0,0,0,0,0,0,0,0,0,0,0,0,0,0],"sum_hessian":[1.83E3,1.712E3,1.18E2,1.322E3,3.9E2,1.11E2,7E0,8.75E2,4.47E2,2.31E2,1.59E2,7.1E1,4E1,4.57E2,4.18E2,2.3E2,2.17E2,1.22E2,1.09E2,8.8E1,7.1E1,4.1E1,3E1,2.11E2,2.46E2,2.29E2,1.89E2,1.13E2,1.17E2,1.38E2,7.9E1,1.12E2,9.9E1,1.27E2,1.19E2,1.13E2,1.16E2,8.9E1,1E2,4.9E1,6.3E1,2.8E1,7.1E1,7E1,5.7E1],"tree_param":{"num_deleted":"0","num_feature":"14","num_nodes":"45","size_leaf_vector":"0"}},{"base_weights":[5.0302795E1,3.5590633E1,3.1292438E2,1.976719E1,9.704299E1,2.6859003E2,7.7244525E2,1.0088408E1,3.86865E1,7.702074E1,1.3109673E2,2.2145311E2,3.4707404E2,4.924319E0,1.6002295E1,3.2116776E1,4.8433685E1,6.634203E1,9.003946E1,1.1654069E2,1.5203558E2,1.8882784E2,2.4666327E2,1.9030803E0,7.2954297E0,1.3236294E1,2.00042E1,2.7727533E1,3.5952282E1,4.3719456E1,5.2667065E1,8.6748904E-1,3.4290504E0,5.7233386E0,8.531482E0,1.1996768E1,1.5058206E1,1.8068314E1,2.1761307E1,2.9487604E-1,1.5443239E0,2.9603183E0,3.929249E0,5.0727444E0,6.3371663E0],"categories":[],"categories_nodes":[],"categories_segments":[],"categories_sizes":[],"default_left":[1,1,1,1,1,1,0,1,1,1,1,1,0,1,1,1,1,0,0,0,0,0,0,1,1,1,1,0,0,0,0,1,1,1,0,0,0,0,0,0,0,0,0,0,0],"id":1,"left_children":[1,3,5,7,9,11,-1,13,15,17,19,21,-1,23,25,27,29,-1,-1,-1,-1,-1,-1,31,33,35,37,-1,-1,-1,-1,39,41,43,-1,-1,-1,-1,-1,-1,-1,-1,-1,-1,-1],"loss_changes":[7.0630055E6,1.685058E6,1.767626E6,2.5244394E5,2.3174525E5,2.555255E5,0E0,2.7844219E4,2.8268875E4,2.5289375E4,2.163525E4,1.51475E3,0E0,3.487126E3,4.4175E3,3.6869375E3,1.3130625E3,0E0,0E0,0E0,0E0,0E0,0E0,3.3564984E2,4.693506E2,3.6816406E2,1.5204688E2,0E0,0E0,0E0,0E0,4.847637E1,1.8765869E0,5.9628906E0,0E0,0E0,0E0,0E0,0E0,0E0,0E0,0E0,0E0,0E0,0E0],"parents":[2147483647,0,0,1,1,2,2,3,3,4,4,5,5,7,7,8,8,9,9,10,10,11,11,13,13,14,14,15,15,16,16,23,23,24,24,25,25,26,26,31,31,32,32,33,33],"right_children":[2,4,6,8,10,12,-1,14,16,18,20,22,-1,24,26,28,30,-1,-1,-1,-1,-1,-1,32,34,36,38,-1,-1,-1,-1,40,42,44,-1,-1,-1,-1,-1,-1,-1,-1,-1,-1,-1],"split_conditions":[1.96565E2,6.4685E1,5.83635E2,2.7470001E1,1.16235E2,3.1383502E2,7.569963E1,1.1924999E1,4.5519997E1,8.781E1,1.4876999E2,2.4167499E2,3.4013256E1,5.42E0,1.8645E1,3.566E1,5.448E1,6.501519E0,8.823867E0,1.1420987E1,1.4899487E1,1.8505127E1,2.4173E1,3.24E0,8.450001E0,1.6005001E1,2.268E1,2.7172983E0,3.5233235E0,4.2845063E0,5.161372E0,1.58865E0,4.3525E0,7.035E0,8.360852E-1,1.1756833E0,1.4757041E0,1.7706947E0,2.132608E0,2.8897852E-2,1.5134373E-1,2.9011118E-1,3.850664E-1,4.9712893E-1,6.210423E-1],"split_indices":[0,0,0,0,0,0,0,0,0,0,0,0,0,0,0,0,0,0,0,0,0,0,0,0,0,0,0,0,0,0,0,0,0,0,0,0,0,0,0,0,0,0,0,0,0],"split_type":[0,0,0,0,0,0,0,0,0,0,0,0,0,0,0,0,0,0,0,0,0,0,0,0,0,0,0,0,0,0,0,0,0,0,0,0,0,0,0,0,0,0,0,0,0],"sum_hessian":[1.83E3,1.734E3,9.6E1,1.38E3,3.54E2,8.9E1,7E0,9.14E2,4.66E2,2.25E2,1.29E2,5.8E1,3.1E1,4.89E2,4.25E2,2.81E2,1.85E2,1.27E2,9.8E1,8E1,4.9E1,2.9E1,2.9E1,2.16E2,2.73E2,2.54E2,1.71E2,1.35E2,1.46E2,9.3E1,9.2E1,1.3E2,8.6E1,1.23E2,1.5E2,1.56E2,9.8E1,8.7E1,8.4E1,7.2E1,5.8E1,4.9E1,3.7E1,6.5E1,5.8E1],"tree_param":{"num_deleted":"0","num_feature":"14","num_nodes":"45","size_leaf_vector":"0"}},{"base_weights":[4.5493954E1,3.206911E1,2.82557E2,1.9163017E1,9.3199455E1,2.4992303E2,8.393645E2,9.480133E0,3.7604053E1,7.483466E1,1.1930891E2,2.1055193E2,3.6226205E2,4.635515E0,1.5150873E1,3.0968803E1,4.8017273E1,6.573699E1,8.56211E1,1.0687857E2,1.3845752E2,1.7208723E2,2.3699649E2,1.8734473E0,6.9021893E0,1.2549837E1,1.9252844E1,2.6743961E1,3.4957085E1,4.3566063E1,5.165863E1,7.8459907E-1,3.2572658E0,5.6114116E0,8.173119E0,1.1017803E1,1.4060301E1,1.724371E1,2.090967E1,1.9655053E-1,1.3284582E0,2.7776608E0,3.894222E0,4.7179613E0,6.0946884E0,4.668519E0,1.111691E1],"categories":[],"categories_nodes":[],"categories_segments":[],"categories_sizes":[],"default_left":[1,1,1,1,1,1,0,1,1,1,1,1,0,1,1,1,1,0,0,0,0,0,0,1,1,1,1,0,0,0,0,1,1,1,0,1,0,0,0,0,0,0,0,0,0,0,0],"id":2,"left_children":[1,3,5,7,9,11,-1,13,15,17,19,21,-1,23,25,27,29,-1,-1,-1,-1,-1,-1,31,33,35,37,-1,-1,-1,-1,39,41,43,-1,45,-1,-1,-1,-1,-1,-1,-1,-1,-1,-1,-1],"loss_changes":[5.817844E6,1.3661479E6,1.569877E6,2.5547638E5,1.3568475E5,3.389065E5,0E0,2.5761672E4,3.24975E4,1.18838125E4,1.4233375E4,3.2044E4,0E0,3.1649941E3,4.346414E3,4.12575E3,7.338125E2,0E0,0E0,0E0,0E0,0E0,0E0,3.41466E2,3.9804883E2,4.401875E2,1.5386328E2,0E0,0E0,0E0,0E0,4.010971E1,1.33654785E1,2.1746094E1,0E0,1.915039E1,0E0,0E0,0E0,0E0,0E0,0E0,0E0,0E0,0E0,0E0,0E0],"parents":[2147483647,0,0,1,1,2,2,3,3,4,4,5,5,7,7,8,8,9,9,10,10,11,11,13,13,14,14,15,15,16,16,23,23,24,24,25,25,26,26,31,31,32,32,33,33,35,35],"right_children":[2,4,6,8,10,12,-1,14,16,18,20,22,-1,24,26,28,30,-1,-1,-1,-1,-1,-1,32,34,36,38,-1,-1,-1,-1,40,42,44,-1,46,-1,-1,-1,-1,-1,-1,-1,-1,-1,-1,-1],"split_conditions":[1.96205E2,7.188E1,6.87155E2,2.9335E1,1.1917E2,3.557E2,8.225772E1,1.252E1,4.9385002E1,9.549E1,1.5313501E2,2.47405E2,3.5501682E1,5.855E0,2.0265E1,3.848E1,5.9665E1,6.442225E0,8.390868E0,1.04741E1,1.3568836E1,1.6864548E1,2.3225655E1,3.24E0,9.145E0,1.6005001E1,2.3855E1,2.6209083E0,3.4257941E0,4.269474E0,5.062546E0,1.4000001E0,4.725E0,7.21E0,8.009656E-1,-1.7904999E1,1.3779094E0,1.6898835E0,2.0491476E0,1.9261952E-2,1.301889E-1,2.7221075E-1,3.8163376E-1,4.623602E-1,5.972794E-1,4.5751485E-1,1.0894572E0],"split_indices":[0,0,0,0,0,0,0,0,0,0,0,0,0,0,0,0,0,0,0,0,0,0,0,0,0,0,0,0,0,0,0,0,0,0,0,4,0,0,0,0,0,0,0,0,0,0,0],"split_type":[0,0,0,0,0,0,0,0,0,0,0,0,0,0,0,0,0,0,0,0,0,0,0,0,0,0,0,0,0,0,0,0,0,0,0,0,0,0,0,0,0,0,0,0,0,0,0],"sum_hessian":[1.83E3,1.733E3,9.7E1,1.432E3,3.01E2,9.3E1,4E0,9.4E2,4.92E2,1.79E2,1.22E2,7.1E1,2.2E1,5.08E2,4.32E2,3.03E2,1.89E2,1.01E2,7.8E1,7.8E1,4.4E1,3.2E1,3.9E1,2.3E2,2.78E2,2.67E2,1.65E2,1.51E2,1.52E2,9.1E1,9.8E1,1.3E2,1E2,1.41E2,1.37E2,1.37E2,1.3E2,8E1,8.5E1,6.4E1,6.6E1,6.1E1,3.9E1,5.4E1,8.7E1,3E0,1.34E2],"tree_param":{"num_deleted":"0","num_feature":"14","num_nodes":"47","size_leaf_vector":"0"}},{"base_weights":[4.115771E1,2.7637276E1,2.3542953E2,1.5345233E1,7.251894E1,1.8910103E2,5.2178796E2,7.9349666E0,2.9836689E1,5.6809006E1,9.574402E1,1.4921574E2,2.2917284E2,3.8385913E2,8.393597E2,3.9677327E0,1.262902E1,2.4058493E1,3.6170216E1,4.9354336E1,6.5400154E1,8.678379E1,1.09549904E2,1.5561107E0,5.8947E0,1.0643707E1,1.5696642E1,2.131379E1,2.7020573E1,3.2626797E1,3.9908882E1,4.8864257E-1,2.5620837E0,4.652963E0,6.8868017E0,9.36129E0,1.1757639E1,2.5654595E-2,8.3422226E-1,1.8469577E0,2.9561174E0,4.064131E0,5.0695376E0,6.2877297E0,7.5905657E0],"categories":[],"categories_nodes":[],"categories_segments":[],"categories_sizes":[],"default_left":[1,1,1,1,1,1,1,1,1,1,1,0,0,0,0,1,1,1,1,0,0,0,0,1,1,1,0,0,0,0,0,1,1,1,1,0,0,0,0,0,0,1,1,1,1],"id":3,"left_children":[1,3,5,7,9,11,13,15,17,19,21,-1,-1,-1,-1,23,25,27,29,-1,-1,-1,-1,31,33,35,-1,-1,-1,-1,-1,37,39,-1,-1,-1,-1,-1,-1,-1,-1,-1,-1,-1,-1],"loss_changes":[4.8026075E6,9.4383975E5,1.4793385E6,1.4426644E5,1.286785E5,1.31646E5,3.77418E5,1.6544477E4,1.5720969E4,1.087525E4,8.480875E3,0E0,0E0,0E0,0E0,2.2372275E3,2.2913828E3,1.3350781E3,1.4735938E3,0E0,0E0,0E0,0E0,2.2872156E2,2.8780566E2,2.2737305E2,0E0,0E0,0E0,0E0,0E0,1.6238642E1,2.1015137E1,4.3432617E-1,3.696289E-1,0E0,0E0,0E0,0E0,0E0,0E0,0E0,0E0,0E0,0E0],"parents":[2147483647,0,0,1,1,2,2,3,3,4,4,5,5,6,6,7,7,8,8,9,9,10,10,15,15,16,16,17,17,18,18,23,23,24,24,25,25,31,31,32,32,33,33,34,34],"right_children":[2,4,6,8,10,12,14,16,18,20,22,-1,-1,-1,-1,24,26,28,30,-1,-1,-1,-1,32,34,36,-1,-1,-1,-1,-1,38,40,-1,-1,-1,-1,-1,-1,-1,-1,-1,-1,-1,-1],"split_conditions":[1.77505E2,6.1005E1,4.49565E2,2.6195E1,1.05229996E2,2.5079001E2,8.6246497E2,1.1655E1,4.166E1,7.8995E1,1.3626999E2,1.4623142E1,2.2458937E1,3.7618195E1,8.225725E1,5.42E0,1.83E1,3.3765E1,4.9605E1,4.8367248E0,6.409215E0,8.504811E0,1.073589E1,2.4625E0,8.41E0,1.4775E1,1.5382708E0,2.0887513E0,2.648016E0,3.197426E0,3.9110703E0,1.0461E0,3.8325E0,4.5599037E-1,6.7490655E-1,9.174064E-1,1.1522486E0,2.5141502E-3,8.1753775E-2,1.8100184E-1,2.896995E-1,3.982848E-1,4.9681467E-1,6.161975E-1,7.4387544E-1],"split_indices":[0,0,0,0,0,0,0,0,0,0,0,0,0,0,0,0,0,0,0,0,0,0,0,0,0,0,0,0,0,0,0,0,0,0,0,0,0,0,0,0,0,2147483647,2147483647,2147483647,2147483647],"split_type":[0,0,0,0,0,0,0,0,0,0,0,0,0,0,0,0,0,0,0,0,0,0,0,0,0,0,0,0,0,0,0,0,0,0,0,0,0,0,0,0,0,0,0,0,0],"sum_hessian":[1.83E3,1.712E3,1.18E2,1.345E3,3.67E2,1.03E2,1.5E1,8.91E2,4.54E2,2.21E2,1.46E2,5.4E1,4.9E1,1.2E1,3E0,4.84E2,4.07E2,2.4E2,2.14E2,1.22E2,9.9E1,9.3E1,5.3E1,2.16E2,2.68E2,2.5E2,1.57E2,1.29E2,1.11E2,1.15E2,9.9E1,1.06E2,1.1E2,1.22E2,1.46E2,1.21E2,1.29E2,4.7E1,5.9E1,4.2E1,6.8E1,5.6E1,6.6E1,8.5E1,6.1E1],"tree_param":{"num_deleted":"4","num_feature":"14","num_nodes":"45","size_leaf_vector":"0"}},{"base_weights":[3.723706E1,2.6434801E1,2.3881651E2,1.5609911E1,7.6873344E1,2.1220299E2,7.7766675E2,8.185917E0,3.1598686E1,6.2085873E1,1.0034799E2,1.827912E2,3.3674557E2,4.4807506E0,1.3873452E1,2.6654696E1,3.9929646E1,5.3632202E1,7.11605E1,8.921348E1,1.1557271E2,1.4480568E2,2.0231862E2,1.9516238E0,6.7346773E0,1.1365628E1,1.6987123E1,2.3190659E1,2.968034E1,6.5593755E-1,3.0807881E0,5.5210123E0,8.140381E0,1.0043947E1,1.2232526E1,1.5043142E1,1.8156347E1,2.4694069E-1,1.2311934E0,2.2819638E0,3.5768712E0,4.784764E0,5.9580646E0,1.0173039E1,4.410653E0],"categories":[],"categories_nodes":[],"categories_segments":[],"categories_sizes":[],"default_left":[1,1,1,1,1,1,0,1,1,1,1,1,0,1,1,1,0,0,0,0,0,0,0,1,1,1,1,0,0,1,1,1,0,1,0,0,0,0,0,0,0,0,0,0,0],"id":4,"left_children":[1,3,5,7,9,11,-1,13,15,17,19,21,-1,23,25,27,-1,-1,-1,-1,-1,-1,-1,29,31,33,35,-1,-1,37,39,41,-1,43,-1,-1,-1,-1,-1,-1,-1,-1,-1,-1,-1],"loss_changes":[3.9804485E6,9.48187E5,1.1676725E6,1.6979944E5,1.001765E5,2.6759825E5,0E0,2.057129E4,1.7568562E4,1.0711E4,9.318375E3,2.598775E4,0E0,3.3699473E3,2.7926719E3,2.2773438E3,0E0,0E0,0E0,0E0,0E0,0E0,0E0,4.0682043E2,4.7709668E2,1.0349414E2,8.007422E1,0E0,0E0,2.9509789E1,4.5421387E1,1.6095215E1,0E0,7.4501953E0,0E0,0E0,0E0,0E0,0E0,0E0,0E0,0E0,0E0,0E0,0E0],"parents":[2147483647,0,0,1,1,2,2,3,3,4,4,5,5,7,7,8,8,9,9,10,10,11,11,13,13,14,14,15,15,23,23,24,24,25,25,26,26,29,29,30,30,31,31,33,33],"right_children":[2,4,6,8,10,12,-1,14,16,18,20,22,-1,24,26,28,-1,-1,-1,-1,-1,-1,-1,30,32,34,36,-1,-1,38,40,42,-1,44,-1,-1,-1,-1,-1,-1,-1,-1,-1,-1,-1],"split_conditions":[2.0420999E2,7.188E1,8.6246497E2,3.121E1,1.24925E2,3.92125E2,7.621134E1,1.4465E1,5.2045E1,9.5865E1,1.5698E2,2.5079001E2,3.3001064E1,7.035E0,2.1635E1,4.073E1,3.9131052E0,5.2559557E0,6.9737287E0,8.742921E0,1.1326125E1,1.4190956E1,1.9827225E1,3.3425E0,1.065E1,1.7145E1,2.541E1,2.2726846E0,2.9086733E0,1.715E0,4.74E0,8.860001E0,7.977573E-1,1.925E1,1.1987875E0,1.4742279E0,1.779322E0,2.4200186E-2,1.2065695E-1,2.2363245E-1,3.5053337E-1,4.6890685E-1,5.838903E-1,9.9695784E-1,4.32244E-1],"split_indices":[0,0,0,0,0,0,0,0,0,0,0,0,0,0,0,0,0,0,0,0,0,0,0,0,0,0,0,0,0,0,0,0,0,5,0,0,0,0,0,0,0,0,0,0,0],"split_type":[0,0,0,0,0,0,0,0,0,0,0,0,0,0,0,0,0,0,0,0,0,0,0,0,0,0,0,0,0,0,0,0,0,0,0,0,0,0,0,0,0,0,0,0,0],"sum_hessian":[1.83E3,1.738E3,9.2E1,1.432E3,3.06E2,8.9E1,3E0,9.79E2,4.53E2,1.9E2,1.16E2,7.4E1,1.5E1,5.94E2,3.85E2,2.87E2,1.66E2,1.02E2,8.8E1,7.1E1,4.5E1,2.8E1,4.6E1,2.81E2,3.13E2,2.16E2,1.69E2,1.38E2,1.49E2,1.32E2,1.49E2,1.71E2,1.42E2,9.1E1,1.25E2,6.9E1,1E2,7.9E1,5.3E1,6E1,8.9E1,6.9E1,1.02E2,8.8E1,3E0],"tree_param":{"num_deleted":"0","num_feature":"14","num_nodes":"45","size_leaf_vector":"0"}},{"base_weights":[3.3694454E1,2.3873867E1,2.1695578E2,1.4093341E1,6.944592E1,1.9215393E2,7.2050824E2,7.393421E0,2.8522478E1,5.4933117E1,8.903775E1,1.6055898E2,2.8827264E2,3.644797E0,1.1983449E1,2.324754E1,3.4925247E1,4.8346695E1,6.282904E1,7.734353E1,1.015844E2,1.3015144E2,1.7660205E2,1.695185E0,5.6061325E0,9.680697E0,1.5159002E1,2.0582655E1,2.558241E1,3.068907E1,3.753415E1,5.771469E-1,2.7005541E0,4.7092633E0,6.7054377E0,8.37642E0,1.0601775E1,1.3213281E1,1.6238535E1,9.540804E-2,9.5669115E-1,2.0396674E0,3.1551204E0,3.9683852E0,4.9935765E0,3.0236926E0,8.486828E0],"categories":[],"categories_nodes":[],"categories_segments":[],"categories_sizes":[],"default_left":[1,1,1,1,1,1,0,1,1,1,1,1,0,1,1,1,1,0,0,0,0,0,0,1,1,1,1,0,0,0,0,1,1,1,0,1,0,0,0,0,0,0,0,0,0,0,0],"id":5,"left_children":[1,3,5,7,9,11,-1,13,15,17,19,21,-1,23,25,27,29,-1,-1,-1,-1,-1,-1,31,33,35,37,-1,-1,-1,-1,39,41,43,-1,45,-1,-1,-1,-1,-1,-1,-1,-1,-1,-1,-1],"loss_changes":[3.289891E6,7.7404256E5,1.0221185E6,1.382871E5,8.2254875E4,2.265845E5,0E0,1.680286E4,1.4463406E4,6.16025E3,1.08915E4,1.085625E4,0E0,2.051894E3,3.045918E3,9.952656E2,1.0233906E3,0E0,0E0,0E0,0E0,0E0,0E0,3.0202692E2,2.2222363E2,2.0216211E2,1.4036719E2,0E0,0E0,0E0,0E0,2.2808823E1,3.1329468E1,3.2390137E0,0E0,2.9018066E1,0E0,0E0,0E0,0E0,0E0,0E0,0E0,0E0,0E0,0E0,0E0],"parents":[2147483647,0,0,1,1,2,2,3,3,4,4,5,5,7,7,8,8,9,9,10,10,11,11,13,13,14,14,15,15,16,16,23,23,24,24,25,25,26,26,31,31,32,32,33,33,35,35],"right_children":[2,4,6,8,10,12,-1,14,16,18,20,22,-1,24,26,28,30,-1,-1,-1,-1,-1,-1,32,34,36,38,-1,-1,-1,-1,40,42,44,-1,46,-1,-1,-1,-1,-1,-1,-1,-1,-1,-1,-1],"split_conditions":[2.0420999E2,7.188E1,8.6246497E2,3.121E1,1.18545E2,3.7695502E2,7.06098E1,1.3360001E1,4.798E1,9.549E1,1.4533E2,2.47405E2,2.825072E1,6.775E0,2.1224998E1,3.9855E1,5.721E1,4.737976E0,6.1572456E0,7.5796657E0,9.955271E0,1.2754841E1,1.7307001E1,3.24E0,1.0175E1,1.6220001E1,2.454E1,2.0171E0,2.5070763E0,3.0075288E0,3.6783466E0,1.3075E0,4.725E0,7.93E0,6.5713286E-1,-1.5755E1,1.0389739E0,1.2949015E0,1.5913764E0,9.349988E-3,9.375573E-2,1.998874E-1,3.0920178E-1,3.8890174E-1,4.893705E-1,2.9632187E-1,8.317091E-1],"split_indices":[0,0,0,0,0,0,0,0,0,0,0,0,0,0,0,0,0,0,0,0,0,0,0,0,0,0,0,0,0,0,0,0,0,0,0,4,0,0,0,0,0,0,0,0,0,0,0],"split_type":[0,0,0,0,0,0,0,0,0,0,0,0,0,0,0,0,0,0,0,0,0,0,0,0,0,0,0,0,0,0,0,0,0,0,0,0,0,0,0,0,0,0,0,0,0,0,0],"sum_hessian":[1.83E3,1.738E3,9.2E1,1.432E3,3.06E2,8.9E1,3E0,9.79E2,4.53E2,1.78E2,1.28E2,6.9E1,2E1,5.4E2,4.39E2,2.51E2,2.02E2,1.01E2,7.7E1,7E1,5.8E1,2.7E1,4.2E1,2.72E2,2.68E2,2.57E2,1.82E2,1.22E2,1.29E2,8.2E1,1.2E2,1.3E2,1.42E2,1.51E2,1.17E2,1.11E2,1.46E2,7E1,1.12E2,5.9E1,7.1E1,6.1E1,8.1E1,4.7E1,1.04E2,3E0,1.08E2],"tree_param":{"num_deleted":"0","num_feature":"14","num_nodes":"47","size_leaf_vector":"0"}},{"base_weights":[3.048962E1,2.1411324E1,1.9432745E2,1.1928092E1,5.8927986E1,1.6926901E2,6.1633734E2,6.162083E0,2.3532284E1,4.5467175E1,7.763833E1,1.4203874E2,2.4940904E2,3.072865E0,9.888869E0,1.9392801E1,2.9153261E1,3.91793E1,5.1986675E1,6.722008E1,8.907502E1,1.1557242E2,1.5656165E2,1.2814709E0,4.6131124E0,8.153403E0,1.2337952E1,1.6705103E1,2.1452387E1,2.6364656E1,3.1685867E1,3.9222115E-1,2.0671008E0,3.8344634E0,5.5097594E0,7.3442707E0,9.068643E0,1.1118852E1,1.3363924E1,-5.551418E-3,6.416859E-1,1.574997E0,2.4546683E0,3.303377E0,4.2223964E0,2.759234E0,7.4183145E0],"categories":[],"categories_nodes":[],"categories_segments":[],"categories_sizes":[],"default_left":[1,1,1,1,1,1,0,1,1,1,1,1,0,1,1,1,1,0,0,0,0,0,0,1,1,1,1,0,0,0,0,1,1,1,0,1,0,0,0,0,0,0,0,0,0,0,0],"id":6,"left_children":[1,3,5,7,9,11,-1,13,15,17,19,21,-1,23,25,27,29,-1,-1,-1,-1,-1,-1,31,33,35,37,-1,-1,-1,-1,39,41,43,-1,45,-1,-1,-1,-1,-1,-1,-1,-1,-1,-1,-1],"loss_changes":[2.7189955E6,6.1685894E5,9.1007875E5,9.2629266E4,8.4496625E4,1.649485E5,0E0,1.0640582E4,1.0089375E4,6.3167812E3,1.1132875E4,8.923625E3,0E0,1.3926216E3,1.6640391E3,1.087E3,4.6959375E2,0E0,0E0,0E0,0E0,0E0,0E0,1.6230313E2,1.6012988E2,1.0138281E2,4.205664E1,0E0,0E0,0E0,0E0,1.1852715E1,1.5944641E1,9.429932E0,0E0,1.6203613E1,0E0,0E0,0E0,0E0,0E0,0E0,0E0,0E0,0E0,0E0,0E0],"parents":[2147483647,0,0,1,1,2,2,3,3,4,4,5,5,7,7,8,8,9,9,10,10,11,11,13,13,14,14,15,15,16,16,23,23,24,24,25,25,26,26,31,31,32,32,33,33,35,35],"right_children":[2,4,6,8,10,12,-1,14,16,18,20,22,-1,24,26,28,30,-1,-1,-1,-1,-1,-1,32,34,36,38,-1,-1,-1,-1,40,42,44,-1,46,-1,-1,-1,-1,-1,-1,-1,-1,-1,-1,-1],"split_conditions":[1.9804001E2,6.558E1,6.87155E2,2.8135E1,1.1189E2,3.60825E2,6.040106E1,1.252E1,4.5455E1,8.3745E1,1.41645E2,2.4167499E2,2.4442085E1,6.0249996E0,1.9385E1,3.5614998E1,5.472E1,3.8395712E0,5.094694E0,6.5875673E0,8.729352E0,1.1326097E1,1.534304E1,2.6325E0,9.385E0,1.6005001E1,2.3075E1,1.6371001E0,2.1023338E0,2.5837362E0,3.1052148E0,9.175E-1,4.2200003E0,7.525E0,5.399564E-1,-1.7904999E1,8.8872695E-1,1.0896474E0,1.3096645E0,-5.4403895E-4,6.288522E-2,1.543497E-1,2.4055749E-1,3.2373092E-1,4.1379485E-1,2.7040493E-1,7.269948E-1],"split_indices":[0,0,0,0,0,0,0,0,0,0,0,0,0,0,0,0,0,0,0,0,0,0,0,0,0,0,0,0,0,0,0,0,0,0,0,4,0,0,0,0,0,0,0,0,0,0,0],"split_type":[0,0,0,0,0,0,0,0,0,0,0,0,0,0,0,0,0,0,0,0,0,0,0,0,0,0,0,0,0,0,0,0,0,0,0,0,0,0,0,0,0,0,0,0,0,0,0],"sum_hessian":[1.83E3,1.735E3,9.5E1,1.386E3,3.49E2,9.1E1,4E0,9.27E2,4.59E2,2.05E2,1.44E2,7E1,2.1E1,5.08E2,4.19E2,2.67E2,1.92E2,1.08E2,9.7E1,7.9E1,6.5E1,2.8E1,4.2E1,2.36E2,2.72E2,2.48E2,1.71E2,1.2E2,1.47E2,9.7E1,9.5E1,1.12E2,1.24E2,1.49E2,1.23E2,1.37E2,1.11E2,8.4E1,8.7E1,4.2E1,7E1,5.8E1,6.6E1,6.8E1,8.1E1,3E0,1.34E2],"tree_param":{"num_deleted":"0","num_feature":"14","num_nodes":"47","size_leaf_vector":"0"}},{"base_weights":[2.7585346E1,1.9471794E1,1.7899269E2,1.1483056E1,5.669456E1,1.5729243E2,6.222501E2,5.777263E0,2.272669E1,4.583189E1,7.442326E1,1.351699E2,2.588271E2,2.9214597E0,9.385278E0,1.8253706E1,2.8145948E1,3.94318E1,5.256131E1,6.596851E1,8.654414E1,1.1147222E2,1.5368602E2,1.1645226E0,4.3208838E0,7.7046714E0,1.1781572E1,1.5768279E1,2.0168558E1,2.4840628E1,3.0527475E1,3.9927956E1,1.691997E1,2.701392E-1,1.8146145E0,3.5808887E0,5.324447E0,6.7638345E0,8.42402E0,1.0451646E1,1.2678097E1,-9.064452E-2,4.4302568E-1,1.3499618E0,2.2014544E0,3.0054672E0,3.9296777E0,2.4845E0,6.8481E0],"categories":[],"categories_nodes":[],"categories_segments":[],"categories_sizes":[],"default_left":[1,1,1,1,1,1,0,1,1,1,1,1,0,1,1,1,1,1,0,0,0,0,0,1,1,1,1,0,0,0,0,0,0,1,1,1,0,1,0,0,0,0,0,0,0,0,0,0,0],"id":7,"left_children":[1,3,5,7,9,11,-1,13,15,17,19,21,-1,23,25,27,29,31,-1,-1,-1,-1,-1,33,35,37,39,-1,-1,-1,-1,-1,-1,41,43,45,-1,47,-1,-1,-1,-1,-1,-1,-1,-1,-1,-1,-1],"loss_changes":[2.245611E6,5.163948E5,7.958935E5,9.177267E4,5.5591188E4,1.667785E5,0E0,9.769477E3,1.1123625E4,6.1476875E3,5.923375E3,1.5951125E4,0E0,1.2999702E3,1.5811719E3,9.1675E2,8.866094E2,4.1801562E2,0E0,0E0,0E0,0E0,0E0,1.3580576E2,1.9184766E2,9.703125E1,4.8248047E1,0E0,0E0,0E0,0E0,0E0,0E0,6.754751E0,1.810196E1,1.617627E1,0E0,1.4761719E1,0E0,0E0,0E0,0E0,0E0,0E0,0E0,0E0,0E0,0E0,0E0],"parents":[2147483647,0,0,1,1,2,2,3,3,4,4,5,5,7,7,8,8,9,9,10,10,11,11,13,13,14,14,15,15,16,16,17,17,23,23,24,24,25,25,26,26,33,33,34,34,35,35,37,37],"right_children":[2,4,6,8,10,12,-1,14,16,18,20,22,-1,24,26,28,30,32,-1,-1,-1,-1,-1,34,36,38,40,-1,-1,-1,-1,-1,-1,42,44,46,-1,48,-1,-1,-1,-1,-1,-1,-1,-1,-1,-1,-1],"split_conditions":[2.0420999E2,7.188E1,8.6246497E2,2.984E1,1.2603E2,4.0256E2,6.098051E1,1.316E1,4.685E1,9.5865E1,1.5932999E2,2.7702002E2,2.5365053E1,6.0950003E0,2.0494999E1,3.7205E1,5.721E1,9.4395E1,5.151008E0,6.4649143E0,8.481326E0,1.0924277E1,1.506123E1,2.2375002E0,9.845E0,1.6005001E1,2.3855E1,1.5452913E0,1.9765186E0,2.4343815E0,2.9916925E0,3.9129395E0,1.658157E0,7.504E-1,4.1300497E0,7.5600004E0,5.217958E-1,-1.5755E1,8.255539E-1,1.0242612E0,1.2424535E0,-8.883163E-3,4.3416515E-2,1.3229625E-1,2.1574253E-1,2.945358E-1,3.851084E-1,2.4348098E-1,6.711138E-1],"split_indices":[0,0,0,0,0,0,0,0,0,0,0,0,0,0,0,0,0,0,0,0,0,0,0,0,0,0,0,0,0,0,0,0,0,0,0,0,0,4,0,0,0,0,0,0,0,0,0,0,0],"split_type":[0,0,0,0,0,0,0,0,0,0,0,0,0,0,0,0,0,0,0,0,0,0,0,0,0,0,0,0,0,0,0,0,0,0,0,0,0,0,0,0,0,0,0,0,0,0,0,0,0],"sum_hessian":[1.83E3,1.738E3,9.2E1,1.432E3,3.06E2,8.9E1,3E0,9.51E2,4.81E2,1.92E2,1.14E2,7.5E1,1.4E1,5.32E2,4.19E2,2.66E2,2.15E2,1.02E2,9E1,7.1E1,4.3E1,3.6E1,3.9E1,2.37E2,2.95E2,2.49E2,1.7E2,1.2E2,1.46E2,9.5E1,1.2E2,9.9E1,3E0,1.01E2,1.36E2,1.73E2,1.22E2,1.13E2,1.36E2,7.4E1,9.6E1,3.1E1,7E1,6.5E1,7.1E1,7E1,1.03E2,3E0,1.1E2],"tree_param":{"num_deleted":"0","num_feature":"14","num_nodes":"49","size_leaf_vector":"0"}},{"base_weights":[2.4966469E1,1.7965836E1,1.7033719E2,1.0439511E1,5.270502E1,1.4816376E2,5.765147E2,5.5637283E0,2.1375948E1,4.3356346E1,7.227637E1,1.2797363E2,2.4385263E2,2.973859E0,9.380664E0,1.795299E1,2.6658903E1,3.6291695E1,4.9879463E1,6.2683197E1,8.2372986E1,1.12468506E2,1.5231789E2,1.2692915E0,4.4415436E0,7.6791086E0,1.1582844E1,1.6111866E1,2.0430384E1,2.4701464E1,2.927467E1,4.457758E-1,2.0420299E0,3.6468427E0,5.4501963E0,6.9796405E0,8.778441E0,1.0422911E1,1.2549266E1,1.6776426E-1,9.0060043E-1,1.5307372E0,2.3551233E0,3.1521463E0,3.9473557E0,7.0416183E0,2.7690094E0],"categories":[],"categories_nodes":[],"categories_segments":[],"categories_sizes":[],"default_left":[1,1,1,1,1,1,0,1,1,1,1,1,0,1,1,1,1,0,0,0,0,0,0,1,1,1,1,0,0,0,0,1,1,1,0,1,0,0,0,0,0,0,0,0,0,0,0],"id":8,"left_children":[1,3,5,7,9,11,-1,13,15,17,19,21,-1,23,25,27,29,-1,-1,-1,-1,-1,-1,31,33,35,37,-1,-1,-1,-1,39,41,43,-1,45,-1,-1,-1,-1,-1,-1,-1,-1,-1,-1,-1],"loss_changes":[1.8601362E6,4.564158E5,6.7039E5,7.653361E4,5.3653188E4,1.24911125E5,0E0,9.805568E3,7.487703E3,7.9194062E3,4.2805625E3,8.649E3,0E0,1.4772036E3,1.3981406E3,8.749297E2,1.0357031E2,0E0,0E0,0E0,0E0,0E0,0E0,1.7287418E2,2.2672998E2,9.98291E1,4.0160156E1,0E0,0E0,0E0,0E0,1.5977268E1,1.5240784E1,7.5146484E0,0E0,8.791992E0,0E0,0E0,0E0,0E0,0E0,0E0,0E0,0E0,0E0,0E0,0E0],"parents":[2147483647,0,0,1,1,2,2,3,3,4,4,5,5,7,7,8,8,9,9,10,10,11,11,13,13,14,14,15,15,16,16,23,23,24,24,25,25,26,26,31,31,32,32,33,33,35,35],"right_children":[2,4,6,8,10,12,-1,14,16,18,20,22,-1,24,26,28,30,-1,-1,-1,-1,-1,-1,32,34,36,38,-1,-1,-1,-1,40,42,44,-1,46,-1,-1,-1,-1,-1,-1,-1,-1,-1,-1,-1],"split_conditions":[2.14005E2,7.322E1,8.6246497E2,3.2555E1,1.3282E2,4.49565E2,5.649844E1,1.4465E1,5.2045E1,9.8095E1,1.6378E2,3.1383502E2,2.3897556E1,6.855E0,2.2175E1,4.2864998E1,6.343E1,3.556586E0,4.8881874E0,6.142953E0,8.072553E0,1.1021914E1,1.4927153E1,3.4475E0,1.0855E1,1.848E1,2.6939999E1,1.5789628E0,2.0021775E0,2.4207435E0,2.8689175E0,1.8425E0,4.74E0,8.860001E0,5.3411925E-1,1.925E1,8.6028725E-1,1.0214453E0,1.229828E0,1.6440896E-2,8.825884E-2,1.5001224E-1,2.3080207E-1,3.0891034E-1,3.8684085E-1,6.9007856E-1,2.713629E-1],"split_indices":[0,0,0,0,0,0,0,0,0,0,0,0,0,0,0,0,0,0,0,0,0,0,0,0,0,0,0,0,0,0,0,0,0,0,0,5,0,0,0,0,0,0,0,0,0,0,0],"split_type":[0,0,0,0,0,0,0,0,0,0,0,0,0,0,0,0,0,0,0,0,0,0,0,0,0,0,0,0,0,0,0,0,0,0,0,0,0,0,0,0,0,0,0,0,0,0,0],"sum_hessian":[1.83E3,1.747E3,8.3E1,1.437E3,3.1E2,8E1,3E0,9.95E2,4.42E2,2.12E2,9.8E1,6.8E1,1.2E1,5.94E2,4.01E2,2.71E2,1.71E2,1.05E2,1.07E2,5.4E1,4.4E1,4.5E1,2.3E1,2.76E2,3.18E2,2.29E2,1.72E2,1.6E2,1.11E2,1.04E2,6.7E1,1.35E2,1.41E2,1.81E2,1.37E2,1.45E2,8.4E1,8.4E1,8.8E1,8.6E1,4.9E1,5.7E1,8.4E1,7.4E1,1.07E2,1.42E2,3E0],"tree_param":{"num_deleted":"0","num_feature":"14","num_nodes":"47","size_leaf_vector":"0"}},{"base_weights":[2.2599447E1,1.6305489E1,1.5663396E2,9.62575E0,4.8816746E1,1.3552432E2,5.341409E2,5.096645E0,1.9772297E1,4.0838318E1,6.7998E1,1.159587E2,2.1801051E2,2.7396147E0,8.643436E0,1.6534018E1,2.472382E1,3.489738E1,4.7839725E1,5.8982117E1,7.601507E1,9.677521E1,1.3015622E2,1.2427863E0,4.1522245E0,7.1914983E0,1.08246355E1,1.4698194E1,1.8628174E1,2.2577368E1,2.6870684E1,4.0358025E-1,1.9377505E0,3.3713274E0,4.9719152E0,6.3828325E0,8.17464E0,1.6556472E-1,8.4392446E-1,1.3833114E0,2.2187092E0,6.4411035E0,2.5559192E0],"categories":[],"categories_nodes":[],"categories_segments":[],"categories_sizes":[],"default_left":[1,1,1,1,1,1,0,1,1,1,1,1,0,1,1,1,1,0,0,0,0,0,0,1,1,1,0,0,0,0,0,1,1,0,0,1,0,0,0,0,0,0,0],"id":9,"left_children":[1,3,5,7,9,11,-1,13,15,17,19,21,-1,23,25,27,29,-1,-1,-1,-1,-1,-1,31,33,35,-1,-1,-1,-1,-1,37,39,-1,-1,41,-1,-1,-1,-1,-1,-1,-1],"loss_changes":[1.5419192E6,3.7951338E5,5.8040225E5,6.664666E4,4.2719E4,1.01883375E5,0E0,8.37499E3,6.7333906E3,7.1075E3,1.5976562E3,5.1528125E3,0E0,1.2707915E3,1.1740918E3,7.4627344E2,1.5030469E2,0E0,0E0,0E0,0E0,0E0,0E0,1.6950916E2,1.7396436E2,1.2725391E2,0E0,0E0,0E0,0E0,0E0,1.3104776E1,1.840857E1,0E0,0E0,5.536621E0,0E0,0E0,0E0,0E0,0E0,0E0,0E0],"parents":[2147483647,0,0,1,1,2,2,3,3,4,4,5,5,7,7,8,8,9,9,10,10,11,11,13,13,14,14,15,15,16,16,23,23,24,24,25,25,31,31,32,32,35,35],"right_children":[2,4,6,8,10,12,-1,14,16,18,20,22,-1,24,26,28,30,-1,-1,-1,-1,-1,-1,32,34,36,-1,-1,-1,-1,-1,38,40,-1,-1,42,-1,-1,-1,-1,-1,-1,-1],"split_conditions":[2.16745E2,7.6575E1,8.6246497E2,3.289E1,1.3794E2,4.1234E2,5.234581E1,1.4775E1,5.316E1,1.0655E2,1.6888E2,2.8495502E2,2.136503E1,7.37E0,2.3425E1,4.2864998E1,6.354E1,3.4199433E0,4.688293E0,5.780247E0,7.4494762E0,9.48397E0,1.2755309E1,3.4475E0,1.0855E1,1.8645E1,1.0608143E0,1.4404229E0,1.825561E0,2.2125819E0,2.633327E0,1.8875E0,4.74E0,3.3039007E-1,4.8724768E-1,1.8689999E1,8.011147E-1,1.6225342E-2,8.2704596E-2,1.355645E-1,2.174335E-1,6.3122815E-1,2.504801E-1],"split_indices":[0,0,0,0,0,0,0,0,0,0,0,0,0,0,0,0,0,0,0,0,0,0,0,0,0,0,0,0,0,0,0,0,0,0,0,5,0,0,0,0,0,0,0],"split_type":[0,0,0,0,0,0,0,0,0,0,0,0,0,0,0,0,0,0,0,0,0,0,0,0,0,0,0,0,0,0,0,0,0,0,0,0,0,0,0,0,0,0,0],"sum_hessian":[1.83E3,1.749E3,8.1E1,1.452E3,2.97E2,7.8E1,3E0,1.005E3,4.47E2,2.12E2,8.5E1,6.5E1,1.3E1,6.05E2,4E2,2.73E2,1.74E2,1.18E2,9.4E1,4.4E1,4.1E1,3.1E1,3.4E1,2.95E2,3.1E2,2.43E2,1.57E2,1.5E2,1.23E2,9.3E1,8.1E1,1.35E2,1.6E2,1.62E2,1.48E2,1.38E2,1.05E2,9E1,4.5E1,5.7E1,1.03E2,1.35E2,3E0],"tree_param":{"num_deleted":"0","num_feature":"14","num_nodes":"43","size_leaf_vector":"0"}},{"base_weights":[2.0456505E1,1.4764046E1,1.4324712E2,8.763456E0,4.4590313E1,1.23365265E2,4.9488153E2,4.700004E0,1.819175E1,3.712514E1,6.1547527E1,1.0597814E2,2.0207181E2,2.544739E0,8.037192E0,1.5275322E1,2.2667347E1,3.2343136E1,4.3949837E1,5.3249477E1,6.896992E1,9.263336E1,1.25430115E2,1.2250015E0,3.9268224E0,6.6257415E0,9.960798E0,1.3569535E1,1.7095625E1,2.0572636E1,2.4397898E1,2.7751448E1,3.424204E1,4.619232E-1,1.9329723E0,3.155461E0,4.5725417E0,5.868948E0,7.4748034E0,8.956431E0,1.0709462E1,1.7291428E-1,9.171936E-1,1.497941E0,2.2272277E0,5.925572E0,2.3680594E0],"categories":[],"categories_nodes":[],"categories_segments":[],"categories_sizes":[],"default_left":[1,1,1,1,1,1,0,1,1,1,1,1,0,1,1,1,1,1,0,0,0,0,0,1,1,1,1,0,0,0,0,0,0,1,1,0,0,1,0,0,0,0,0,0,0,0,0],"id":10,"left_children":[1,3,5,7,9,11,-1,13,15,17,19,21,-1,23,25,27,29,31,-1,-1,-1,-1,-1,33,35,37,39,-1,-1,-1,-1,-1,-1,41,43,-1,-1,45,-1,-1,-1,-1,-1,-1,-1,-1,-1],"loss_changes":[1.2775605E6,3.1294138E5,5.0461325E5,5.578797E4,3.4706812E4,8.5018125E4,0E0,7.312533E3,5.3459688E3,5.2252188E3,1.6252188E3,5.2953125E3,0E0,1.1245583E3,1.0034453E3,5.726094E2,7.297656E1,7.7640625E1,0E0,0E0,0E0,0E0,0E0,1.6958813E2,1.287627E2,9.3146484E1,9.988281E0,0E0,0E0,0E0,0E0,0E0,0E0,1.9277344E1,1.4060242E1,0E0,0E0,3.246582E0,0E0,0E0,0E0,0E0,0E0,0E0,0E0,0E0,0E0],"parents":[2147483647,0,0,1,1,2,2,3,3,4,4,5,5,7,7,8,8,9,9,10,10,11,11,13,13,14,14,15,15,16,16,17,17,23,23,24,24,25,25,26,26,33,33,34,34,37,37],"right_children":[2,4,6,8,10,12,-1,14,16,18,20,22,-1,24,26,28,30,32,-1,-1,-1,-1,-1,34,36,38,40,-1,-1,-1,-1,-1,-1,42,44,-1,-1,46,-1,-1,-1,-1,-1,-1,-1,-1,-1],"split_conditions":[2.1889499E2,7.7135E1,8.6246497E2,3.3765E1,1.37765E2,4.49565E2,4.849839E1,1.5295E1,5.448E1,1.0947E2,1.6888E2,3.1383502E2,1.9803036E1,7.93E0,2.3779999E1,4.3525E1,6.354E1,8.5384995E1,4.307084E0,5.2184486E0,6.759052E0,9.07807E0,1.22921505E1,3.92E0,1.109E1,1.905E1,2.839E1,1.3298144E0,1.6753712E0,2.0161183E0,2.3909938E0,2.7196417E0,3.3557198E0,2.0325E0,5.7299995E0,3.092352E-1,4.481091E-1,1.8814999E1,7.325307E-1,8.7773025E-1,1.0495273E0,1.6945599E-2,8.988497E-2,1.4679822E-1,2.182683E-1,5.8070606E-1,2.3206982E-1],"split_indices":[0,0,0,0,0,0,0,0,0,0,0,0,0,0,0,0,0,0,0,0,0,0,0,0,0,0,0,0,0,0,0,0,0,0,0,0,0,5,0,0,0,0,0,0,0,0,0],"split_type":[0,0,0,0,0,0,0,0,0,0,0,0,0,0,0,0,0,0,0,0,0,0,0,0,0,0,0,0,0,0,0,0,0,0,0,0,0,0,0,0,0,0,0,0,0,0,0],"sum_hessian":[1.83E3,1.75E3,8E1,1.458E3,2.92E2,7.7E1,3E0,1.02E3,4.38E2,2.05E2,8.7E1,6.5E1,1.2E1,6.21E2,3.99E2,2.68E2,1.7E2,1.24E2,8.1E1,4.5E1,4.2E1,4.2E1,2.3E1,3.19E2,3.02E2,2.33E2,1.66E2,1.43E2,1.25E2,8.3E1,8.7E1,4.1E1,8.3E1,1.55E2,1.64E2,1.41E2,1.61E2,1.28E2,1.05E2,7.7E1,8.9E1,9.7E1,5.8E1,7E1,9.4E1,1.25E2,3E0],"tree_param":{"num_deleted":"0","num_feature":"14","num_nodes":"47","size_leaf_vector":"0"}},{"base_weights":[1.8520802E1,1.3502396E1,1.3421553E2,8.013851E0,4.133174E1,1.1459383E2,4.5850775E2,4.244969E0,1.658308E1,3.4296722E1,5.7260212E1,9.7951675E1,1.8379207E2,2.1873345E0,7.099881E0,1.3659573E1,2.0475739E1,2.968655E1,4.021188E1,4.92121E1,6.398423E1,8.543287E1,1.1365014E2,9.1588956E-1,3.2520936E0,5.597558E0,8.679569E0,1.2248955E1,1.5284308E1,1.8429905E1,2.22369E1,3.0507228E-1,1.4620516E0,2.5448415E0,3.8915334E0,4.9516068E0,6.12639E0,7.588847E0,9.484461E0,2.2860012E1,1.51962E1,-3.13796E-2,5.0560343E-1,1.1049248E0,1.7020494E0,3.48529E0,4.2306705E0,1.9063127E0,5.012088E0,3.3123298E0,1.9113611E1],"categories":[],"categories_nodes":[],"categories_segments":[],"categories_sizes":[],"default_left":[1,1,1,1,1,1,0,1,1,1,1,1,0,1,1,1,1,0,0,0,0,0,0,1,1,1,1,0,0,0,1,1,1,0,1,1,0,0,0,0,1,0,0,0,0,0,0,0,0,0,0],"id":11,"left_children":[1,3,5,7,9,11,-1,13,15,17,19,21,-1,23,25,27,29,-1,-1,-1,-1,-1,-1,31,33,35,37,-1,-1,-1,39,41,43,-1,45,47,-1,-1,-1,-1,49,-1,-1,-1,-1,-1,-1,-1,-1,-1,-1],"loss_changes":[1.0611245E6,2.678354E5,4.3048525E5,4.7319906E4,3.0329125E4,6.578281E4,0E0,5.97291E3,4.7845156E3,4.2721562E3,1.4460625E3,2.0795625E3,0E0,7.9835425E2,9.504961E2,3.7884766E2,2.3408594E2,0E0,0E0,0E0,0E0,0E0,0E0,8.8861084E1,1.297351E2,3.4421387E1,9.1799805E1,0E0,0E0,0E0,4.0109375E1,9.32854E0,7.5688477E0,0E0,5.46875E-1,3.050293E0,0E0,0E0,0E0,0E0,4.2635742E2,0E0,0E0,0E0,0E0,0E0,0E0,0E0,0E0,0E0,0E0],"parents":[2147483647,0,0,1,1,2,2,3,3,4,4,5,5,7,7,8,8,9,9,10,10,11,11,13,13,14,14,15,15,16,16,23,23,24,24,25,25,26,26,30,30,31,31,32,32,34,34,35,35,40,40],"right_children":[2,4,6,8,10,12,-1,14,16,18,20,22,-1,24,26,28,30,-1,-1,-1,-1,-1,-1,32,34,36,38,-1,-1,-1,40,42,44,-1,46,48,-1,-1,-1,-1,50,-1,-1,-1,-1,-1,-1,-1,-1,-1,-1],"split_conditions":[2.2373001E2,7.8995E1,8.6246497E2,3.3765E1,1.4123001E2,4.49565E2,4.4933758E1,1.4465E1,5.316E1,1.09665E2,1.77505E2,3.1383502E2,1.8011621E1,6.775E0,2.1775E1,4.3525E1,6.354E1,2.9092817E0,3.9407642E0,4.822786E0,6.2704544E0,8.372421E0,1.1137713E1,3.24E0,1.0295E1,1.7555E1,2.6939999E1,1.2003975E0,1.4978622E0,1.8061306E0,3.93E1,1.0461E0,4.725E0,2.4939446E-1,1.2559999E1,-1.1105E1,6.003862E-1,7.43707E-1,9.2947716E-1,2.240281E0,5.61485E1,-3.0752006E-3,4.9549136E-2,1.08282626E-1,1.6680084E-1,3.4155843E-1,4.146057E-1,1.8681864E-1,4.911846E-1,3.246083E-1,1.8731339E0],"split_indices":[0,0,0,0,0,0,0,0,0,0,0,0,0,0,0,0,0,0,0,0,0,0,0,0,0,0,0,0,0,0,3,0,0,0,0,4,0,0,0,0,3,0,0,0,0,0,0,0,0,0,0],"split_type":[0,0,0,0,0,0,0,0,0,0,0,0,0,0,0,0,0,0,0,0,0,0,0,0,0,0,0,0,0,0,0,0,0,0,0,0,0,0,0,0,0,0,0,0,0,0,0,0,0,0,0],"sum_hessian":[1.83E3,1.755E3,7.5E1,1.467E3,2.88E2,7.2E1,3E0,1.02E3,4.47E2,2.02E2,8.6E1,6E1,1.2E1,5.94E2,4.26E2,2.58E2,1.89E2,1.17E2,8.5E1,4.3E1,4.3E1,3.7E1,2.3E1,2.72E2,3.22E2,2.21E2,2.05E2,1.43E2,1.15E2,9.3E1,9.6E1,1.3E2,1.42E2,1.56E2,1.66E2,1.05E2,1.16E2,9.2E1,1.13E2,8.6E1,1E1,4.7E1,8.3E1,6.1E1,8.1E1,8.2E1,8.4E1,3E0,1.02E2,3E0,7E0],"tree_param":{"num_deleted":"0","num_feature":"14","num_nodes":"51","size_leaf_vector":"0"}},{"base_weights":[1.6769047E1,1.2385716E1,1.2684989E2,7.4299736E0,3.9037178E1,1.0715318E2,4.2480737E2,3.8340163E0,1.5273747E1,3.2861298E1,5.5438072E1,9.100192E1,1.6716595E2,1.9190392E0,6.3359456E0,1.2581683E1,1.9232018E1,2.818462E1,3.807904E1,8.276692E-1,2.8769124E0,4.8850145E0,7.7217402E0,1.1351622E1,1.4495921E1,1.728567E1,2.0708256E1,2.8974009E1,1.8283451E1,2.7478185E-1,1.3213795E0,2.2769163E0,3.433107E0,4.3460727E0,5.2929816E0,6.761438E0,8.548906E0,5.0886426E0,1.1425034E1,2.3532824E1,2.9638453E0,-8.219779E-2,4.3228105E-1,9.9838877E-1,1.5372826E0],"categories":[],"categories_nodes":[],"categories_segments":[],"categories_sizes":[],"default_left":[1,1,1,1,1,1,0,1,1,1,0,0,0,1,1,1,1,1,0,1,1,1,1,1,0,0,0,0,1,1,1,0,0,0,0,0,0,0,0,0,0,0,0,0,0],"id":12,"left_children":[1,3,5,7,9,11,-1,13,15,17,-1,-1,-1,19,21,23,25,27,-1,29,31,33,35,37,-1,-1,-1,-1,39,41,43,-1,-1,-1,-1,-1,-1,-1,-1,-1,-1,-1,-1,-1,-1],"loss_changes":[8.817851E5,2.323845E5,3.6476338E5,4.186446E4,2.6045969E4,4.947125E4,0E0,4.871338E3,4.702539E3,3.8140312E3,0E0,0E0,0E0,6.002427E2,8.3839844E2,4.712539E2,1.4135156E2,2.905703E2,0E0,7.256052E1,8.925708E1,1.5508789E1,1.0481738E2,6.267578E0,0E0,0E0,0E0,0E0,7.883572E2,7.7509594E0,5.901581E0,0E0,0E0,0E0,0E0,0E0,0E0,0E0,0E0,0E0,0E0,0E0,0E0,0E0,0E0],"parents":[2147483647,0,0,1,1,2,2,3,3,4,4,5,5,7,7,8,8,9,9,13,13,14,14,15,15,16,16,17,17,19,19,20,20,21,21,22,22,23,23,28,28,29,29,30,30],"right_children":[2,4,6,8,10,12,-1,14,16,18,-1,-1,-1,20,22,24,26,28,-1,30,32,34,36,38,-1,-1,-1,-1,40,42,44,-1,-1,-1,-1,-1,-1,-1,-1,-1,-1,-1,-1,-1,-1],"split_conditions":[2.3376001E2,8.1445E1,8.6246497E2,3.3765E1,1.5170001E2,4.49565E2,4.1631123E1,1.4105E1,5.5739998E1,1.1293E2,5.432931E0,8.918188E0,1.6382263E1,6.775E0,2.1224998E1,4.5519997E1,6.558E1,1.8783E2,3.731746E0,3.24E0,1.0175E1,1.7015E1,2.6875E1,-1.626E1,1.4206002E0,1.6939956E0,2.029409E0,2.8394527E0,4.7749996E0,8.766E-1,4.725E0,2.2313778E-1,3.3644447E-1,4.2591512E-1,5.1871216E-1,6.626209E-1,8.377928E-1,4.9868697E-1,1.1196532E0,2.3062167E0,2.9045683E-1,-8.055383E-3,4.2363543E-2,9.78421E-2,1.5065369E-1],"split_indices":[0,0,0,0,0,0,0,0,0,0,0,0,0,0,0,0,0,10,0,0,0,0,0,4,0,0,0,0,2,0,0,0,0,0,0,0,0,0,0,0,0,0,0,0,0],"split_type":[0,0,0,0,0,0,0,0,0,0,0,0,0,0,0,0,0,0,0,0,0,0,0,0,0,0,0,0,0,0,0,0,0,0,0,0,0,0,0,0,0,0,0,0,0],"sum_hessian":[1.83E3,1.761E3,6.9E1,1.486E3,2.75E2,6.6E1,3E0,1.02E3,4.66E2,2.02E2,7.3E1,5.4E1,1.2E1,5.79E2,4.41E2,2.8E2,1.86E2,1.1E2,9.2E1,2.72E2,3.07E2,2.18E2,2.23E2,1.75E2,1.05E2,8.6E1,1E2,1E2,1E1,1.3E2,1.42E2,1.51E2,1.56E2,1E2,1.18E2,1.08E2,1.15E2,3E0,1.72E2,7E0,3E0,3.8E1,9.2E1,6.1E1,8.1E1],"tree_param":{"num_deleted":"0","num_feature":"14","num_nodes":"45","size_leaf_vector":"0"}},{"base_weights":[1.5176768E1,1.11868515E1,1.1537758E2,6.7285295E0,3.5370262E1,9.703126E1,3.9358405E2,3.532528E0,1.398157E1,2.9820042E1,5.0230183E1,8.2811356E1,1.5522153E2,1.872697E0,6.0153356E0,1.1534143E1,1.745374E1,2.5340664E1,3.4214336E1,4.1871574E1,5.4478394E1,7.134245E1,9.724772E1,8.946702E-1,2.8961158E0,4.9093904E0,7.5068145E0,1.0410161E1,1.3165492E1,1.5873596E1,1.90217E1,2.6067299E1,1.6736645E1,3.0362323E-1,1.3831141E0,2.401812E0,3.4702225E0,4.3028994E0,5.549461E0,6.6301827E0,8.023488E0,4.4496965E0,1.0486899E1,1.9695044E1,1.30326E1,2.1514885E1,2.7460012E0,4.138695E-2,5.623223E-1,1.0715231E0,1.620421E0,2.1013007E0,2.6424973E0,1.4428627E0,4.351608E0,1.4543271E0,1.6619322E1],"categories":[],"categories_nodes":[],"categories_segments":[],"categories_sizes":[],"default_left":[1,1,1,1,1,1,0,1,1,1,1,1,0,1,1,1,1,1,0,0,0,0,0,1,1,1,1,1,0,0,1,0,1,1,1,1,0,1,0,0,0,0,0,0,1,0,0,0,0,0,0,0,0,0,0,0,0],"id":13,"left_children":[1,3,5,7,9,11,-1,13,15,17,19,21,-1,23,25,27,29,31,-1,-1,-1,-1,-1,33,35,37,39,41,-1,-1,43,-1,45,47,49,51,-1,53,-1,-1,-1,-1,-1,-1,55,-1,-1,-1,-1,-1,-1,-1,-1,-1,-1,-1,-1],"loss_changes":[7.306035E5,1.8969422E5,3.18604E5,3.4449195E4,2.1020469E4,4.2347688E4,0E0,4.246125E3,3.6362344E3,3.0495312E3,2.1471875E2,2.1654062E3,0E0,6.1619727E2,6.336201E2,3.344453E2,1.24E2,1.71125E2,0E0,0E0,0E0,0E0,0E0,9.027521E1,7.177954E1,5.982422E1,1.0958984E1,1.3871094E1,0E0,0E0,6.54707E1,0E0,6.520166E2,9.345539E0,8.437744E0,1.7824097E0,0E0,5.897461E0,0E0,0E0,0E0,0E0,0E0,0E0,4.5609302E2,0E0,0E0,0E0,0E0,0E0,0E0,0E0,0E0,0E0,0E0,0E0,0E0],"parents":[2147483647,0,0,1,1,2,2,3,3,4,4,5,5,7,7,8,8,9,9,10,10,11,11,13,13,14,14,15,15,16,16,17,17,23,23,24,24,25,25,26,26,27,27,30,30,32,32,33,33,34,34,35,35,37,37,44,44],"right_children":[2,4,6,8,10,12,-1,14,16,18,20,22,-1,24,26,28,30,32,-1,-1,-1,-1,-1,34,36,38,40,42,-1,-1,44,-1,46,48,50,52,-1,54,-1,-1,-1,-1,-1,-1,56,-1,-1,-1,-1,-1,-1,-1,-1,-1,-1,-1,-1],"split_conditions":[2.3376001E2,8.2149994E1,8.6246497E2,3.4940002E1,1.5313501E2,4.8403998E2,3.8571236E1,1.5295E1,5.6205E1,1.1189E2,1.8157E2,3.27245E2,1.5211709E1,7.93E0,2.427E1,4.565E1,6.7425E1,1.8783E2,3.353005E0,4.103414E0,5.3388824E0,6.99156E0,9.530276E0,3.6975E0,1.1665E1,1.905E1,2.839E1,-1.0455E1,1.2902182E0,1.5556124E0,3.91825E1,2.5545952E0,4.7749996E0,1.6575E0,5.7299995E0,9.585E0,3.4008178E-1,-1.0555E1,5.4384714E-1,6.4975786E-1,7.863018E-1,4.3607026E-1,1.0277162E0,1.9301143E0,4.5234E1,2.1084588E0,2.6910812E-1,4.055921E-3,5.5107586E-2,1.0500926E-1,1.5880126E-1,2.0592746E-1,2.5896472E-1,1.4140055E-1,4.2645755E-1,1.4252405E-1,1.6286935E0],"split_indices":[0,0,0,0,0,0,0,0,0,0,0,0,0,0,0,0,0,10,0,0,0,0,0,0,0,0,0,4,0,0,3,0,2,0,0,0,0,4,0,0,0,0,0,0,3,0,0,0,0,0,0,0,0,0,0,0,0],"split_type":[0,0,0,0,0,0,0,0,0,0,0,0,0,0,0,0,0,0,0,0,0,0,0,0,0,0,0,0,0,0,0,0,0,0,0,0,0,0,0,0,0,0,0,0,0,0,0,0,0,0,0,0,0,0,0,0,0],"sum_hessian":[1.83E3,1.761E3,6.9E1,1.488E3,2.73E2,6.6E1,3E0,1.034E3,4.54E2,2.01E2,7.2E1,5.5E1,1.1E1,6.21E2,4.13E2,2.69E2,1.85E2,1.03E2,9.8E1,2.8E1,4.4E1,3.4E1,2.1E1,3.19E2,3.02E2,2.4E2,1.73E2,1.64E2,1.05E2,9.8E1,8.7E1,9.3E1,1E1,1.46E2,1.73E2,1.66E2,1.36E2,1.28E2,1.12E2,7E1,1.03E2,3E0,1.61E2,7.6E1,1.1E1,7E0,3E0,7.5E1,7.1E1,7.9E1,9.4E1,8E1,8.6E1,3E0,1.25E2,3E0,8E0],"tree_param":{"num_deleted":"0","num_feature":"14","num_nodes":"57","size_leaf_vector":"0"}},{"base_weights":[1.3745405E1,1.0385396E1,1.12731926E2,6.1313086E0,3.3221638E1,9.305777E1,3.6465564E2,3.277195E0,1.2921138E1,2.7601288E1,4.8329067E1,7.843398E1,1.4127747E2,1.8553787E0,5.822856E0,1.0599313E1,1.5883935E1,2.3768063E1,3.2319107E1,3.992789E1,5.228447E1,8.6614424E-1,2.8391082E0,4.768167E0,7.0331936E0,9.597976E0,1.191276E1,1.4333699E1,1.7337015E1,2.440108E1,1.6112423E1,3.0633232E-1,1.3336678E0,2.2962577E0,3.3720322E0,4.1724825E0,5.2654066E0,6.433074E0,1.4503165E1,1.7900545E1,1.1911175E1,4.6502213E0,2.1137247E1,9.448008E-2,6.305854E-1,1.0135292E0,1.5307288E0,1.9739157E0,2.4934099E0,6.4692473E-1,3.4115982E0,1.5326414E1,9.990907E-1],"categories":[],"categories_nodes":[],"categories_segments":[],"categories_sizes":[],"default_left":[1,1,1,1,1,1,0,1,1,1,1,0,0,1,1,1,1,1,0,0,0,1,1,1,0,0,0,1,1,0,1,1,1,1,1,0,0,0,0,0,1,0,0,0,0,0,0,0,0,0,0,0,0],"id":14,"left_children":[1,3,5,7,9,11,-1,13,15,17,19,-1,-1,21,23,25,27,29,-1,-1,-1,31,33,35,-1,-1,-1,37,39,-1,41,43,45,47,49,-1,-1,-1,-1,-1,51,-1,-1,-1,-1,-1,-1,-1,-1,-1,-1,-1,-1],"loss_changes":[6.076887E5,1.719021E5,2.6299144E5,2.891298E4,2.2194812E4,2.8893156E4,0E0,3.7964316E3,2.8457188E3,2.8830781E3,2.7920312E2,0E0,0E0,6.5362427E2,4.3591504E2,1.9426758E2,1.5232812E2,1.3332812E2,0E0,0E0,0E0,8.6938034E1,8.466089E1,2.9312988E1,0E0,0E0,0E0,1.8314453E1,4.4390625E1,0E0,5.6706616E2,1.0000274E1,7.512268E0,1.541565E0,1.1848511E1,0E0,0E0,0E0,0E0,0E0,4.1557068E2,0E0,0E0,0E0,0E0,0E0,0E0,0E0,0E0,0E0,0E0,0E0,0E0],"parents":[2147483647,0,0,1,1,2,2,3,3,4,4,5,5,7,7,8,8,9,9,10,10,13,13,14,14,15,15,16,16,17,17,21,21,22,22,23,23,27,27,28,28,30,30,31,31,32,32,33,33,34,34,40,40],"right_children":[2,4,6,8,10,12,-1,14,16,18,20,-1,-1,22,24,26,28,30,-1,-1,-1,32,34,36,-1,-1,-1,38,40,-1,42,44,46,48,50,-1,-1,-1,-1,-1,52,-1,-1,-1,-1,-1,-1,-1,-1,-1,-1,-1,-1],"split_conditions":[2.7327502E2,8.3745E1,8.6246497E2,3.5955E1,1.60725E2,4.8403998E2,3.573625E1,1.6965E1,5.6205E1,1.18545E2,1.89225E2,7.68653E0,1.3845191E1,8.450001E0,2.5475E1,4.575E1,6.7425E1,1.8783E2,3.1672723E0,3.912933E0,5.123878E0,3.9475E0,1.2559999E1,2.0265E1,6.89253E-1,9.406016E-1,1.1674504E0,-6.8900003E0,3.91825E1,2.3913057E0,9.5615E1,2.0325E0,5.855E0,9.845E0,-1.7904999E1,4.0890327E-1,5.160098E-1,6.3044125E-1,1.4213102E0,1.7542534E0,3.58E0,4.5572168E-1,2.0714502E0,9.259048E-3,6.1797366E-2,9.932586E-2,1.5001142E-1,1.9344373E-1,2.4435416E-1,6.339862E-2,3.343366E-1,1.5019885E0,9.791088E-2],"split_indices":[0,0,0,0,0,0,0,0,0,0,0,0,0,0,0,0,0,10,0,0,0,0,0,0,0,0,0,4,3,0,0,0,0,0,4,0,0,0,0,0,2,0,0,0,0,0,0,0,0,0,0,0,0],"split_type":[0,0,0,0,0,0,0,0,0,0,0,0,0,0,0,0,0,0,0,0,0,0,0,0,0,0,0,0,0,0,0,0,0,0,0,0,0,0,0,0,0,0,0,0,0,0,0,0,0,0,0,0,0],"sum_hessian":[1.83E3,1.771E3,5.9E1,1.494E3,2.77E2,5.6E1,3E0,1.053E3,4.41E2,2.04E2,7.3E1,4.5E1,1.1E1,6.77E2,3.76E2,2.5E2,1.91E2,1.16E2,8.8E1,2.7E1,4.6E1,3.39E2,3.38E2,2.04E2,1.72E2,1.47E2,1.03E2,9.8E1,9.3E1,1.05E2,1.1E1,1.56E2,1.83E2,1.71E2,1.67E2,9.8E1,1.06E2,3E0,9.5E1,8.2E1,1.1E1,4E0,7E0,9.7E1,5.9E1,7.4E1,1.09E2,7.1E1,1E2,3E0,1.64E2,8E0,3E0],"tree_param":{"num_deleted":"0","num_feature":"14","num_nodes":"53","size_leaf_vector":"0"}},{"base_weights":[1.2445992E1,1.0085339E1,1.2984288E2,5.873629E0,3.460883E1,1.0061161E2,3.382901E2,3.0279639E0,1.242715E1,2.7562002E1,5.1260094E1,8.0288086E1,1.2562563E2,1.7348267E0,5.4504585E0,1.0039072E1,1.5607748E1,2.3529E1,3.1820393E1,4.361741E1,5.6882515E1,8.8027346E-1,2.7321587E0,4.4667573E0,6.526587E0,8.971641E0,1.1311472E1,1.58077755E1,1.7544823E0,3.4353015E-1,1.3590184E0,2.2625945E0,3.187201E0,3.9001863E0,4.8935275E0,1.4235554E1,1.8260212E1,8.7936506E-2,6.3220775E-1,1.0559658E0,1.5257361E0,5.292896E-1,3.2282484E0,1.4598042E1,9.968503E0],"categories":[],"categories_nodes":[],"categories_segments":[],"categories_sizes":[],"default_left":[1,1,1,1,1,1,0,1,1,1,1,0,0,1,1,1,1,0,0,0,0,1,1,1,0,0,0,1,0,1,1,0,1,0,0,1,0,0,0,0,0,0,0,0,0],"id":15,"left_children":[1,3,5,7,9,11,-1,13,15,17,19,-1,-1,21,23,25,27,-1,-1,-1,-1,29,31,33,-1,-1,-1,35,-1,37,39,-1,41,-1,-1,43,-1,-1,-1,-1,-1,-1,-1,-1,-1],"loss_changes":[5.0598175E5,1.8525758E5,1.848795E5,2.8554676E4,2.9368375E4,6.4841562E3,0E0,3.3383926E3,3.3419844E3,2.4075E3,7.2715625E2,0E0,0E0,5.905735E2,3.536494E2,2.4223242E2,5.0059766E2,0E0,0E0,0E0,0E0,9.5219635E1,5.6141357E1,1.9996338E1,0E0,0E0,0E0,4.5557422E2,0E0,1.2579193E1,5.861511E0,0E0,1.1989746E1,0E0,0E0,2.0164062E1,0E0,0E0,0E0,0E0,0E0,0E0,0E0,0E0,0E0],"parents":[2147483647,0,0,1,1,2,2,3,3,4,4,5,5,7,7,8,8,9,9,10,10,13,13,14,14,15,15,16,16,21,21,22,22,23,23,27,27,29,29,30,30,32,32,35,35],"right_children":[2,4,6,8,10,12,-1,14,16,18,20,-1,-1,22,24,26,28,-1,-1,-1,-1,30,32,34,-1,-1,-1,36,-1,38,40,-1,42,-1,-1,44,-1,-1,-1,-1,-1,-1,-1,-1,-1],"split_conditions":[3.27245E2,9.549E1,8.405001E0,3.7145E1,1.82985E2,4.8403998E2,3.3152428E1,1.7555E1,6.008E1,1.2801001E2,2.2373001E2,7.8682323E0,1.2311312E1,9.275E0,2.6315E1,4.7155E1,9.4134995E1,2.305842E0,3.1183984E0,4.274506E0,5.5744863E0,4.3575E0,1.3360001E1,2.0869999E1,6.396055E-1,8.792208E-1,1.1085242E0,7.73E1,1.7193925E-1,2.1174998E0,6.43E0,2.2173426E-1,-1.5755E1,3.8221824E-1,4.7956568E-1,3.93E1,1.7895007E0,8.617777E-3,6.1956357E-2,1.03484645E-1,1.4952214E-1,5.187038E-2,3.1636834E-1,1.430608E0,9.769133E-1],"split_indices":[0,0,4,0,0,0,0,0,0,0,0,0,0,0,0,0,0,0,0,0,0,0,0,0,0,0,0,0,0,0,0,0,4,0,0,3,0,0,0,0,0,0,0,0,0],"split_type":[0,0,0,0,0,0,0,0,0,0,0,0,0,0,0,0,0,0,0,0,0,0,0,0,0,0,0,0,0,0,0,0,0,0,0,0,0,0,0,0,0,0,0,0,0],"sum_hessian":[1.83E3,1.795E3,3.5E1,1.533E3,2.62E2,3.2E1,3E0,1.07E3,4.63E2,1.86E2,7.6E1,2E1,1.2E1,6.99E2,3.71E2,2.67E2,1.96E2,9.9E1,8.7E1,3.6E1,4E1,3.78E2,3.21E2,1.97E2,1.74E2,1.5E2,1.17E2,1.93E2,3E0,1.8E2,1.98E2,1.62E2,1.59E2,9E1,1.07E2,1.22E2,7.1E1,9.8E1,8.2E1,7.5E1,1.23E2,3E0,1.56E2,1.1E2,1.2E1],"tree_param":{"num_deleted":"0","num_feature":"14","num_nodes":"45","size_leaf_vector":"0"}},{"base_weights":[1.1269722E1,1.0239863E1,2.4454378E2,6.647555E0,4.729801E1,1.046463E2,3.580297E2,3.5563607E0,1.6030125E1,3.7474953E1,7.254399E1,1.9287672E0,6.8006473E0,1.2768685E1,2.1815926E1,3.0887539E1,4.4198742E1,6.0227386E1,8.426254E1,9.1664875E-1,3.0062883E0,5.5775504E0,8.3505E0,1.0882239E1,1.4284409E1,1.8878534E1,2.34554E1,3.4267783E-1,1.368349E0,2.5076692E0,3.6196604E0,4.726152E0,6.116615E0,6.949899E0,8.676888E0,4.984789E0,1.0979803E1,1.9940496E1,9.623711E0,8.698718E-2,6.1156666E-1,1.0943979E0,1.6058203E0,2.154354E0,2.7610326E0,3.171855E0,3.9052289E0,-9.8213387E-1,1.6383644E1],"categories":[],"categories_nodes":[],"categories_segments":[],"categories_sizes":[],"default_left":[1,1,1,1,1,0,0,1,1,1,1,1,1,1,1,0,0,0,0,1,1,1,1,1,0,1,0,1,1,1,1,0,0,0,0,1,1,0,1,0,0,0,0,0,0,0,0,0,0],"id":16,"left_children":[1,3,5,7,9,-1,-1,11,13,15,17,19,21,23,25,-1,-1,-1,-1,27,29,31,33,-1,-1,37,-1,39,41,43,45,-1,-1,-1,-1,-1,-1,-1,47,-1,-1,-1,-1,-1,-1,-1,-1,-1,-1],"loss_changes":[4.3711928E5,2.4245039E5,8.908197E4,4.818497E4,3.709825E4,0E0,0E0,6.594468E3,7.4613125E3,3.7862188E3,1.13125E3,9.0504517E2,7.3186523E2,5.7997266E2,2.2278125E2,0E0,0E0,0E0,0E0,1.1008084E2,1.0835474E2,6.902246E1,7.2695312E0,7.519531E-2,0E0,3.4857227E2,0E0,1.251745E1,1.1220764E1,9.456787E0,3.298584E0,0E0,0E0,0E0,0E0,0E0,0E0,0E0,6.0505084E2,0E0,0E0,0E0,0E0,0E0,0E0,0E0,0E0,0E0,0E0],"parents":[2147483647,0,0,1,1,2,2,3,3,4,4,7,7,8,8,9,9,10,10,11,11,12,12,13,13,14,14,19,19,20,20,21,21,22,22,23,23,25,25,27,27,28,28,29,29,30,30,38,38],"right_children":[2,4,6,8,10,-1,-1,12,14,16,18,20,22,24,26,-1,-1,-1,-1,28,30,32,34,-1,-1,38,-1,40,42,44,46,-1,-1,-1,-1,-1,-1,-1,48,-1,-1,-1,-1,-1,-1,-1,-1,-1,-1],"split_conditions":[5.83635E2,1.37765E2,-1.1500001E-1,5.041E1,2.8495502E2,1.0255338E1,3.508691E1,2.2805E1,9.041E1,1.89225E2,3.557E2,1.0375E1,3.7205E1,6.3855E1,1.0806E2,3.0269787E0,4.3314767E0,5.9022837E0,8.257729E0,4.74E0,1.6435001E1,2.839E1,4.0379997E1,1.0664594E0,1.399872E0,1.48025E2,2.2986293E0,2.2375002E0,7.5950003E0,1.316E1,1.826E1,4.6316287E-1,5.9942824E-1,6.810901E-1,8.5033506E-1,4.885093E-1,1.0760207E0,1.9541686E0,2.99E0,8.524744E-3,5.9933532E-2,1.0725099E-1,1.5737039E-1,2.111267E-1,2.705812E-1,3.1084177E-1,3.8271242E-1,-9.624912E-2,1.6055971E0],"split_indices":[0,0,8,0,0,0,0,0,0,0,0,0,0,0,0,0,0,0,0,0,0,0,0,4,0,10,0,0,0,0,0,0,0,0,0,2147483647,2147483647,0,5,0,0,0,0,0,0,0,0,0,0],"split_type":[0,0,0,0,0,0,0,0,0,0,0,0,0,0,0,0,0,0,0,0,0,0,0,0,0,0,0,0,0,0,0,0,0,0,0,0,0,0,0,0,0,0,0,0,0,0,0,0,0],"sum_hessian":[1.83E3,1.823E3,7E0,1.663E3,1.6E2,4E0,3E0,1.252E3,4.11E2,1.17E2,4.3E1,8.35E2,4.17E2,2.65E2,1.46E2,6.2E1,5.5E1,2.4E1,1.9E1,4.32E2,4.03E2,2.36E2,1.81E2,1.22E2,1.43E2,5.7E1,8.9E1,1.92E2,2.4E2,2.26E2,1.77E2,9.6E1,1.4E2,3.9E1,1.42E2,3E0,1.19E2,5E1,7E0,1.01E2,9.1E1,1.16E2,1.24E2,1E2,1.26E2,7.5E1,1.02E2,3E0,4E0],"tree_param":{"num_deleted":"2","num_feature":"14","num_nodes":"49","size_leaf_vector":"0"}},{"base_weights":[1.0209664E1,9.255936E0,2.2625853E2,5.7764254E0,4.0610767E1,9.29964E1,3.3602155E2,3.0565064E0,1.3537189E1,3.2350903E1,6.575873E1,1.6229966E0,5.696342E0,1.0917584E1,1.8584484E1,2.6891397E1,3.994461E1,5.0066772E1,7.290175E1,7.826034E-1,2.522678E0,4.547266E0,6.9192524E0,9.507687E0,1.2473286E1,1.5721146E1,1.9841974E1,7.616933E1,3.4003937E1,2.7987984E-1,1.1687955E0,2.0202796E0,2.9089282E0,4.108088E0,5.156041E0,6.114031E0,7.57659E0,3.7589712E0,9.590935E0,1.284639E1,9.36178E0,1.6990757E1,9.5042264E-1,-0E0,4.5105165E-1,9.126692E-1,1.353073E0,2.9326057E0,6.945497E-1,-1.2017055E0,1.1621258E1],"categories":[],"categories_nodes":[],"categories_segments":[],"categories_sizes":[],"default_left":[1,1,1,1,1,0,0,1,1,1,1,1,1,1,1,0,0,0,1,1,1,1,1,1,1,1,0,0,0,1,1,0,1,0,0,0,0,0,0,0,1,0,0,0,0,0,0,0,0,0,0],"id":17,"left_children":[1,3,5,7,9,-1,-1,11,13,15,17,19,21,23,25,-1,-1,-1,27,29,31,33,35,37,39,41,-1,-1,-1,43,45,-1,47,-1,-1,-1,-1,-1,-1,-1,49,-1,-1,-1,-1,-1,-1,-1,-1,-1,-1],"loss_changes":[3.7495138E5,1.9871644E5,8.534025E4,3.4623535E4,3.5579344E4,0E0,0E0,4.592626E3,5.4001406E3,4.621625E3,1.1589375E3,5.9278467E2,5.585039E2,4.8015625E2,1.7098438E2,0E0,0E0,0E0,8.586406E2,7.8018936E1,6.3127686E1,2.944336E1,4.8493164E1,2.3819336E1,9.605469E0,8.848115E2,0E0,0E0,0E0,8.404458E0,7.402191E0,0E0,5.451294E0,0E0,0E0,0E0,0E0,0E0,0E0,0E0,4.5400806E2,0E0,0E0,0E0,0E0,0E0,0E0,0E0,0E0,0E0,0E0],"parents":[2147483647,0,0,1,1,2,2,3,3,4,4,7,7,8,8,9,9,10,10,11,11,12,12,13,13,14,14,18,18,19,19,20,20,21,21,22,22,23,23,24,24,25,25,29,29,30,30,32,32,40,40],"right_children":[2,4,6,8,10,-1,-1,12,14,16,18,20,22,24,26,-1,-1,-1,28,30,32,34,36,38,40,42,-1,-1,-1,44,46,-1,48,-1,-1,-1,-1,-1,-1,-1,50,-1,-1,-1,-1,-1,-1,-1,-1,-1,-1],"split_conditions":[5.83635E2,1.31195E2,3.1E1,4.685E1,2.8495502E2,9.1136465E0,3.293011E1,2.0965E1,8.5384995E1,1.89225E2,3.2991498E2,9.845E0,3.3309998E1,6.338E1,9.969E1,2.635357E0,3.9145718E0,4.9065437E0,2.175E1,4.3575E0,1.4105E1,2.808E1,4.0379997E1,-8.505E0,3.91345E1,7.0465E1,1.9445134E0,7.464594E0,3.3323858E0,1.5632999E0,7.035E0,1.979874E-1,1.925E1,4.0259263E-1,5.05292E-1,5.9917504E-1,7.425058E-1,3.6837918E-1,9.399116E-1,1.2589462E0,4.28255E1,1.6650941E0,9.3141414E-2,-0E0,4.420306E-2,8.9441575E-2,1.3260116E-1,2.8739536E-1,6.806587E-2,-1.1776713E-1,1.1388832E0],"split_indices":[0,0,1,0,0,0,0,0,0,0,0,0,0,0,0,0,0,0,7,0,0,0,0,4,3,8,0,0,0,0,0,0,5,0,0,0,0,0,0,0,3,0,0,0,0,0,0,0,0,0,0],"split_type":[0,0,0,0,0,0,0,0,0,0,0,0,0,0,0,0,0,0,0,0,0,0,0,0,0,0,0,0,0,0,0,0,0,0,0,0,0,0,0,0,0,0,0,0,0,0,0,0,0,0,0],"sum_hessian":[1.83E3,1.823E3,7E0,1.642E3,1.81E2,4E0,3E0,1.217E3,4.25E2,1.38E2,4.3E1,7.9E2,4.27E2,2.82E2,1.43E2,8.3E1,5.5E1,1.6E1,2.7E1,4.1E2,3.8E2,2.23E2,2.04E2,1.52E2,1.3E2,4.8E1,9.5E1,2.4E1,3E0,1.8E2,2.3E2,1.69E2,2.11E2,1.35E2,8.8E1,9.7E1,1.07E2,3E0,1.49E2,1.13E2,1.7E1,4.4E1,4E0,7E1,1.1E2,1.01E2,1.29E2,2.08E2,3E0,3E0,1.4E1],"tree_param":{"num_deleted":"0","num_feature":"14","num_nodes":"51","size_leaf_vector":"0"}},{"base_weights":[9.251101E0,8.616456E0,2.9672095E2,5.8521123E0,4.6223053E1,3.2474E0,1.5231677E1,3.63503E1,7.2615265E1,1.7253612E0,6.3582296E0,1.1617286E1,1.969477E1,3.0202736E1,4.170318E1,5.8789318E1,9.1828224E1,8.622169E-1,2.7761805E0,5.0495834E0,7.6511316E0,1.0213676E1,1.3093404E1,1.721627E1,2.2069492E1,3.4566826E-1,1.2876902E0,2.3190088E0,3.418272E0,4.338674E0,5.4546466E0,6.9432817E0,8.337262E0,1.0556749E1,6.420262E0,1.3702171E1,3.1660843E0,6.511175E-2,5.63837E-1,1.0429351E0,1.5138243E0,2.340645E0,2.0730984E-1,9.703869E0,-2.3229203E0,1.2372647E1,1.5844068E1,-4.4062366E0,1.0196884E1],"categories":[],"categories_nodes":[],"categories_segments":[],"categories_sizes":[],"default_left":[1,1,0,1,1,1,1,1,1,1,1,1,1,0,0,0,0,1,1,1,1,1,1,0,0,1,1,1,0,0,0,0,0,0,1,1,1,0,0,0,0,0,0,0,0,0,0,0,0],"id":18,"left_children":[1,3,-1,5,7,9,11,13,15,17,19,21,23,-1,-1,-1,-1,25,27,29,31,33,35,-1,-1,37,39,41,-1,-1,-1,-1,-1,-1,43,45,47,-1,-1,-1,-1,-1,-1,-1,-1,-1,-1,-1,-1],"loss_changes":[3.3118784E5,1.8971183E5,0E0,4.1562598E4,2.9821906E4,6.301908E3,5.7085E3,1.7289062E3,3.2168906E3,8.084619E2,6.897383E2,2.718418E2,5.4601953E2,0E0,0E0,0E0,0E0,1.0671146E2,1.0492847E2,3.0181152E1,3.270996E1,5.9703125E1,5.259629E2,0E0,0E0,1.3167498E1,1.0808228E1,7.932251E0,0E0,0E0,0E0,0E0,0E0,0E0,3.744324E2,3.4890625E1,4.2339685E2,0E0,0E0,0E0,0E0,0E0,0E0,0E0,0E0,0E0,0E0,0E0,0E0],"parents":[2147483647,0,0,1,1,3,3,4,4,5,5,6,6,7,7,8,8,9,9,10,10,11,11,12,12,17,17,18,18,19,19,20,20,21,21,22,22,25,25,26,26,27,27,34,34,35,35,36,36],"right_children":[2,4,-1,6,8,10,12,14,16,18,20,22,24,-1,-1,-1,-1,26,28,30,32,34,36,-1,-1,38,40,42,-1,-1,-1,-1,-1,-1,44,46,48,-1,-1,-1,-1,-1,-1,-1,-1,-1,-1,-1,-1],"split_conditions":[8.6246497E2,1.6378E2,2.9078651E1,5.9665E1,3.27245E2,2.6395E1,9.7494995E1,2.16745E2,4.8403998E2,1.2135E1,4.073E1,7.4315E1,1.2603E2,2.959868E0,4.086911E0,5.761353E0,8.999166E0,5.7299995E0,1.826E1,3.1465E1,4.798E1,3.93E1,9.92E0,1.6871945E0,2.16281E0,2.2375002E0,9.005E0,2.1685001E1,3.3499065E-1,4.2519006E-1,5.345554E-1,6.8044156E-1,8.1705165E-1,1.0345614E0,2.4724998E1,8.796E1,-3.475E0,6.380951E-3,5.5256024E-2,1.0220764E-1,1.4835478E-1,2.2938322E-1,2.0316364E-2,9.509791E-1,-2.2764619E-1,1.2125194E0,1.5527186E0,-4.3181118E-1,9.9929464E-1],"split_indices":[0,0,0,0,0,0,0,0,0,0,0,0,0,0,0,0,0,0,0,0,0,3,2,0,0,0,0,5,0,0,0,0,0,0,9,0,4,0,0,0,0,0,0,0,0,0,0,0,0],"split_type":[0,0,0,0,0,0,0,0,0,0,0,0,0,0,0,0,0,0,0,0,0,0,0,0,0,0,0,0,0,0,0,0,0,0,0,0,0,0,0,0,0,0,0,0,0,0,0,0,0],"sum_hessian":[1.83E3,1.827E3,3E0,1.703E3,1.24E2,1.334E3,3.69E2,9.2E1,3.2E1,8.97E2,4.37E2,2.06E2,1.63E2,4.6E1,4.6E1,2.1E1,1.1E1,4.94E2,4.03E2,2.2E2,2.17E2,1.1E2,9.6E1,8.4E1,7.9E1,2.25E2,2.69E2,2.39E2,1.64E2,8.5E1,1.35E2,1.13E2,1.04E2,9.9E1,1.1E1,9E1,6E0,1.01E2,1.24E2,1.34E2,1.35E2,2.36E2,3E0,8E0,3E0,6E1,3E1,3E0,3E0],"tree_param":{"num_deleted":"0","num_feature":"14","num_nodes":"49","size_leaf_vector":"0"}},{"base_weights":[8.380069E0,7.791717E0,2.7491193E2,5.18029E0,4.0495163E1,2.7718878E0,1.2962043E1,3.1937115E1,6.594923E1,1.4602172E0,5.3151107E0,1.0119667E1,1.7430254E1,2.6389444E1,3.7491905E1,5.103316E1,8.037963E1,7.4933356E-1,2.350302E0,4.319023E0,6.5507727E0,8.805244E0,1.1693842E1,1.5548925E1,1.9451437E1,2.8479475E-1,1.111629E0,1.9662256E0,2.7904959E0,3.7825985E0,4.820926E0,9.014206E0,-2.5073862E-1,1.2166685E1,2.9228756E0,4.9853686E-2,4.738333E-1,8.558014E-1,1.287296E0,9.415388E-2,1.9883926E0,3.8371565E0,9.2292833E-1,2.4340649E0,4.892962E0,1.1062796E1,1.4341436E1,-4.0823784E0,9.447411E0],"categories":[],"categories_nodes":[],"categories_segments":[],"categories_sizes":[],"default_left":[1,1,0,1,1,1,1,1,1,1,1,1,1,0,0,0,0,1,1,1,0,1,1,0,0,1,1,1,0,1,1,0,0,1,1,0,0,0,0,0,0,0,0,0,0,0,0,0,0],"id":19,"left_children":[1,3,-1,5,7,9,11,13,15,17,19,21,23,-1,-1,-1,-1,25,27,29,-1,31,33,-1,-1,35,37,39,-1,41,43,-1,-1,45,47,-1,-1,-1,-1,-1,-1,-1,-1,-1,-1,-1,-1,-1,-1],"loss_changes":[2.8470275E5,1.5586062E5,0E0,3.1696594E4,2.7203906E4,4.305415E3,4.8761953E3,2.1207812E3,2.8696406E3,5.367705E2,5.024004E2,3.8760938E2,2.4813672E2,0E0,0E0,0E0,0E0,7.873456E1,5.3833252E1,3.9661133E1,0E0,2.7406152E2,4.014043E2,0E0,0E0,8.868227E0,8.7543335E0,6.3203735E0,0E0,1.1200806E1,1.9121094E0,0E0,0E0,6.3208984E1,3.638751E2,0E0,0E0,0E0,0E0,0E0,0E0,0E0,0E0,0E0,0E0,0E0,0E0,0E0,0E0],"parents":[2147483647,0,0,1,1,3,3,4,4,5,5,6,6,7,7,8,8,9,9,10,10,11,11,12,12,17,17,18,18,19,19,21,21,22,22,25,25,26,26,27,27,29,29,30,30,33,33,34,34],"right_children":[2,4,-1,6,8,10,12,14,16,18,20,22,24,-1,-1,-1,-1,26,28,30,-1,32,34,-1,-1,36,38,40,-1,42,44,-1,-1,46,48,-1,-1,-1,-1,-1,-1,-1,-1,-1,-1,-1,-1,-1,-1],"split_conditions":[8.6246497E2,1.5698E2,2.6941368E1,5.5245003E1,3.27245E2,2.3855E1,9.7494995E1,2.14005E2,4.0256E2,1.1514999E1,3.9855E1,7.188E1,1.2603E2,2.5861654E0,3.6742067E0,5.00125E0,7.8772035E0,5.29E0,1.7115E1,3.121E1,6.419757E-1,7.1065E1,9.92E0,1.5237947E0,1.9062408E0,2.0325E0,8E0,-1.7904999E1,2.7346858E-1,3.1005001E1,-7.54E0,8.8339216E-1,-2.4572384E-2,8.796E1,-3.475E0,4.885661E-3,4.643566E-2,8.386853E-2,1.26155E-1,9.22708E-3,1.9486247E-1,3.7604132E-1,9.044697E-2,2.3853835E-1,4.7951025E-1,1.0841539E0,1.4054607E0,-4.0007308E-1,9.258462E-1],"split_indices":[0,0,0,0,0,0,0,0,0,0,0,0,0,0,0,0,0,0,0,0,0,0,2,0,0,0,0,4,0,0,4,0,0,0,4,0,0,0,0,0,0,0,0,0,0,0,0,0,0],"split_type":[0,0,0,0,0,0,0,0,0,0,0,0,0,0,0,0,0,0,0,0,0,0,0,0,0,0,0,0,0,0,0,0,0,0,0,0,0,0,0,0,0,0,0,0,0,0,0,0,0],"sum_hessian":[1.83E3,1.827E3,3E0,1.693E3,1.34E2,1.294E3,3.99E2,1.02E2,3.2E1,8.55E2,4.39E2,2.46E2,1.53E2,5.4E1,4.8E1,1.8E1,1.4E1,4.77E2,3.78E2,2.46E2,1.93E2,1.38E2,1.08E2,8.4E1,6.9E1,2.11E2,2.66E2,2.06E2,1.72E2,1.24E2,1.22E2,1.35E2,3E0,1.02E2,6E0,9.7E1,1.14E2,1.13E2,1.53E2,3E0,2.03E2,1.21E2,3E0,5E0,1.17E2,7.2E1,3E1,3E0,3E0],"tree_param":{"num_deleted":"0","num_feature":"14","num_nodes":"49","size_leaf_vector":"0"}},{"base_weights":[7.59045E0,7.0450163E0,2.5470592E2,4.773472E0,3.794635E1,2.6740234E0,1.2546361E1,2.974487E1,5.987943E1,1.4755514E0,5.376212E0,9.840503E0,1.6430162E1,2.5568548E1,3.561936E1,4.9210114E1,7.939785E1,7.265721E-1,2.3766246E0,4.371504E0,6.404182E0,8.423137E0,1.1026013E1,1.4529341E1,1.81945E1,3.0109143E-1,1.0898489E0,1.9679224E0,2.976877E0,3.8591104E0,4.7027555E0,5.926909E0,7.039471E0,8.757345E0,5.075616E0,1.1393368E1,5.966184E0,8.181345E-2,5.0769967E-1,8.8935316E-1,1.2881988E0,8.723366E-2,1.9859972E0,3.3987427E0,8.888548E0,8.028706E0,-2.5877385E0,1.01539135E1,1.2921096E1,-4.0208683E0,1.0963616E1],"categories":[],"categories_nodes":[],"categories_segments":[],"categories_sizes":[],"default_left":[1,1,0,1,1,1,1,1,1,1,1,1,1,0,0,0,0,1,1,1,1,1,1,0,0,1,1,1,0,0,0,0,0,1,1,1,1,0,0,0,0,0,0,0,0,0,0,0,0,0,0],"id":20,"left_children":[1,3,-1,5,7,9,11,13,15,17,19,21,23,-1,-1,-1,-1,25,27,29,31,33,35,-1,-1,37,39,41,-1,-1,-1,-1,-1,43,45,47,49,-1,-1,-1,-1,-1,-1,-1,-1,-1,-1,-1,-1,-1,-1],"loss_changes":[2.4473525E5,1.2809033E5,0E0,2.775843E4,2.0614734E4,4.3345176E3,3.6163125E3,1.3097188E3,2.8363984E3,6.241631E2,3.867461E2,2.5062305E2,1.9591406E2,0E0,0E0,0E0,0E0,7.726477E1,9.272388E1,9.272705E0,6.2558594E0,5.695166E1,1.265625E2,0E0,0E0,1.0151457E1,7.573303E0,6.421692E0,0E0,0E0,0E0,0E0,0E0,2.218457E1,2.9778397E2,4.454785E1,5.5012213E2,0E0,0E0,0E0,0E0,0E0,0E0,0E0,0E0,0E0,0E0,0E0,0E0,0E0,0E0],"parents":[2147483647,0,0,1,1,3,3,4,4,5,5,6,6,7,7,8,8,9,9,10,10,11,11,12,12,17,17,18,18,19,19,20,20,21,21,22,22,25,25,26,26,27,27,33,33,34,34,35,35,36,36],"right_children":[2,4,-1,6,8,10,12,14,16,18,20,22,24,-1,-1,-1,-1,26,28,30,32,34,36,-1,-1,38,40,42,-1,-1,-1,-1,-1,44,46,48,50,-1,-1,-1,-1,-1,-1,-1,-1,-1,-1,-1,-1,-1,-1],"split_conditions":[8.6246497E2,1.6378E2,2.496118E1,6.0555E1,3.27245E2,2.839E1,1.01775E2,2.3158E2,4.8851E2,1.2559999E1,4.208E1,7.4315E1,1.2801001E2,2.5057178E0,3.4906974E0,4.822591E0,7.780989E0,6.0950003E0,1.9654999E1,3.3765E1,5.1275E1,3.93E1,1.0309999E1,1.4238753E0,1.7830609E0,2.83E0,9.275E0,-1.7904999E1,2.9173395E-1,3.781928E-1,4.6087003E-1,5.808371E-1,6.8986815E-1,-7.42E0,2.4724998E1,8.8735E1,-8.465E0,8.017718E-3,4.9754567E-2,8.715661E-2,1.2624349E-1,8.548899E-3,1.9462772E-1,3.3307678E-1,8.7107766E-1,7.8681314E-1,-2.5359836E-1,9.950835E-1,1.2662674E0,-3.9404508E-1,1.0744344E0],"split_indices":[0,0,0,0,0,0,0,0,0,0,0,0,0,0,0,0,0,0,0,0,0,3,2,0,0,0,0,4,0,0,0,0,0,4,9,0,7,0,0,0,0,0,0,0,0,0,0,0,0,0,0],"split_type":[0,0,0,0,0,0,0,0,0,0,0,0,0,0,0,0,0,0,0,0,0,0,0,0,0,0,0,0,0,0,0,0,0,0,0,0,0,0,0,0,0,0,0,0,0,0,0,0,0,0,0],"sum_hessian":[1.83E3,1.827E3,3E0,1.703E3,1.24E2,1.342E3,3.61E2,9.2E1,3.2E1,9.31E2,4.11E2,2.15E2,1.46E2,5.7E1,3.5E1,2.3E1,9E0,5.1E2,4.21E2,2.11E2,2E2,1.02E2,1.13E2,7.5E1,7.1E1,2.37E2,2.73E2,2.54E2,1.67E2,8.9E1,1.22E2,1.21E2,7.9E1,9.1E1,1.1E1,1.04E2,9E0,1.18E2,1.19E2,1.41E2,1.32E2,3E0,2.51E2,3E0,8.8E1,8E0,3E0,6.2E1,4.2E1,3E0,6E0],"tree_param":{"num_deleted":"0","num_feature":"14","num_nodes":"51","size_leaf_vector":"0"}},{"base_weights":[6.877378E0,6.3117175E0,2.1199425E2,4.1168776E0,3.1360792E1,2.162557E0,1.0014353E1,2.4548271E1,5.022965E1,1.1307974E0,4.0832086E0,7.964864E0,1.3692712E1,2.0212246E1,2.914853E1,4.0899437E1,6.3231472E1,5.5440086E-1,1.7808163E0,3.3110063E0,5.044152E0,6.7883916E0,9.19952E0,1.1918184E1,1.4855971E1,1.7915617E-1,8.106359E-1,1.4289218E0,2.0860763E0,2.8350441E0,3.6507838E0,4.475985E0,5.37127E0,2.1030388E0,6.8666277E0,9.473764E0,-1.4890652E0,-1.7538795E-1,2.5737944E-1,-1.4601707E-1,8.2632333E-1,2.1090162E0,1.6755831E-1,9.921547E0,6.8605394E0],"categories":[],"categories_nodes":[],"categories_segments":[],"categories_sizes":[],"default_left":[1,1,0,1,1,1,1,1,1,1,1,1,1,0,0,0,0,1,1,1,1,1,1,0,0,1,1,0,1,0,0,0,0,0,0,1,0,0,0,0,0,0,0,0,0],"id":21,"left_children":[1,3,-1,5,7,9,11,13,15,17,19,21,23,-1,-1,-1,-1,25,27,29,31,33,35,-1,-1,37,39,-1,41,-1,-1,-1,-1,-1,-1,43,-1,-1,-1,-1,-1,-1,-1,-1,-1],"loss_changes":[2.1088817E5,1.0028151E5,0E0,1.9340625E4,1.7588203E4,2.4949756E3,3.0204844E3,1.5556328E3,1.9195078E3,3.0540442E2,3.0218457E2,3.1520117E2,1.0167969E2,0E0,0E0,0E0,0E0,4.1075195E1,3.4967896E1,2.3270752E1,2.1674805E0,2.9007812E1,4.0022656E2,0E0,0E0,5.1469126E0,4.6878815E0,0E0,6.3042603E0,0E0,0E0,0E0,0E0,0E0,0E0,6.259082E1,0E0,0E0,0E0,0E0,0E0,0E0,0E0,0E0,0E0],"parents":[2147483647,0,0,1,1,3,3,4,4,5,5,6,6,7,7,8,8,9,9,10,10,11,11,12,12,17,17,18,18,19,19,20,20,21,21,22,22,25,25,26,26,28,28,35,35],"right_children":[2,4,-1,6,8,10,12,14,16,18,20,22,24,-1,-1,-1,-1,26,28,30,32,34,36,-1,-1,38,40,-1,42,-1,-1,-1,-1,-1,-1,44,-1,-1,-1,-1,-1,-1,-1,-1,-1],"split_conditions":[6.87155E2,1.4533E2,2.0775436E1,5.1275E1,3.0287E2,2.2175E1,9.549E1,2.056E2,4.0256E2,1.0465E1,3.7145E1,6.7795E1,1.1293E2,1.9808E0,2.8565557E0,4.008145E0,6.196684E0,4.3575E0,1.5295E1,2.839E1,4.23E1,-7.6949997E0,9.4134995E1,1.167982E0,1.4558852E0,7.2440004E-1,-5.011E1,1.4003433E-1,2.0265E1,2.7783433E-1,3.577768E-1,4.3864653E-1,5.263845E-1,2.060978E-1,6.729295E-1,3.4967E1,-1.4592838E-1,-1.7188018E-2,2.5223184E-2,-1.4309673E-2,8.097968E-2,2.0668358E-1,1.6420715E-2,9.7231156E-1,6.723328E-1],"split_indices":[0,0,0,0,0,0,0,0,0,0,0,0,0,0,0,0,0,0,0,0,0,4,0,0,0,0,6,0,5,0,0,0,0,0,0,3,0,0,0,0,0,0,0,0,0],"split_type":[0,0,0,0,0,0,0,0,0,0,0,0,0,0,0,0,0,0,0,0,0,0,0,0,0,0,0,0,0,0,0,0,0,0,0,0,0,0,0,0,0,0,0,0,0],"sum_hessian":[1.83E3,1.826E3,4E0,1.68E3,1.46E2,1.263E3,4.17E2,1.09E2,3.7E1,8.23E2,4.4E2,2.7E2,1.47E2,5.9E1,5E1,2.4E1,1.3E1,4.38E2,3.85E2,2.47E2,1.93E2,1.42E2,1.28E2,6.3E1,8.4E1,1.8E2,2.58E2,1.83E2,2.02E2,1.08E2,1.39E2,7.7E1,1.16E2,3E0,1.39E2,1.25E2,3E0,3E1,1.5E2,3E0,2.55E2,1.99E2,3E0,1.04E2,2.1E1],"tree_param":{"num_deleted":"0","num_feature":"14","num_nodes":"45","size_leaf_vector":"0"}},{"base_weights":[6.227658E0,5.755048E0,2.2040346E2,3.9161837E0,3.1428703E1,2.1780949E0,1.0297929E1,2.5788618E1,5.3342857E1,1.1016054E0,4.173146E0,8.045942E0,1.3465469E1,2.169822E1,3.231631E1,4.229595E1,6.69437E1,5.625444E-1,1.7790644E0,3.264375E0,5.079215E0,6.862273E0,9.036048E0,1.2186696E1,1.5434503E1,2.3911421E-1,8.618057E-1,1.5208224E0,2.2099047E0,2.886644E0,3.6281385E0,4.5591254E0,5.573352E0,7.150438E0,3.9978216E0,9.438447E0,4.7457833E0,1.1274194E1,1.6429974E1,1.5458281E-2,3.730929E-1,-1.3528466E-1,8.783782E-1,1.53682E0,-0E0,2.8028088E0,7.254259E0,-3.3127885E0,6.9138904E0,8.472297E0,1.0973442E1,-5.5116367E0,8.888439E0,3.5724468E0,1.2958993E1],"categories":[],"categories_nodes":[],"categories_segments":[],"categories_sizes":[],"default_left":[1,1,0,1,1,1,1,1,1,1,1,1,1,0,0,0,0,1,1,1,1,1,1,0,1,1,1,1,0,0,0,0,0,1,1,1,1,1,0,0,0,0,0,0,0,0,0,0,0,0,0,0,0,0,0],"id":22,"left_children":[1,3,-1,5,7,9,11,13,15,17,19,21,23,-1,-1,-1,-1,25,27,29,31,33,35,-1,37,39,41,43,-1,-1,-1,-1,-1,45,47,49,51,53,-1,-1,-1,-1,-1,-1,-1,-1,-1,-1,-1,-1,-1,-1,-1,-1,-1],"loss_changes":[1.8384216E5,8.6142125E4,0E0,1.889921E4,1.3624148E4,2.8744238E3,2.4737812E3,1.8881562E3,6.6525E2,3.158352E2,3.620786E2,1.752373E2,1.6197461E2,0E0,0E0,0E0,0E0,4.602339E1,3.5855103E1,1.5714355E1,2.4337402E1,4.5285156E1,1.3783301E2,0E0,1.4841797E1,6.737379E0,5.0260315E0,4.947693E0,0E0,0E0,0E0,0E0,0E0,1.1137207E1,2.8232422E2,4.0335938E1,5.6228217E2,1.1883606E2,0E0,0E0,0E0,0E0,0E0,0E0,0E0,0E0,0E0,0E0,0E0,0E0,0E0,0E0,0E0,0E0,0E0],"parents":[2147483647,0,0,1,1,3,3,4,4,5,5,6,6,7,7,8,8,9,9,10,10,11,11,12,12,17,17,18,18,19,19,20,20,21,21,22,22,24,24,25,25,26,26,27,27,33,33,34,34,35,35,36,36,37,37],"right_children":[2,4,-1,6,8,10,12,14,16,18,20,22,24,-1,-1,-1,-1,26,28,30,32,34,36,-1,38,40,42,44,-1,-1,-1,-1,-1,46,48,50,52,54,-1,-1,-1,-1,-1,-1,-1,-1,-1,-1,-1,-1,-1,-1,-1,-1,-1],"split_conditions":[8.6246497E2,1.6507501E2,2.1599539E1,6.0555E1,3.557E2,2.483E1,1.01775E2,2.6778E2,4.95285E2,1.187E1,4.0379997E1,7.4315E1,1.3368E2,2.1264255E0,3.1669984E0,4.1450033E0,6.5604825E0,6.0950003E0,1.826E1,3.2555E1,4.791E1,3.93E1,1.8783E2,1.1942962E0,1.855E0,1.89895E0,-5.011E1,2.1685001E1,2.1657065E-1,2.828911E-1,3.5555756E-1,4.4679427E-1,5.461885E-1,-7.42E0,5.91465E1,9.041E1,3.1299999E0,-5.375E0,1.6101373E0,1.5149115E-3,3.6563102E-2,-1.32578965E-2,8.6081065E-2,1.5060836E-1,-0E0,2.7467525E-1,7.1091735E-1,-3.2465327E-1,6.775612E-1,8.302851E-1,1.0753973E0,-5.401404E-1,8.71067E-1,3.5009977E-1,1.2699813E0],"split_indices":[0,0,0,0,0,0,0,0,0,0,0,0,0,0,0,0,0,0,0,0,0,3,10,0,2,0,6,5,0,0,0,0,0,4,3,0,6,4,0,0,0,0,0,0,0,0,0,0,0,0,0,0,0,0,0],"split_type":[0,0,0,0,0,0,0,0,0,0,0,0,0,0,0,0,0,0,0,0,0,0,0,0,0,0,0,0,0,0,0,0,0,0,0,0,0,0,0,0,0,0,0,0,0,0,0,0,0,0,0,0,0,0,0],"sum_hessian":[1.83E3,1.827E3,3E0,1.706E3,1.21E2,1.342E3,3.64E2,9.8E1,2.3E1,8.73E2,4.69E2,2.15E2,1.49E2,6.3E1,3.5E1,1.5E1,8E0,4.88E2,3.85E2,2.37E2,2.32E2,1.02E2,1.13E2,9.5E1,5.4E1,2.37E2,2.51E2,2.45E2,1.4E2,1.22E2,1.15E2,1.19E2,1.13E2,9.1E1,1.1E1,1.02E2,1.1E1,1.3E1,4.1E1,9.2E1,1.45E2,3E0,2.48E2,2.42E2,3E0,3E0,8.8E1,3E0,8E0,6.7E1,3.5E1,3E0,8E0,3E0,1E1],"tree_param":{"num_deleted":"0","num_feature":"14","num_nodes":"55","size_leaf_vector":"0"}},{"base_weights":[5.6445103E0,5.206391E0,2.0420384E2,3.5536091E0,2.8693037E1,1.9529691E0,9.29851E0,2.2440842E1,4.5154045E1,9.9460727E-1,3.7479267E0,7.421754E0,1.2530875E1,1.9398045E1,2.7223387E1,3.7246666E1,6.111216E1,5.311902E-1,1.6396937E0,2.9475613E0,4.5625715E0,6.4674134E0,8.804282E0,1.1264134E1,1.4049149E1,8.613018E0,1.9811537E1,3.9817165E1,1.418988E1,2.356096E-1,8.2078964E-1,1.4114999E0,2.0089154E0,2.5535214E0,3.231927E0,4.035701E0,4.9348483E0,6.694451E0,4.1560187E0,9.340302E0,4.2797885E0,1.0432562E1,1.4960769E1,6.985362E-2,4.061437E-1,-1.1621487E-1,8.363123E-1,1.4271802E0,-0E0,2.6151948E0,7.704973E-2,1.4482403E0,4.0899267E0,1.9461069E0,4.983009E0,5.8012834E0,7.3854938E0,-3.6813111E0,6.324734E0,-6.5949345E0,8.748577E0,3.3098736E0,1.1854077E1],"categories":[],"categories_nodes":[],"categories_segments":[],"categories_sizes":[],"default_left":[1,1,0,1,1,1,1,1,1,1,1,1,1,1,0,1,0,1,1,1,1,1,1,0,1,0,0,0,0,1,1,1,0,1,0,1,1,1,1,0,1,1,0,0,0,0,0,0,0,0,0,0,0,0,0,0,0,0,0,0,0,0,0],"id":23,"left_children":[1,3,-1,5,7,9,11,13,15,17,19,21,23,25,-1,27,-1,29,31,33,35,37,39,-1,41,-1,-1,-1,-1,43,45,47,-1,49,-1,51,53,55,57,-1,59,61,-1,-1,-1,-1,-1,-1,-1,-1,-1,-1,-1,-1,-1,-1,-1,-1,-1,-1,-1,-1,-1],"loss_changes":[1.5801097E5,7.082564E4,0E0,1.568573E4,1.1269195E4,2.2931826E3,2.1437363E3,7.204531E2,1.6633984E3,2.5823535E2,2.8222754E2,2.4180469E2,7.607422E1,5.9591797E1,0E0,8.0341016E2,0E0,4.2491806E1,2.4412476E1,1.2630127E1,1.5833984E1,3.7419434E1,1.7437598E2,0E0,6.4541016E0,0E0,0E0,0E0,0E0,6.7319946E0,4.540756E0,4.1271667E0,0E0,1.3295898E1,0E0,2.7098389E0,1.7980957E0,2.4206055E1,2.9787772E2,0E0,6.430121E2,9.747583E1,0E0,0E0,0E0,0E0,0E0,0E0,0E0,0E0,0E0,0E0,0E0,0E0,0E0,0E0,0E0,0E0,0E0,0E0,0E0,0E0,0E0],"parents":[2147483647,0,0,1,1,3,3,4,4,5,5,6,6,7,7,8,8,9,9,10,10,11,11,12,12,13,13,15,15,17,17,18,18,19,19,20,20,21,21,22,22,24,24,29,29,30,30,31,31,33,33,35,35,36,36,37,37,38,38,40,40,41,41],"right_children":[2,4,-1,6,8,10,12,14,16,18,20,22,24,26,-1,28,-1,30,32,34,36,38,40,-1,42,-1,-1,-1,-1,44,46,48,-1,50,-1,52,54,56,58,-1,60,62,-1,-1,-1,-1,-1,-1,-1,-1,-1,-1,-1,-1,-1,-1,-1,-1,-1,-1,-1,-1,-1],"split_conditions":[8.6246497E2,1.6888E2,2.0011976E1,6.008E1,3.2991498E2,2.483E1,1.0806E2,2.47405E2,4.95285E2,1.2559999E1,4.0379997E1,8.0795E1,1.3368E2,-6.365E0,2.6678917E0,2.175E1,5.9889913E0,6.43E0,1.848E1,3.1099998E1,4.629E1,3.93E1,1.0309999E1,1.1038852E0,1.855E0,8.4407574E-1,1.9415306E0,3.9020822E0,1.3906082E0,3.38E0,-5.6205E1,2.1685001E1,1.9687371E-1,3.0974998E1,3.1672883E-1,-8.41E0,-1.3365E1,6.7795E1,4.9892E1,9.153496E-1,1.0735001E1,-5.375E0,1.4661553E0,6.8456545E-3,3.9802082E-2,-1.1389057E-2,8.19586E-2,1.3986365E-1,-0E0,2.562891E-1,7.5508733E-3,1.4192754E-1,4.008128E-1,1.9071847E-1,4.8833486E-1,5.6852573E-1,7.2377837E-1,-3.6076847E-1,6.1982393E-1,-6.4630353E-1,8.5736054E-1,3.243676E-1,1.1616995E0],"split_indices":[0,0,0,0,0,0,0,0,0,0,0,0,0,4,0,7,0,0,0,0,0,3,2,0,2,0,0,0,0,0,6,5,0,0,0,4,5,0,3,0,2,4,0,0,0,0,0,0,0,0,0,0,0,0,0,0,0,0,0,0,0,0,0],"split_type":[0,0,0,0,0,0,0,0,0,0,0,0,0,0,0,0,0,0,0,0,0,0,0,0,0,0,0,0,0,0,0,0,0,0,0,0,0,0,0,0,0,0,0,0,0,0,0,0,0,0,0,0,0,0,0,0,0,0,0,0,0,0,0],"sum_hessian":[1.83E3,1.827E3,3E0,1.708E3,1.19E2,1.337E3,3.71E2,8.8E1,3.1E1,8.73E2,4.64E2,2.37E2,1.34E2,5.7E1,3.1E1,2.3E1,8E0,5.1E2,3.63E2,2.37E2,2.27E2,1.44E2,9.3E1,7.8E1,5.6E1,3E0,5.4E1,2E1,3E0,2.55E2,2.55E2,2.29E2,1.34E2,1.05E2,1.32E2,1E2,1.27E2,1.29E2,1.5E1,8.2E1,1.1E1,1.4E1,4.2E1,1.33E2,1.22E2,3E0,2.52E2,2.26E2,3E0,1.02E2,3E0,3E0,9.7E1,3E0,1.24E2,6.1E1,6.8E1,3E0,1.2E1,3E0,8E0,3E0,1.1E1],"tree_param":{"num_deleted":"0","num_feature":"14","num_nodes":"63","size_leaf_vector":"0"}},{"base_weights":[5.117648E0,4.711507E0,1.8919487E2,3.2382872E0,2.6417662E1,1.783761E0,8.546857E0,2.1524845E1,4.423493E1,9.784823E-1,3.5855346E0,6.6661844E0,1.1290653E1,1.8155323E1,2.6808563E1,3.5451694E1,5.7244934E1,5.0727886E-1,1.623744E0,2.9707992E0,4.3431726E0,5.8895884E0,7.8276844E0,1.0099908E1,1.2898729E1,2.5484318E-1,8.1398726E-1,1.3696343E0,2.0266705E0,2.6869183E0,3.3513582E0,6.091664E0,3.7732625E0,8.320414E0,2.631256E0,9.324691E0,1.3684334E1,7.205077E-2,4.101996E-1,6.5670997E-1,9.167414E-1,-0E0,1.3870091E0,5.234409E0,6.6722054E0,6.4575963E0,-2.6869252E0,-5.055134E0,7.48364E0,3.066595E0,1.0661754E1],"categories":[],"categories_nodes":[],"categories_segments":[],"categories_sizes":[],"default_left":[1,1,0,1,1,1,1,1,1,1,1,1,1,0,0,0,0,1,1,1,0,1,1,0,1,1,1,1,0,0,0,1,1,0,1,1,0,0,0,0,0,0,0,0,0,0,0,0,0,0,0],"id":24,"left_children":[1,3,-1,5,7,9,11,13,15,17,19,21,23,-1,-1,-1,-1,25,27,29,-1,31,33,-1,35,37,39,41,-1,-1,-1,43,45,-1,47,49,-1,-1,-1,-1,-1,-1,-1,-1,-1,-1,-1,-1,-1,-1,-1],"loss_changes":[1.358028E5,5.8340477E4,0E0,1.3201271E4,9.094578E3,1.9448784E3,1.8057266E3,1.1240508E3,6.2034766E2,2.8041943E2,1.7306836E2,1.3952637E2,1.3011914E2,0E0,0E0,0E0,0E0,4.06102E1,3.3963867E1,1.0128906E1,0E0,2.5738281E1,1.8479199E2,0E0,1.5048828E1,8.007587E0,1.7354584E0,5.9631653E0,0E0,0E0,0E0,1.4382324E1,2.8124127E2,0E0,3.7593512E2,7.0720825E1,0E0,0E0,0E0,0E0,0E0,0E0,0E0,0E0,0E0,0E0,0E0,0E0,0E0,0E0,0E0],"parents":[2147483647,0,0,1,1,3,3,4,4,5,5,6,6,7,7,8,8,9,9,10,10,11,11,12,12,17,17,18,18,19,19,21,21,22,22,24,24,25,25,26,26,27,27,31,31,32,32,34,34,35,35],"right_children":[2,4,-1,6,8,10,12,14,16,18,20,22,24,-1,-1,-1,-1,26,28,30,-1,32,34,-1,36,38,40,42,-1,-1,-1,44,46,-1,48,50,-1,-1,-1,-1,-1,-1,-1,-1,-1,-1,-1,-1,-1,-1,-1],"split_conditions":[8.6246497E2,1.77505E2,1.8541098E1,6.1005E1,3.557E2,2.839E1,1.04770004E2,2.7327502E2,5.0401E2,1.3360001E1,4.3525E1,8.0795E1,1.3498999E2,1.7792217E0,2.6272392E0,3.474266E0,5.6100035E0,7.425E0,2.0585E1,3.7145E1,4.256309E-1,3.93E1,1.0309999E1,9.897909E-1,1.855E0,3.6100001E0,9.610001E0,-1.5755E1,1.986137E-1,2.6331797E-1,3.284331E-1,6.7795E1,3.165E1,8.154005E-1,1.1045E1,-5.375E0,1.3410647E0,7.0609753E-3,4.019956E-2,6.435758E-2,8.984065E-2,-0E0,1.3592689E-1,5.1297206E-1,6.538761E-1,6.3284445E-1,-2.6331866E-1,-4.954031E-1,7.333967E-1,3.0052632E-1,1.0448518E0],"split_indices":[0,0,0,0,0,0,0,0,0,0,0,0,0,0,0,0,0,0,0,0,0,3,2,0,2,0,0,4,0,0,0,0,9,0,2,4,0,0,0,0,0,0,0,0,0,0,0,0,0,0,0],"split_type":[0,0,0,0,0,0,0,0,0,0,0,0,0,0,0,0,0,0,0,0,0,0,0,0,0,0,0,0,0,0,0,0,0,0,0,0,0,0,0,0,0,0,0,0,0,0,0,0,0,0,0],"sum_hessian":[1.83E3,1.827E3,3E0,1.712E3,1.15E2,1.345E3,3.67E2,9.2E1,2.3E1,9.31E2,4.14E2,2.2E2,1.47E2,5.9E1,3.3E1,1.6E1,7E0,5.4E2,3.91E2,2.32E2,1.82E2,1.36E2,8.4E1,8.9E1,5.8E1,2.99E2,2.41E2,2.44E2,1.47E2,1.39E2,9.3E1,1.22E2,1.4E1,7.6E1,8E0,1.3E1,4.5E1,1.41E2,1.58E2,1.02E2,1.39E2,3E0,2.41E2,5.4E1,6.8E1,1E1,4E0,3E0,5E0,3E0,1E1],"tree_param":{"num_deleted":"0","num_feature":"14","num_nodes":"51","size_leaf_vector":"0"}},{"base_weights":[4.6389484E0,4.26245E0,1.7528902E2,2.8898878E0,2.342394E1,1.5924767E0,7.571093E0,1.8106503E1,3.718592E1,8.5320276E-1,3.1439114E0,5.7257133E0,9.749908E0,1.5141386E1,2.1256487E1,3.1055613E1,5.2336185E1,4.5848122E-1,1.4284505E0,2.5634305E0,3.821715E0,5.903176E0,5.3715706E-1,8.199622E0,1.0816794E1,6.755089E0,1.551168E1,3.338089E1,1.4413269E1,2.0907757E-1,7.117779E-1,1.2107558E0,1.7517341E0,2.2232475E0,2.8160167E0,3.4248827E0,4.104089E0,5.548048E0,9.489113E0,-6.3042107E0,6.10282E0,-8.492537E-2,2.7732015E-1,5.6852436E-1,8.2582664E-1,-0E0,1.227549E0,2.3037531E0,1.2203114E0,2.2172165E0,3.0111187E0,1.3957996E0,4.1586514E0,4.9624133E0,6.12564E0],"categories":[],"categories_nodes":[],"categories_segments":[],"categories_sizes":[],"default_left":[1,1,0,1,1,1,1,1,1,1,1,1,1,1,0,1,0,1,1,1,1,1,1,0,0,0,0,0,0,1,1,1,0,1,1,0,1,1,0,0,0,0,0,0,0,0,0,0,0,0,0,0,0,0,0],"id":25,"left_children":[1,3,-1,5,7,9,11,13,15,17,19,21,23,25,-1,27,-1,29,31,33,35,37,39,-1,-1,-1,-1,-1,-1,41,43,45,-1,47,49,-1,51,53,-1,-1,-1,-1,-1,-1,-1,-1,-1,-1,-1,-1,-1,-1,-1,-1,-1],"loss_changes":[1.167141E5,4.7983016E4,0E0,1.0346154E4,8.199172E3,1.5279202E3,1.416375E3,4.8235742E2,1.3561797E3,2.0363098E2,1.53396E2,1.7730664E2,1.701582E2,2.8219727E1,0E0,4.7722656E2,0E0,3.3106995E1,2.0815369E1,8.978394E0,3.779297E-1,1.8191602E2,3.4288605E2,0E0,0E0,0E0,0E0,0E0,0E0,5.753478E0,2.4820251E0,4.692383E0,0E0,2.304016E0,3.282837E0,0E0,4.5999756E0,1.973877E1,0E0,0E0,0E0,0E0,0E0,0E0,0E0,0E0,0E0,0E0,0E0,0E0,0E0,0E0,0E0,0E0,0E0],"parents":[2147483647,0,0,1,1,3,3,4,4,5,5,6,6,7,7,8,8,9,9,10,10,11,11,12,12,13,13,15,15,17,17,18,18,19,19,20,20,21,21,22,22,29,29,30,30,31,31,33,33,34,34,36,36,37,37],"right_children":[2,4,-1,6,8,10,12,14,16,18,20,22,24,26,-1,28,-1,30,32,34,36,38,40,-1,-1,-1,-1,-1,-1,42,44,46,-1,48,50,-1,52,54,-1,-1,-1,-1,-1,-1,-1,-1,-1,-1,-1,-1,-1,-1,-1,-1,-1],"split_conditions":[8.6246497E2,1.6507501E2,1.7178324E1,6.008E1,3.27245E2,2.6939999E1,9.696E1,2.2373001E2,5.0401E2,1.3360001E1,4.208E1,9.488E1,1.1917E2,-6.365E0,2.0831356E0,2.175E1,5.128946E0,6.8450003E0,1.9654999E1,3.3309998E1,4.798E1,9.041E1,9.08E0,8.0356294E-1,1.0600458E0,6.619987E-1,1.5201446E0,3.271327E0,1.4125004E0,1.145E0,9.585E0,-1.5755E1,1.7166995E-1,3.60365E2,-8.595E1,3.356385E-1,-1.201E1,7.188E1,9.29933E-1,-6.1781263E-1,5.9807634E-1,-8.322686E-3,2.7177373E-2,5.5715386E-2,8.093101E-2,-0E0,1.20299794E-1,2.257678E-1,1.1959051E-1,2.1728721E-1,2.9508963E-1,1.3678837E-1,4.0754783E-1,4.863165E-1,6.003127E-1],"split_indices":[0,0,0,0,0,0,0,0,0,0,0,0,0,4,0,7,0,0,0,0,0,0,6,0,0,0,0,0,0,0,0,4,0,9,10,0,5,0,0,0,0,0,0,0,0,0,0,0,0,0,0,0,0,0,0],"split_type":[0,0,0,0,0,0,0,0,0,0,0,0,0,0,0,0,0,0,0,0,0,0,0,0,0,0,0,0,0,0,0,0,0,0,0,0,0,0,0,0,0,0,0,0,0,0,0,0,0,0,0,0,0,0,0],"sum_hessian":[1.83E3,1.827E3,3E0,1.706E3,1.21E2,1.337E3,3.69E2,8.9E1,3.2E1,9.07E2,4.3E2,2.02E2,1.67E2,4.9E1,4E1,2.5E1,7E0,5.4E2,3.67E2,2.35E2,1.95E2,1.95E2,7E0,7.2E1,9.5E1,3E0,4.6E1,2.1E1,4E0,2.75E2,2.65E2,2.24E2,1.43E2,1.06E2,1.29E2,8.8E1,1.07E2,1.8E2,1.5E1,3E0,4E0,4.9E1,2.26E2,1.24E2,1.41E2,3E0,2.21E2,9.6E1,1E1,3.6E1,9.3E1,3E0,1.04E2,9.5E1,8.5E1],"tree_param":{"num_deleted":"0","num_feature":"14","num_nodes":"55","size_leaf_vector":"0"}},{"base_weights":[4.205877E0,3.8568597E0,1.6240526E2,2.4733915E0,1.9537624E1,1.3410047E0,6.1786666E0,1.5290376E1,3.3844994E1,6.9309014E-1,2.5493681E0,4.902765E0,8.250917E0,1.2093848E1,1.8369345E1,2.8196074E1,4.784835E1,3.2102236E-1,1.0828512E0,2.0345788E0,3.105498E0,5.0114036E0,-2.6727428E0,7.351658E0,9.108542E0,1.3368138E1,9.239706E0,3.0258255E1,1.3283264E1,6.951288E-2,4.6306795E-1,8.414343E-1,1.2900364E0,1.7739413E0,2.2421727E0,3.1458335E0,1.3262209E0,4.44979E0,6.2695446E0,3.159605E0,9.309825E0,1.0145198E1,2.3786926E0,-2.525678E-1,1.21797286E-1,-3.0596995E-1,4.7640038E-1,3.3183575E-2,8.4872E-1,1.306842E0,-0E0,1.0825342E0,2.2828002E0,9.032545E-1,3.169483E0,8.5731506E-1,4.5025716E0,5.7140527E0,8.091293E0,1.1170248E1,4.8410063E0],"categories":[],"categories_nodes":[],"categories_segments":[],"categories_sizes":[],"default_left":[1,1,0,1,1,1,1,1,1,1,1,1,1,1,0,1,0,1,1,1,1,1,0,0,1,0,1,0,0,1,1,1,1,0,1,1,0,1,1,0,0,1,0,0,0,0,0,1,1,0,0,1,1,0,0,0,0,0,0,0,0],"id":26,"left_children":[1,3,-1,5,7,9,11,13,15,17,19,21,23,25,-1,27,-1,29,31,33,35,37,-1,-1,39,-1,41,-1,-1,43,45,-1,49,-1,-1,53,-1,55,57,-1,-1,59,-1,-1,-1,-1,-1,-1,-1,-1,-1,-1,-1,-1,-1,-1,-1,-1,-1,-1,-1],"loss_changes":[1.0030476E5,3.9586004E4,0E0,7.037342E3,8.426867E3,1.0041699E3,9.854824E2,8.890547E2,1.1852461E3,1.2020825E2,1.1708569E2,2.1818945E2,3.0717773E1,7.209473E1,0E0,3.5410547E2,0E0,1.4904507E1,1.7240417E1,4.829651E0,6.642334E0,1.3308398E2,0E0,0E0,4.3132324E1,0E0,1.0002075E2,0E0,0E0,2.594359E0,3.1255531E0,2.3234558E-1,4.3031006E0,0E0,9.9731445E-2,4.0427246E0,0E0,2.3394043E1,1.28220215E1,0E0,0E0,3.3217896E1,0E0,0E0,0E0,0E0,0E0,0E0,0E0,0E0,0E0,0E0,0E0,0E0,0E0,0E0,0E0,0E0,0E0,0E0,0E0],"parents":[2147483647,0,0,1,1,3,3,4,4,5,5,6,6,7,7,8,8,9,9,10,10,11,11,12,12,13,13,15,15,17,17,18,18,19,19,20,20,21,21,24,24,26,26,29,29,30,30,31,31,32,32,34,34,35,35,37,37,38,38,41,41],"right_children":[2,4,-1,6,8,10,12,14,16,18,20,22,24,26,-1,28,-1,30,32,34,36,38,-1,-1,40,-1,42,-1,-1,44,46,-1,50,-1,-1,54,-1,56,58,-1,-1,60,-1,-1,-1,-1,-1,-1,-1,-1,-1,-1,-1,-1,-1,-1,-1,-1,-1,-1,-1],"split_conditions":[8.6246497E2,1.4533E2,1.5915715E1,5.448E1,3.27245E2,2.3075E1,9.549E1,2.056E2,5.0401E2,1.0375E1,3.7480003E1,9.4134995E1,1.18545E2,-8.7E-1,1.8001957E0,2.175E1,4.6891384E0,4.0525E0,1.544E1,2.984E1,1.125855E3,7.73E1,-2.619288E-1,7.2046244E-1,-1.3635E1,1.3100775E0,1.93035E2,2.965309E0,1.3017598E0,5.9705E-1,-5.279E1,8.246056E-2,2.0265E1,1.7384624E-1,2.1973293E-1,-1.0995E1,1.2996964E-1,-8.684999E0,9.041E1,3.0964127E-1,9.123628E-1,4.8705E1,2.3311187E-1,-2.4751643E-2,1.1936134E-2,-2.9985055E-2,4.6687234E-2,3.2519903E-3,8.317456E-2,1.280705E-1,-0E0,1.0608835E-1,2.2371441E-1,8.851894E-2,3.106093E-1,8.4016874E-2,4.41252E-1,5.599772E-1,7.9294676E-1,1.0946842E0,4.744186E-1],"split_indices":[0,0,0,0,0,0,0,0,0,0,0,0,0,5,0,7,0,0,0,0,9,0,0,0,6,0,0,0,0,0,6,10,5,0,4,4,0,4,0,0,0,1,0,0,0,0,0,2147483647,2147483647,0,0,2147483647,2147483647,0,0,0,0,0,0,0,0],"split_type":[0,0,0,0,0,0,0,0,0,0,0,0,0,0,0,0,0,0,0,0,0,0,0,0,0,0,0,0,0,0,0,0,0,0,0,0,0,0,0,0,0,0,0,0,0,0,0,0,0,0,0,0,0,0,0,0,0,0,0,0,0],"sum_hessian":[1.83E3,1.827E3,3E0,1.68E3,1.47E2,1.288E3,3.92E2,1.15E2,3.2E1,8.4E2,4.48E2,2.45E2,1.47E2,5.9E1,5.6E1,2.5E1,7E0,4.32E2,4.08E2,2.36E2,2.12E2,2.42E2,3E0,7.7E1,7E1,3.8E1,2.1E1,2.1E1,4E0,1.59E2,2.73E2,1.93E2,2.15E2,1.11E2,1.25E2,2.06E2,6E0,1.71E2,7.1E1,3E0,6.7E1,1.8E1,3E0,1.9E1,1.4E2,3E0,2.7E2,3E0,1.9E2,2.12E2,3E0,6E0,1.19E2,3E0,2.03E2,3E0,1.68E2,5.8E1,1.3E1,1.4E1,4E0],"tree_param":{"num_deleted":"4","num_feature":"14","num_nodes":"61","size_leaf_vector":"0"}},{"base_weights":[3.8136718E0,3.490131E0,1.5046843E2,2.3968325E0,1.9898174E1,1.3117645E0,6.334953E0,1.6921038E1,3.8352547E1,7.132421E-1,2.6227381E0,5.079527E0,8.633233E0,1.3987438E1,2.2174864E1,3.7426564E-1,1.1902394E0,2.1696408E0,3.1946917E0,4.4474444E0,6.1237683E0,7.759181E0,9.798271E0,7.7790656E0,1.4346516E1,9.691856E0,2.3037998E1,1.8488513E-1,6.092106E-1,1.0107597E0,1.4978396E0,1.9005513E0,2.387947E0,1.0887299E0,3.2181869E0,4.8598495E0,3.5431957E0,6.5505543E0,2.4498527E0,1.0046847E1,4.1157913E0,1.3334106E1,1.9388515E1,1.8284764E-2,2.8456727E-1,6.147241E-1,-0E0,-0E0,1.0242556E0,3.4532213E-1,1.5136025E0,1.973833E0,1.1646938E0,7.27273E-1,2.4144084E0,6.5706825E-1,3.2522337E0,7.94302E-1,4.963873E0,-5.0575624E0,4.1803923E0,6.7570376E0,3.7741957E0,-3.2969437E0,6.347585E0],"categories":[],"categories_nodes":[],"categories_segments":[],"categories_sizes":[],"default_left":[1,1,0,1,1,1,1,1,0,1,1,1,1,1,1,1,1,1,1,1,1,0,1,0,1,0,0,1,1,1,1,1,1,0,1,1,1,1,1,0,0,0,0,0,0,1,1,0,0,1,1,0,0,0,0,0,0,0,0,0,0,0,0,0,0],"id":27,"left_children":[1,3,-1,5,7,9,11,13,-1,15,17,19,21,23,25,27,29,31,33,35,37,-1,39,-1,41,-1,-1,43,-1,47,-1,51,53,-1,55,57,59,61,63,-1,-1,-1,-1,-1,-1,-1,-1,-1,-1,-1,-1,-1,-1,-1,-1,-1,-1,-1,-1,-1,-1,-1,-1,-1,-1],"loss_changes":[8.619966E4,3.2722309E4,0E0,7.312459E3,5.5590625E3,1.0509282E3,1.01000195E3,1.1949297E3,0E0,1.4771576E2,9.6806885E1,1.2192529E2,3.7777344E1,1.5633789E1,1.10322266E2,2.3298004E1,1.712207E1,5.2127686E0,1.2442627E0,3.2179688E1,1.1293384E2,0E0,1.652539E1,0E0,2.5232422E1,0E0,0E0,4.757104E0,4.859085E-1,3.6364136E0,1.07299805E-1,7.0999146E-1,6.3934326E-1,0E0,9.649292E0,3.385913E1,3.1072522E2,8.681152E0,2.703725E2,0E0,0E0,0E0,0E0,0E0,0E0,0E0,0E0,0E0,0E0,0E0,0E0,0E0,0E0,0E0,0E0,0E0,0E0,0E0,0E0,0E0,0E0,0E0,0E0,0E0,0E0],"parents":[2147483647,0,0,1,1,3,3,4,4,5,5,6,6,7,7,9,9,10,10,11,11,12,12,13,13,14,14,15,15,16,16,17,17,18,18,19,19,20,20,22,22,24,24,27,27,28,28,29,29,30,30,31,31,32,32,34,34,35,35,36,36,37,37,38,38],"right_children":[2,4,-1,6,8,10,12,14,-1,16,18,20,22,24,26,28,30,32,34,36,38,-1,40,-1,42,-1,-1,44,-1,48,-1,52,54,-1,56,58,60,62,64,-1,-1,-1,-1,-1,-1,-1,-1,-1,-1,-1,-1,-1,-1,-1,-1,-1,-1,-1,-1,-1,-1,-1,-1,-1,-1],"split_conditions":[8.6246497E2,1.79905E2,1.4745906E1,6.1005E1,4.0256E2,2.808E1,1.1011E2,2.8495502E2,3.7585495E0,1.3440001E1,4.3525E1,8.5384995E1,1.3794E2,-6.0600004E0,2.3799999E0,7.525E0,2.0869999E1,3.5105003E1,-9.575E0,3.4925E1,1.8783E2,7.603997E-1,7.7385E1,7.623484E-1,7.5100006E1,9.498019E-1,2.2577238E0,2.83E0,5.970264E-2,-1.5755E1,1.4678827E-1,3.60365E2,-8.465E0,1.06695525E-1,-1.2795E1,-8.684999E0,3.7995E1,6.35E0,1.835E0,9.84591E-1,4.0334755E-1,1.3067424E0,1.9000745E0,1.7919069E-3,2.7887592E-2,6.024296E-2,-0E0,-0E0,1.0037705E-1,3.384157E-2,1.4833304E-1,1.9343562E-1,1.1413999E-1,7.127275E-2,2.3661202E-1,6.4392686E-2,3.187189E-1,7.7841595E-2,4.8645952E-1,-4.956411E-1,4.0967843E-1,6.6218966E-1,3.6987117E-1,-3.2310048E-1,6.2206334E-1],"split_indices":[0,0,0,0,0,0,0,0,0,0,0,0,0,4,6,0,0,0,4,9,10,0,1,0,10,0,0,0,6,4,6,9,4,0,5,4,9,5,5,0,0,0,0,0,0,2147483647,2147483647,0,0,2147483647,2147483647,0,0,0,0,0,0,0,0,0,0,0,0,0,0],"split_type":[0,0,0,0,0,0,0,0,0,0,0,0,0,0,0,0,0,0,0,0,0,0,0,0,0,0,0,0,0,0,0,0,0,0,0,0,0,0,0,0,0,0,0,0,0,0,0,0,0,0,0,0,0,0,0,0,0,0,0,0,0,0,0,0,0],"sum_hessian":[1.83E3,1.827E3,3E0,1.714E3,1.13E2,1.345E3,3.69E2,9.9E1,1.4E1,9.25E2,4.2E2,2.41E2,1.28E2,6.6E1,3.3E1,5.43E2,3.82E2,2.38E2,1.82E2,1.54E2,8.7E1,7.8E1,5E1,5E0,6.1E1,3E0,3E1,3.04E2,2.39E2,2.46E2,1.36E2,1.13E2,1.25E2,3E0,1.79E2,1.02E2,5.2E1,7.7E1,1E1,4.7E1,3E0,5.4E1,7E0,1.18E2,1.86E2,2.36E2,3E0,3E0,2.43E2,3E0,1.33E2,1E2,1.3E1,3E0,1.22E2,3E0,1.76E2,3E0,9.9E1,3E0,4.9E1,7E1,7E0,4E0,6E0],"tree_param":{"num_deleted":"4","num_feature":"14","num_nodes":"65","size_leaf_vector":"0"}},{"base_weights":[3.4582312E0,3.158307E0,1.3940904E2,2.203037E0,1.864672E1,1.287757E0,6.239769E0,1.5792215E1,3.484457E1,6.515833E-1,2.5391278E0,4.9941306E0,8.065932E0,1.3025753E1,2.0098951E1,3.7088418E-1,1.1379492E0,2.0715075E0,3.1843286E0,4.2927933E0,5.6403346E0,7.1672254E0,9.129607E0,1.3421262E1,7.1285553E0,8.979507E0,2.0853107E1,1.7860465E-1,5.964191E-1,9.655345E-1,1.3673464E0,-0E0,2.0959735E0,2.513895E-1,3.2234344E0,4.606861E0,1.8321326E0,6.1106243E0,2.6267278E0,2.3570766E0,7.3231883E0,1.0072018E1,7.255554E0,3.7354313E-2,2.812076E-1,6.0182E-1,-0E0,-0E0,9.7924906E-1,2.3304129E-1,1.3830702E0,1.701187E0,2.320281E0,8.2983875E-1,3.2515972E0,5.1197853E0,-4.2520685E0,-5.7704945E0,5.2902412E0,4.3794775E0,7.5611024E0,2.0921283E0,8.998581E0],"categories":[],"categories_nodes":[],"categories_segments":[],"categories_sizes":[],"default_left":[1,1,0,1,1,1,1,1,0,1,1,1,1,1,1,1,1,1,1,1,1,1,1,0,0,0,0,1,1,1,1,0,1,0,1,0,1,0,1,0,1,0,1,0,0,0,0,0,0,0,0,0,0,0,0,0,0,0,0,0,0,0,0],"id":28,"left_children":[1,3,-1,5,7,9,11,13,-1,15,17,19,21,23,25,27,29,31,33,35,37,39,41,-1,-1,-1,-1,43,45,47,49,-1,51,-1,53,-1,55,-1,57,-1,59,-1,61,-1,-1,-1,-1,-1,-1,-1,-1,-1,-1,-1,-1,-1,-1,-1,-1,-1,-1,-1,-1],"loss_changes":[7.4076055E4,2.6984455E4,0E0,6.3504756E3,4.3001953E3,1.1144563E3,6.700244E2,8.012012E2,0E0,1.25581116E2,1.3085596E2,5.286963E1,3.967285E1,2.1385742E1,6.80332E1,2.4921074E1,9.794373E0,1.5166016E1,1.8195068E1,6.008362E1,1.1126953E2,2.8573486E1,4.965332E0,0E0,0E0,0E0,0E0,4.3810616E0,6.6722107E-1,2.4575806E0,5.763855E-1,0E0,1.6383423E1,0E0,6.2304688E0,0E0,2.82673E2,0E0,3.6553876E2,0E0,4.6706543E0,0E0,1.6808289E2,0E0,0E0,0E0,0E0,0E0,0E0,0E0,0E0,0E0,0E0,0E0,0E0,0E0,0E0,0E0,0E0,0E0,0E0,0E0,0E0],"parents":[2147483647,0,0,1,1,3,3,4,4,5,5,6,6,7,7,9,9,10,10,11,11,12,12,13,13,14,14,15,15,16,16,17,17,18,18,19,19,20,20,21,21,22,22,27,27,28,28,29,29,30,30,32,32,34,34,36,36,38,38,40,40,42,42],"right_children":[2,4,-1,6,8,10,12,14,-1,16,18,20,22,24,26,28,30,32,34,36,38,40,42,-1,-1,-1,-1,44,46,48,50,-1,52,-1,54,-1,56,-1,58,-1,60,-1,62,-1,-1,-1,-1,-1,-1,-1,-1,-1,-1,-1,-1,-1,-1,-1,-1,-1,-1,-1,-1],"split_conditions":[8.6246497E2,1.84555E2,1.3662086E1,6.7795E1,4.0256E2,2.869E1,1.1293E2,2.8495502E2,3.4147677E0,1.4465E1,4.629E1,8.6065E1,1.4123001E2,1.00770004E2,2.3799999E0,8E0,2.116E1,-2.0035E1,-9.549999E0,3.9224503E1,1.0309999E1,-1.3635E1,-6.5E-1,1.3152837E0,6.985984E-1,8.799917E-1,2.0436044E0,3.6100001E0,2.1473001E2,-1.2275E1,-4.7775E1,-0E0,3.5105003E1,2.463617E-2,-1.3365E1,4.5147237E-1,2.8970001E1,5.988412E-1,5.35E-1,2.3099351E-1,-3.1816998E2,9.870577E-1,3.0500007E-1,3.6607226E-3,2.7558343E-2,5.8978356E-2,-0E0,-0E0,9.5966406E-2,2.2838045E-2,1.3554087E-1,1.6671632E-1,2.2738753E-1,8.13242E-2,3.186565E-1,5.0173897E-1,-4.1670272E-1,-5.655084E-1,5.1844364E-1,4.291888E-1,7.40988E-1,2.0502856E-1,8.818609E-1],"split_indices":[0,0,0,0,0,0,0,0,0,0,0,0,0,9,6,0,0,4,4,3,2,6,5,0,0,0,0,0,6,4,6,0,0,0,5,0,9,0,6,0,9,0,4,0,0,0,0,0,0,0,0,0,0,0,0,0,0,0,0,0,0,0,0],"split_type":[0,0,0,0,0,0,0,0,0,0,0,0,0,0,0,0,0,0,0,0,0,0,0,0,0,0,0,0,0,0,0,0,0,0,0,0,0,0,0,0,0,0,0,0,0,0,0,0,0,0,0,0,0,0,0,0,0,0,0,0,0,0,0],"sum_hessian":[1.83E3,1.827E3,3E0,1.722E3,1.05E2,1.405E3,3.17E2,9.1E1,1.4E1,9.33E2,4.72E2,1.91E2,1.26E2,5.8E1,3.3E1,5.94E2,3.39E2,2.77E2,1.95E2,9.6E1,9.5E1,7.3E1,5.3E1,5.3E1,5E0,3E0,3E1,3.24E2,2.7E2,1.99E2,1.4E2,3E0,2.74E2,3E0,1.92E2,8.4E1,1.2E1,8.1E1,1.4E1,3E0,7E1,3.2E1,2.1E1,1.41E2,1.83E2,2.67E2,3E0,3E0,1.96E2,3E0,1.37E2,1.04E2,1.7E2,3E0,1.89E2,8E0,4E0,3E0,1.1E1,7E0,6.3E1,6E0,1.5E1],"tree_param":{"num_deleted":"0","num_feature":"14","num_nodes":"63","size_leaf_vector":"0"}},{"base_weights":[3.1357615E0,2.8577294E0,1.2916246E2,2.0043252E0,1.7121012E1,1.1323766E0,5.5525255E0,1.4562514E1,3.2274143E1,5.8777785E-1,2.2444167E0,4.4112735E0,7.3544617E0,1.2069693E1,1.8672325E1,3.0447492E-1,9.7887784E-1,1.8090326E0,2.7524662E0,3.8378265E0,5.142989E0,6.6063895E0,8.555151E0,1.0716657E1,1.5257488E1,2.0496063E1,1.2510495E1,8.8068604E-2,4.4151396E-1,8.0136055E-1,1.1980098E0,1.6096215E0,2.0334387E0,-1.1570492E0,2.8205328E0,4.1314554E0,2.2565544E0,5.5362473E0,1.3826225E0,5.1756864E0,7.237009E0,4.7606287E0,8.980313E0,1.5825745E1,3.3311844E0,-2.1837464E-1,1.2752058E-1,3.2944122E-1,5.442277E-1,8.14899E-1,-0E0,1.2142574E0,3.848702E-1,6.146705E-1,1.6501517E0,2.200033E0,1.2569029E0,2.5391057E0,3.1655247E0,-4.206774E0,3.5511208E0,-5.39476E0,5.2007523E0,6.178867E0,-0E0],"categories":[],"categories_nodes":[],"categories_segments":[],"categories_sizes":[],"default_left":[1,1,0,1,1,1,1,1,0,1,1,1,1,1,1,1,1,1,1,1,1,1,1,0,0,0,1,1,1,1,1,1,1,0,1,0,1,0,1,1,0,0,0,0,0,0,0,0,0,0,0,1,1,0,0,0,0,0,0,0,0,0,0,0,0],"id":29,"left_children":[1,3,-1,5,7,9,11,13,-1,15,17,19,21,23,25,27,29,31,33,35,37,39,41,-1,-1,-1,43,45,47,49,-1,53,55,-1,57,-1,59,-1,61,63,-1,-1,-1,-1,-1,-1,-1,-1,-1,-1,-1,-1,-1,-1,-1,-1,-1,-1,-1,-1,-1,-1,-1,-1,-1],"loss_changes":[6.365612E4,2.2197607E4,0E0,5.3270093E3,3.4764062E3,8.3583765E2,6.5498926E2,6.659414E2,0E0,1.017948E2,9.1103516E1,5.9816895E1,4.5086426E1,6.499512E1,7.017969E1,1.5564461E1,1.2211487E1,4.2263184E0,6.001123E1,4.1398926E1,1.1703955E2,2.6820312E1,1.7718506E1,0E0,0E0,0E0,2.324419E2,2.5362983E0,2.7458038E0,2.8436737E0,1.7947388E-1,2.3261108E0,8.137482E0,0E0,6.064209E0,0E0,1.9836166E2,0E0,2.8663205E2,1.5082806E2,0E0,0E0,0E0,0E0,0E0,0E0,0E0,0E0,0E0,0E0,0E0,0E0,0E0,0E0,0E0,0E0,0E0,0E0,0E0,0E0,0E0,0E0,0E0,0E0,0E0],"parents":[2147483647,0,0,1,1,3,3,4,4,5,5,6,6,7,7,9,9,10,10,11,11,12,12,13,13,14,14,15,15,16,16,17,17,18,18,19,19,20,20,21,21,22,22,26,26,27,27,28,28,29,29,30,30,31,31,32,32,34,34,36,36,38,38,39,39],"right_children":[2,4,-1,6,8,10,12,14,-1,16,18,20,22,24,26,28,30,32,34,36,38,40,42,-1,-1,-1,44,46,48,50,-1,54,56,-1,58,-1,60,-1,62,64,-1,-1,-1,-1,-1,-1,-1,-1,-1,-1,-1,-1,-1,-1,-1,-1,-1,-1,-1,-1,-1,-1,-1,-1,-1],"split_conditions":[8.6246497E2,1.89225E2,1.2657921E1,6.558E1,4.1234E2,2.8525E1,1.1293E2,2.9239E2,3.1628659E0,1.3440001E1,4.444E1,8.796E1,1.4533E2,6.4205E1,4.315E0,5.38E0,1.9599998E1,3.7145E1,-1.477E1,3.68875E1,1.52375E2,-4.31E0,2.15E0,1.0502323E0,1.4952338E0,2.008614E0,1.7099998E1,6.3075E-1,9.275E0,2.0305E1,1.1740496E-1,-7.54E0,2.1057E2,-1.1339082E-1,5.5739998E1,4.048826E-1,-6.3450003E0,5.4255223E-1,9.5615E1,-7.1E-1,7.0922685E-1,4.665416E-1,8.800707E-1,1.550923E0,3.2645607E-1,-2.1400714E-2,1.2497016E-2,3.228524E-2,5.3334314E-2,7.9860106E-2,-0E0,1.18997216E-1,3.771728E-2,6.023771E-2,1.6171487E-1,2.1560322E-1,1.23176485E-1,2.4883235E-1,3.102214E-1,-4.1226387E-1,3.4800982E-1,-5.2868646E-1,5.096737E-1,6.0552895E-1,-0E0],"split_indices":[0,0,0,0,0,0,0,0,0,0,0,0,0,10,5,0,0,0,4,3,10,4,2,0,0,0,3,0,0,5,10,4,9,0,0,0,5,0,0,5,0,0,0,0,0,0,0,0,0,0,0,2147483647,2147483647,0,0,0,0,0,0,0,0,0,0,0,0],"split_type":[0,0,0,0,0,0,0,0,0,0,0,0,0,0,0,0,0,0,0,0,0,0,0,0,0,0,0,0,0,0,0,0,0,0,0,0,0,0,0,0,0,0,0,0,0,0,0,0,0,0,0,0,0,0,0,0,0,0,0,0,0,0,0,0,0],"sum_hessian":[1.83E3,1.827E3,3E0,1.725E3,1.02E2,1.386E3,3.39E2,8.9E1,1.3E1,9.32E2,4.54E2,2.1E2,1.29E2,5.8E1,3.1E1,5.43E2,3.89E2,2.48E2,2.06E2,1.22E2,8.8E1,8.4E1,4.5E1,4.4E1,1.4E1,2.2E1,9E0,2.14E2,3.29E2,2.2E2,1.69E2,1.38E2,1.1E2,3E0,2.03E2,1.01E2,2.1E1,7.9E1,9E0,2.9E1,5.5E1,6E0,3.9E1,6E0,3E0,2.1E1,1.93E2,1.64E2,1.65E2,2.17E2,3E0,1.64E2,5E0,7E0,1.31E2,8.8E1,2.2E1,1.18E2,8.5E1,3E0,1.8E1,3E0,6E0,2.4E1,5E0],"tree_param":{"num_deleted":"2","num_feature":"14","num_nodes":"65","size_leaf_vector":"0"}},{"base_weights":[2.844372E0,2.5866354E0,1.1966899E2,1.8114948E0,1.554106E1,1.1015116E0,5.378888E0,1.3663462E1,3.3522263E1,5.688321E-1,2.2233078E0,4.5109935E0,7.092981E0,1.0931666E1,1.7623259E1,3.157412E-1,1.0041777E0,1.8438256E0,2.8149292E0,5.3445725E0,4.0381246E0,7.73394E0,5.9185696E0,9.95947E0,1.5115043E1,1.9151447E1,1.1482E1,1.4453323E-1,4.9804607E-1,8.2458484E-1,1.1942278E0,-0E0,1.8652112E0,2.9759238E0,-8.737507E-2,3.7944317E0,5.8259916E0,2.5230067E0,4.8451056E0,2.8467534E0,7.550181E0,4.189705E0,1.0211961E1,6.572338E0,1.8124338E1,1.4496373E1,3.0863495E0,-1.285226E-1,1.813797E-1,3.882948E-1,5.531242E-1,8.507494E-1,-0E0,1.2280726E0,-2.588892E-1,1.617606E0,2.124784E0,2.7308884E0,4.126448E0,2.8061535E0,-5.379206E0,1.2156792E0,4.1394677E0,3.2840822E0,-6.229576E0,3.8834295E0,5.3339E0,-0E0,3.8395426E0],"categories":[],"categories_nodes":[],"categories_segments":[],"categories_sizes":[],"default_left":[1,1,0,1,1,1,1,1,0,1,1,1,1,1,1,1,1,1,1,1,1,0,1,1,1,0,1,1,1,1,1,0,1,1,1,1,0,1,1,1,0,0,0,0,0,0,0,0,0,0,0,0,0,0,0,0,0,0,0,0,0,0,0,0,0,0,0,0,0],"id":30,"left_children":[1,3,-1,5,7,9,11,13,-1,15,17,19,21,