{"learner":{"attributes":{"best_iteration":"69","best_ntree_limit":"70","best_score":"0.9347656219907876","scikit_learn":"{\"n_estimators\": 1400, \"objective\": \"reg:squarederror\", \"max_depth\": 8, \"max_leaves\": null, \"max_bin\": null, \"grow_policy\": null, \"learning_rate\": 0.063, \"verbosity\": null, \"booster\": \"gbtree\", \"tree_method\": null, \"gamma\": 0.3030738510672555, \"min_child_weight\": 2, \"max_delta_step\": null, \"subsample\": null, \"sampling_method\": null, \"colsample_bytree\": 1, \"colsample_bylevel\": null, \"colsample_bynode\": null, \"reg_alpha\": 0, \"reg_lambda\": null, \"scale_pos_weight\": null, \"base_score\": null, \"missing\": NaN, \"num_parallel_tree\": null, \"random_state\": null, \"n_jobs\": null, \"monotone_constraints\": null, \"interaction_constraints\": null, \"importance_type\": null, \"gpu_id\": null, \"validate_parameters\": null, \"predictor\": null, \"enable_categorical\": false, \"feature_types\": null, \"max_cat_to_onehot\": null, \"max_cat_threshold\": null, \"eval_metric\": \"mape\", \"early_stopping_rounds\": 170, \"callbacks\": null, \"evals_result_\": {\"validation_0\": {\"mape\": [1.0738792248952136, 1.0185886252500431, 0.9674349045036633, 0.9171388074911166, 0.8724823122239879, 0.8219224802453291, 0.778887518657428, 0.7342490915427863, 0.6979608816707248, 0.6634534674901549, 0.6330329178525362, 0.6019259502824682, 0.5700838408523423, 0.5385646547563485, 0.5157200952433161, 0.49267900850385027, 0.46572529642187954, 0.4464877997799935, 0.42329732182360164, 0.4070376879243015, 0.38688650671875835, 0.36729010657162503, 0.3509697890047014, 0.3381520999579487, 0.32201109357580077, 0.3133375483934375, 0.2954914290336481, 0.28473221168657026, 0.27737140310016756, 0.271076501029846, 0.2558086803977178, 0.24191043670571752, 0.23627592863108712, 0.22553167667312238, 0.21314342273855663, 0.20929658083034403, 0.19796052014058263, 0.1934086445837892, 0.1890972867469684, 0.18069327007782005, 0.17814051528913427, 0.17032818152022405, 0.1667778377679999, 0.15804980032354546, 0.15484330829338933, 0.15278436132851023, 0.1462677149717728, 0.14445417543806627, 0.14380096682370044, 0.13669652282968864, 0.13419829349651652, 0.13280710056403738, 0.13278050258720003, 0.12603172431368326, 0.12523244309061163, 0.12013148260660891, 0.11908227431348643, 0.11964397980171365, 0.11906795632852545, 0.11435009223574014, 0.11191397062718672, 0.11131744666223195, 0.11077663894827587, 0.11092042569175856, 0.11078411443473243, 0.10909346517764279, 0.10665910240292051, 0.1050263295430864, 0.10559157363924243, 0.10280386188468522, 0.10225723070040832, 0.1026682987327674, 0.10112919479978578, 0.10167652754573332, 0.10134032965942145, 0.10163867627880323, 0.10225824716874778, 0.09930016754940725, 0.1001074728287268, 0.10027532473491553, 0.09743498276295448, 0.09810591062398673, 0.097904890288132, 0.09748804333633762, 0.09725926908460528, 0.09857091810055796, 0.09920880426655462, 0.098870352942514, 0.09971282809727416, 0.09974443024334836, 0.10106137480350891, 0.0980003790369362, 0.09930680161914437, 0.10090745438357959, 0.10028084016147544, 0.09975163293414556, 0.10067458676598004, 0.10157609560447514, 0.10234898104797877, 0.10265278766820118, 0.10321173146029633, 0.10345994350397288, 0.10407997071745663, 0.1049544663859511, 0.10622158251825747, 0.10657009957539663, 0.10822669299477693, 0.10568934980395181, 0.10491712809279373, 0.10563600569064206, 0.1113238202001935, 0.11251212893902339, 0.11302803515097064, 0.11344616993017159, 0.11407834989405177, 0.1096560074272278, 0.11023887893962357, 0.11093741630262728, 0.11101154662174276, 0.11123432425833196, 0.1055253369041383, 0.10420992922145668, 0.10519281166445225, 0.10521248324151813, 0.10539299123969055, 0.10129270187346681, 0.10351100243168705, 0.10362523906900853, 0.1040165536987501, 0.10435085698841463, 0.10467365147961621, 0.10483707940398906, 0.10375447699534648, 0.10378713812619965, 0.10235884821061814, 0.1025877379494756, 0.10188194948442561, 0.10039869327957356, 0.10031288730075559, 0.10041011728983087, 0.09968279948751452, 0.09968346551701629, 0.09965213281646167, 0.09980724240492504, 0.09984210492684677, 0.09672075675127952, 0.09720946659734027, 0.09704393903582796, 0.09697747932849457, 0.09694462732469894, 0.0946461486932935, 0.09419915700128759, 0.09450442910191639, 0.09442833510234849, 0.09441201973207912, 0.09714224363112829, 0.09647123966240778, 0.09641965679294864, 0.09647431301371612, 0.09653501634479542, 0.09705691077324871, 0.09788566177778153, 0.09764406842452042, 0.0995163815360943, 0.1050680801287577, 0.10462112831265781, 0.10457912285953654, 0.10355837042256001, 0.10293124216958342, 0.10174944966021726, 0.10169691740594398, 0.10102586797403937, 0.10084973951858386, 0.10138785961931289, 0.10163843670102453, 0.1016154583097911, 0.10174066073325279, 0.10114651919664132, 0.10628138014784994, 0.10532162323887018, 0.10551793115873244, 0.10510767438944768, 0.10527632635160263, 0.1035951544790248, 0.10366151523550905, 0.10365321667702815, 0.10331091381034135, 0.10295953536231839, 0.10199821728070979, 0.09965571940726825, 0.09586167462147345, 0.09601063537093428, 0.09581371100367315, 0.09562698669088394, 0.09531115268164275, 0.09517132421006322, 0.09515118574192215, 0.09473620504954176, 0.08386110433167707, 0.08380740266672507, 0.08389336946823142, 0.08547978259932756, 0.08513045530492734, 0.08556993968554337, 0.08586984683479276, 0.08474725798918249, 0.08479465691443631, 0.08504776223832579, 0.08462610307468874, 0.08469940112066318, 0.0849923205150104, 0.08297718351657918, 0.08312945788833442, 0.08321691942452444, 0.08372290859801816, 0.08363889326122337, 0.08431401204780971, 0.08385835456642468, 0.08353247050410018, 0.08233824520686242, 0.08223231783418404, 0.08204120882257522, 0.08187498758445472, 0.08216186540936776, 0.08168387365808277, 0.08173297703146684, 0.08139369972770279, 0.08040389417471681, 0.08039491630533496, 0.08045556563396121, 0.0804389142777118, 0.07930519553488416, 0.07848894386951202, 0.07877428036570439, 0.0790618906732934, 0.07882206824656396, 0.07868470978833135, 0.07872051494757026, 0.07811813025349293, 0.07759552398385675]}, \"validation_1\": {\"mape\": [2.6393862562159605, 2.5874891234956334, 2.5438520626369465, 2.483276867547221, 2.447870757700853, 2.33681115463625, 2.27087574172765, 2.170724158808767, 2.1262119129068955, 2.0796911784787806, 2.0531047390671646, 2.0051520629196933, 1.936453800779036, 1.8572402978182585, 1.841521810931387, 1.8125409971909299, 1.737337288714563, 1.7202900568009987, 1.6589598802686836, 1.6501292674957835, 1.5984187776836576, 1.543409103080897, 1.5099141510327954, 1.5002381302536352, 1.455065381526572, 1.4705316684089895, 1.3948116784510791, 1.378858672270189, 1.388646155856674, 1.4026011356884982, 1.3292982710604162, 1.2647053826945391, 1.270977769022294, 1.2285258289264585, 1.165726245821038, 1.1770790768148924, 1.1173434149674506, 1.116455445860181, 1.1156639957719656, 1.0756922656214414, 1.084616283762478, 1.0454198896984699, 1.0412824548964936, 0.9881456997449589, 0.9831610212451153, 0.9865281561601141, 0.9816209512141855, 0.984090271742901, 0.9965508281515004, 0.9877668507052912, 0.9802700310091949, 0.9814032730144234, 0.9948472261826423, 0.9854667912119386, 0.9908880278599663, 0.9852642412355801, 0.9861416175758948, 1.0007875458246234, 1.0042463307073595, 0.9698794503639097, 0.9547749531817591, 0.9568272010915421, 0.9587974066947839, 0.9661253490146589, 0.9700712108092148, 0.9751197897150072, 0.9580579243049523, 0.9476096661100698, 0.9563746464634684, 0.9347656219907876, 1.027003038398358, 1.0333313369429389, 1.0222777806696797, 1.0294849122736214, 1.0371448576996323, 1.0416122117352304, 1.0486243829611843, 1.023590337579532, 1.0198716772038705, 1.022688628068505, 1.0126212600294813, 1.0089102547906843, 1.007299886553411, 1.0039043974075137, 1.001930972024278, 1.4251105856546669, 1.411378386532895, 1.4083627018551608, 1.4163209162938668, 1.4877599069241851, 1.8353898876851076, 1.8085244507800344, 1.8232837267716078, 1.843288310705853, 1.8379451577500348, 1.9225246498523827, 2.205238835480521, 2.2135915006787092, 2.2204963907948, 2.2233609478446295, 2.2284030000652977, 2.230687998503093, 2.2362148729361078, 2.2255794907052735, 2.241121514340037, 2.244217574689499, 2.2484410829043697, 2.2819704057917396, 2.2740144876737083, 2.285408332824423, 2.2989002840418213, 2.3145098617371533, 2.3186017191862724, 2.4290266095412507, 2.4345850797768795, 2.4267927958225037, 2.411132001524135, 2.42232874820958, 2.42103007833461, 2.4174724010127804, 2.4091420331787265, 2.3971089742170117, 2.404788177203429, 2.4062026769810787, 2.407718047394407, 2.4125915904276853, 2.4091068706937975, 2.324069944149573, 2.327450892665446, 2.3225048530514396, 2.3252971289555777, 2.3134410959649885, 2.312190587678792, 2.3124949902265572, 2.3109632032937717, 2.349485534780189, 2.343552682678817, 2.336992110124321, 2.398085230194317, 2.3928314239868507, 2.3857871274990927, 2.385571089447552, 2.385911927478762, 2.4384477734371335, 2.439052512408832, 2.4289765543924005, 2.4550961054038933, 2.4536392701350893, 2.450261546475269, 2.450191165843745, 2.44656913300782, 2.4418774147098334, 2.44207965219867, 2.4412330888740166, 2.4408976758999446, 2.416600948952877, 2.411620198759438, 2.4112456000820766, 2.432023121453725, 2.4322953435388635, 2.431602055048215, 2.4289258159355867, 2.422878004063046, 2.41123680639091, 2.424735534341051, 2.421124559498871, 2.4214173157056145, 2.4122474606741875, 2.4012351620679864, 2.402277271650716, 2.401901840956991, 2.394928595797068, 2.455558124380462, 2.4622642423835623, 2.4552722053178715, 2.457914255510601, 2.4451163541240564, 2.461537357836343, 2.4739317296867447, 2.4710550898746786, 2.4732394685732957, 2.4690934184859077, 2.464956187257574, 2.4517399579044543, 2.4466061594334416, 2.4671927978829693, 2.4638793476561682, 2.460808686351342, 2.4936630393819317, 2.473279950016718, 2.4690278852049277, 2.4576003155542114, 2.4561825437990534, 2.467473078506567, 2.464396455168306, 2.463083914208724, 2.460361031300931, 2.4855003693056092, 2.3824846836283315, 2.382037052466843, 2.382809817991838, 2.3798617967302795, 2.3769175283318407, 2.374469261654858, 2.3667881959470156, 2.3554375448925393, 2.3559972893208974, 2.3551262933157533, 2.351264405194311, 2.3520997281111944, 2.3547773133394476, 2.353614834855639, 2.3551037261852694, 2.3557970783215043, 2.35869122555733, 2.3388445779589624, 2.3297625768096246, 2.321913058535424, 2.3195656615812767, 2.3664996858021685, 2.3654512315295935, 2.370261444463559, 2.355701144212606, 2.3559398798973326, 2.381416468467053, 2.377665517191109, 2.3591392381839706, 2.3655253148228774, 2.363303630353719, 2.363933907219917, 2.3636777824843853, 2.4055767369030887, 2.4058324742034265, 2.410010401784897, 2.4128453163351216, 2.3968410159362286, 2.40088490443911, 2.401339881999372, 2.403220535408623, 2.3985076305639472]}}, \"_estimator_type\": \"regressor\"}"},"feature_names":["current_price","pe_ratio","eps_ratio","market_cap","day_change","week_change","half_year_change","year_change","free_cach_flow_change_1y","free_cach_flow_change_2y","free_cach_flow_change_3y","revenue_change_1y","revenue_change_2y","revenue_change_3y"],"feature_types":["float","float","float","float","float","float","float","float","float","float","float","float","float","float"],"gradient_booster":{"model":{"gbtree_model_param":{"num_parallel_tree":"1","num_trees":"240","size_leaf_vector":"0"},"tree_info":[0,0,0,0,0,0,0,0,0,0,0,0,0,0,0,0,0,0,0,0,0,0,0,0,0,0,0,0,0,0,0,0,0,0,0,0,0,0,0,0,0,0,0,0,0,0,0,0,0,0,0,0,0,0,0,0,0,0,0,0,0,0,0,0,0,0,0,0,0,0,0,0,0,0,0,0,0,0,0,0,0,0,0,0,0,0,0,0,0,0,0,0,0,0,0,0,0,0,0,0,0,0,0,0,0,0,0,0,0,0,0,0,0,0,0,0,0,0,0,0,0,0,0,0,0,0,0,0,0,0,0,0,0,0,0,0,0,0,0,0,0,0,0,0,0,0,0,0,0,0,0,0,0,0,0,0,0,0,0,0,0,0,0,0,0,0,0,0,0,0,0,0,0,0,0,0,0,0,0,0,0,0,0,0,0,0,0,0,0,0,0,0,0,0,0,0,0,0,0,0,0,0,0,0,0,0,0,0,0,0,0,0,0,0,0,0,0,0,0,0,0,0,0,0,0,0,0,0,0,0,0,0,0,0,0,0,0,0,0,0],"trees":[{"base_weights":[5.477798E1,3.8235985E1,3.2264706E2,2.0863035E1,9.8508064E1,2.8118402E2,1.061595E3,1.0865188E1,3.858705E1,7.689086E1,1.3178787E2,2.3395403E2,3.9529037E2,5.672466E0,1.7186724E1,3.1595968E1,4.8010666E1,6.755532E1,8.929192E1,1.2090115E2,1.541738E2,1.9963763E2,2.694592E2,3.4117175E2,4.675275E2,2.5014875E0,8.350256E0,1.47273E1,2.107489E1,2.7767824E1,3.548148E1,4.414872E1,5.462694E1,6.2578335E1,7.203168E1,1.0953597E2,1.27459564E2,6.263673E-1,3.7780466E0,6.5511737E0,9.611319E0,1.2968738E1,1.6225302E1,1.9071764E1,2.2146492E1,2.5981594E1,2.951768E1,4.0968E-2,1.1181693E0,3.0293598E0,4.6832714E0,5.7684617E0,7.1613207E0,8.834276E0,1.0410233E1,1.6277609E1,6.806667E0,-2.9232332E-1,2.574413E-1,8.4153485E-1,1.3524543E0,2.8890736E0,6.79625E0],"categories":[],"categories_nodes":[],"categories_segments":[],"categories_sizes":[],"default_left":[1,1,1,1,1,1,0,1,1,1,1,1,1,1,1,1,1,1,0,1,0,0,0,0,0,1,1,1,1,1,0,0,0,0,0,0,0,1,1,1,1,0,1,0,0,0,0,1,1,1,0,0,0,0,0,0,0,0,0,0,0,0,0],"id":0,"left_children":[1,3,5,7,9,11,-1,13,15,17,19,21,23,25,27,29,31,33,-1,35,-1,-1,-1,-1,-1,37,39,41,43,45,-1,-1,-1,-1,-1,-1,-1,47,49,51,53,-1,55,-1,-1,-1,-1,57,59,61,-1,-1,-1,-1,-1,-1,-1,-1,-1,-1,-1,-1,-1],"loss_changes":[1.4853969E7,3.3078405E6,5.676106E6,4.3461162E5,4.98494E5,9.09919E5,0E0,5.147211E4,5.6788E4,4.386525E4,4.88675E4,1.09473E5,4.76895E4,7.3155254E3,6.4599844E3,6.6155312E3,7.17025E3,1.062125E3,0E0,2.75E2,0E0,0E0,0E0,0E0,0E0,9.479331E2,9.9881445E2,9.4078125E2,1.615E2,5.1984375E1,0E0,0E0,0E0,0E0,0E0,0E0,0E0,4.659408E1,1.4575684E2,5.2293945E1,7.750586E1,0E0,3.5E0,0E0,0E0,0E0,0E0,5.4864063E0,4.565262E0,5.0119507E1,0E0,0E0,0E0,0E0,0E0,0E0,0E0,0E0,0E0,0E0,0E0,0E0,0E0],"parents":[2147483647,0,0,1,1,2,2,3,3,4,4,5,5,7,7,8,8,9,9,10,10,11,11,12,12,13,13,14,14,15,15,16,16,17,17,19,19,25,25,26,26,27,27,28,28,29,29,37,37,38,38,39,39,40,40,42,42,47,47,48,48,49,49],"right_children":[2,4,6,8,10,12,-1,14,16,18,20,22,24,26,28,30,32,34,-1,36,-1,-1,-1,-1,-1,38,40,42,44,46,-1,-1,-1,-1,-1,-1,-1,48,50,52,54,-1,56,-1,-1,-1,-1,58,60,62,-1,-1,-1,-1,-1,-1,-1,-1,-1,-1,-1,-1,-1],"split_conditions":[1.79905E2,6.008E1,6.63055E2,2.495E1,1.0532E2,3.1383502E2,6.6880486E1,1.1889999E1,4.0395E1,7.9005005E1,1.3969E2,2.36E2,4.04665E2,5.9449997E0,1.8575E1,3.2565002E1,5.0449997E1,6.7895004E1,5.6253915E0,1.19100006E2,9.71295E0,1.2577171E1,1.697593E1,2.149382E1,2.9454233E1,2.3375E0,8.46E0,1.5025E1,2.0849998E1,2.8505001E1,2.2353332E0,2.7813694E0,3.4414973E0,3.9424353E0,4.537996E0,6.9007664E0,8.029953E0,1.0505E0,4.3557E0,7.05E0,1.0175E1,8.170305E-1,2.1635E1,1.2015212E0,1.395229E0,1.6368405E0,1.8596138E0,5.011E-1,1.6075001E0,4.9954498E2,2.950461E-1,3.634131E-1,4.511632E-1,5.565594E-1,6.558447E-1,1.0254893E0,4.2882E-1,-1.841637E-2,1.6218804E-2,5.3016696E-2,8.520462E-2,1.8201163E-1,4.2816374E-1],"split_indices":[0,0,0,0,0,0,0,0,0,0,0,0,0,0,0,0,0,0,0,0,0,0,0,0,0,0,0,0,0,0,0,0,0,0,0,0,0,0,0,0,0,0,5,0,0,0,0,0,0,9,0,0,0,0,0,0,0,0,0,0,0,0,0],"split_type":[0,0,0,0,0,0,0,0,0,0,0,0,0,0,0,0,0,0,0,0,0,0,0,0,0,0,0,0,0,0,0,0,0,0,0,0,0,0,0,0,0,0,0,0,0,0,0,0,0,0,0,0,0,0,0,0,0,0,0,0,0,0,0],"sum_hessian":[3.354E3,3.16E3,1.94E2,2.454E3,7.06E2,1.85E2,9E0,1.57E3,8.84E2,4.3E2,2.76E2,1.33E2,5.2E1,8.63E2,7.07E2,5.1E2,3.74E2,2.49E2,1.81E2,1.9E2,8.6E1,7.1E1,6.2E1,3.3E1,1.9E1,3.96E2,4.67E2,4.36E2,2.71E2,2.61E2,2.49E2,2.41E2,1.33E2,1.25E2,1.24E2,7.6E1,1.14E2,1.61E2,2.35E2,1.95E2,2.72E2,2.05E2,2.31E2,1.01E2,1.7E2,1.37E2,1.24E2,7.4E1,8.7E1,1.31E2,1.04E2,9E1,1.05E2,1.44E2,1.28E2,2.29E2,2E0,2.9E1,4.5E1,4.2E1,4.5E1,1.28E2,3E0],"tree_param":{"num_deleted":"0","num_feature":"14","num_nodes":"63","size_leaf_vector":"0"}},{"base_weights":[5.138838E1,3.7063427E1,3.2462714E2,2.0819029E1,1.00362144E2,2.843436E2,1.0897196E3,1.116482E1,3.9921715E1,7.816037E1,1.3240639E2,2.4402379E2,4.2137082E2,5.754555E0,1.7827005E1,3.3479897E1,5.085234E1,6.836779E1,9.025814E1,1.2060984E2,1.6068285E2,2.0231276E2,2.7662567E2,2.8525577E0,8.75804E0,1.4895465E1,2.195107E1,2.9701246E1,3.785975E1,4.4266766E1,5.4284603E1,6.865191E1,2.5122204E1,1.0549637E0,4.367366E0,7.2918806E0,9.991919E0,1.3036181E1,1.6333124E1,1.98965E1,2.3638245E1,2.7420008E1,3.1708437E1,6.2733963E1,7.2697426E1,4.6517628E-1,2.1365824E0,3.3396454E0,4.9862633E0,6.5720744E0,7.9435387E0,9.116202E0,1.0715505E1,4.20805E0,1.3104447E1,1.3097252E-2,8.984973E-1,1.8923757E0,7.5295577E0,4.4437923E0,5.2701464E0],"categories":[],"categories_nodes":[],"categories_segments":[],"categories_sizes":[],"default_left":[1,1,1,1,1,1,0,1,1,1,1,1,0,1,1,1,1,1,0,0,0,0,0,1,1,1,1,1,0,0,0,1,0,1,1,1,1,1,0,0,0,0,0,0,0,1,1,0,1,0,0,0,0,0,0,0,0,0,0,0,0],"id":1,"left_children":[1,3,5,7,9,11,-1,13,15,17,19,21,-1,23,25,27,29,31,-1,-1,-1,-1,-1,33,35,37,39,41,-1,-1,-1,43,-1,45,47,49,51,53,-1,-1,-1,-1,-1,-1,-1,55,57,-1,59,-1,-1,-1,-1,-1,-1,-1,-1,-1,-1,-1,-1],"loss_changes":[1.311988E7,3.276998E6,4.83719E6,4.6780012E5,4.527985E5,7.81161E5,0E0,6.0740016E4,5.828925E4,3.96765E4,6.90145E4,1.15377E5,0E0,8.1071465E3,8.812969E3,7.7959375E3,4.6945625E3,9.538125E2,0E0,0E0,0E0,0E0,0E0,1.2915454E3,7.556914E2,9.765703E2,6.112031E2,4.7675E2,0E0,0E0,0E0,6.106875E2,0E0,1.3871173E2,1.4744922E2,4.770508E1,5.8195312E1,6.478516E1,0E0,0E0,0E0,0E0,0E0,0E0,0E0,2.800127E1,8.716031E1,0E0,1.0666504E0,0E0,0E0,0E0,0E0,0E0,0E0,0E0,0E0,0E0,0E0,0E0,0E0],"parents":[2147483647,0,0,1,1,2,2,3,3,4,4,5,5,7,7,8,8,9,9,10,10,11,11,13,13,14,14,15,15,16,16,17,17,23,23,24,24,25,25,26,26,27,27,31,31,33,33,34,34,35,35,36,36,37,37,45,45,46,46,48,48],"right_children":[2,4,6,8,10,12,-1,14,16,18,20,22,-1,24,26,28,30,32,-1,-1,-1,-1,-1,34,36,38,40,42,-1,-1,-1,44,-1,46,48,50,52,54,-1,-1,-1,-1,-1,-1,-1,56,58,-1,60,-1,-1,-1,-1,-1,-1,-1,-1,-1,-1,-1,-1],"split_conditions":[1.96565E2,6.503E1,8.67005E2,2.807E1,1.11759995E2,3.557E2,6.8652336E1,1.307E1,4.5480003E1,8.5145004E1,1.5595499E2,2.5233E2,2.6546362E1,6.855E0,2.0315E1,3.7125E1,5.1395E1,7.8805005E2,5.686263E0,7.59842E0,1.0123019E1,1.2745704E1,1.7427418E1,3.38E0,9.615E0,1.6005001E1,2.361E1,3.2565002E1,2.3851643E0,2.7888062E0,3.41993E0,7.2479996E1,1.5826988E0,1.87395E0,4.7475E0,8.385E0,1.107E1,-1.7904999E1,1.0289868E0,1.2534795E0,1.4892094E0,1.7274605E0,1.9976315E0,3.9522398E0,4.579938E0,9.6975E-1,3.425E2,2.1039766E-1,5.68E0,4.1404068E-1,5.004429E-1,5.7432073E-1,6.750768E-1,2.6510715E-1,8.255802E-1,8.251269E-4,5.660533E-2,1.1921967E-1,4.7436213E-1,2.7995893E-1,3.3201924E-1],"split_indices":[0,0,0,0,0,0,0,0,0,0,0,0,0,0,0,0,0,6,0,0,0,0,0,0,0,0,0,0,0,0,0,0,0,0,0,0,0,4,0,0,0,0,0,0,0,0,9,0,0,0,0,0,0,0,0,0,0,0,0,0,0],"split_type":[0,0,0,0,0,0,0,0,0,0,0,0,0,0,0,0,0,0,0,0,0,0,0,0,0,0,0,0,0,0,0,0,0,0,0,0,0,0,0,0,0,0,0,0,0,0,0,0,0,0,0,0,0,0,0,0,0,0,0,0,0],"sum_hessian":[3.354E3,3.188E3,1.66E2,2.538E3,6.5E2,1.59E2,7E0,1.687E3,8.51E2,3.86E2,2.64E2,1.25E2,3.4E1,9.32E2,7.55E2,5.38E2,3.13E2,2.17E2,1.69E2,1.9E2,7.4E1,5.8E1,6.7E1,4.75E2,4.57E2,4.44E2,3.11E2,2.93E2,2.45E2,1.12E2,2.01E2,2.15E2,2E0,2.18E2,2.57E2,2.12E2,2.45E2,1.98E2,2.46E2,1.46E2,1.65E2,1.44E2,1.49E2,9.4E1,1.21E2,1.42E2,7.6E1,9.9E1,1.58E2,1.06E2,1.06E2,1.17E2,1.28E2,2E0,1.96E2,7E1,7.2E1,7.4E1,2E0,6E1,9.8E1],"tree_param":{"num_deleted":"0","num_feature":"14","num_nodes":"61","size_leaf_vector":"0"}},{"base_weights":[4.8204475E1,3.3955776E1,2.90786E2,1.9212051E1,9.075631E1,2.4623846E2,8.646696E2,1.0346046E1,3.6722233E1,7.107597E1,1.1894182E2,1.987007E2,3.1569882E2,5.0058575E2,1.0296488E3,5.3959165E0,1.6564838E1,3.0919495E1,4.6655617E1,6.2775173E1,8.221737E1,1.0808736E2,1.3908797E2,1.7217073E2,2.193137E2,2.784727E2,3.7007794E2,2.675942E0,8.211009E0,1.3681579E1,2.0056395E1,2.7049969E1,3.4589985E1,4.122613E1,5.029748E1,6.301334E1,2.4067072E1,1.0191165E0,4.120021E0,6.836786E0,9.367506E0,1.2220384E1,1.4994831E1,1.8182028E1,2.1810663E1,2.504911E1,2.8724323E1,3.2239906E1,3.660668E1,5.7919983E1,6.717632E1,4.8921975E-1,2.1466532E0,3.156301E0,4.675977E0,5.8960524E0,7.265631E0,8.546748E0,1.0045661E1,4.0313115E0,1.2283057E1,3.4568667E-2,9.146579E-1,1.8884367E0,7.3700805E0,4.0682054E0,4.8947015E0],"categories":[],"categories_nodes":[],"categories_segments":[],"categories_sizes":[],"default_left":[1,1,1,1,1,1,1,1,1,1,1,1,1,0,0,1,1,1,1,1,0,0,0,0,0,0,0,1,1,1,1,1,1,0,0,1,0,1,1,1,1,1,0,0,0,0,0,0,0,0,0,1,1,0,1,0,0,0,0,0,0,0,0,0,0,0,0],"id":2,"left_children":[1,3,5,7,9,11,13,15,17,19,21,23,25,-1,-1,27,29,31,33,35,-1,-1,-1,-1,-1,-1,-1,37,39,41,43,45,47,-1,-1,49,-1,51,53,55,57,59,-1,-1,-1,-1,-1,-1,-1,-1,-1,61,63,-1,65,-1,-1,-1,-1,-1,-1,-1,-1,-1,-1,-1,-1],"loss_changes":[1.1586586E7,2.6529775E6,4.542194E6,3.905278E5,3.53765E5,5.11817E5,2.65435E5,5.141197E4,4.7321625E4,3.06295E4,4.3353E4,2.02085E4,3.6622E4,0E0,0E0,7.12199E3,7.185297E3,6.691375E3,4.0561875E3,5.67E2,0E0,0E0,0E0,0E0,0E0,0E0,0E0,1.1346726E3,6.6384766E2,6.0160156E2,6.983906E2,1.71625E2,1.089375E2,0E0,0E0,8.586875E2,0E0,1.3218741E2,1.2133057E2,4.3091797E1,5.1066406E1,5.261914E1,0E0,0E0,0E0,0E0,0E0,0E0,0E0,0E0,0E0,2.9562542E1,8.184509E1,0E0,1.2241211E0,0E0,0E0,0E0,0E0,0E0,0E0,0E0,0E0,0E0,0E0,0E0,0E0],"parents":[2147483647,0,0,1,1,2,2,3,3,4,4,5,5,6,6,7,7,8,8,9,9,10,10,11,11,12,12,15,15,16,16,17,17,18,18,19,19,27,27,28,28,29,29,30,30,31,31,32,32,35,35,37,37,38,38,39,39,40,40,41,41,51,51,52,52,54,54],"right_children":[2,4,6,8,10,12,14,16,18,20,22,24,26,-1,-1,28,30,32,34,36,-1,-1,-1,-1,-1,-1,-1,38,40,42,44,46,48,-1,-1,50,-1,52,54,56,58,60,-1,-1,-1,-1,-1,-1,-1,-1,-1,62,64,-1,66,-1,-1,-1,-1,-1,-1,-1,-1,-1,-1,-1,-1],"split_conditions":[1.85225E2,6.3370003E1,5.83635E2,2.744E1,1.08229996E2,2.901E2,8.67005E2,1.307E1,4.48E1,8.3745E1,1.4195E2,2.2148999E2,3.7731E2,3.1536903E1,6.4867874E1,6.855E0,1.9599998E1,3.561E1,5.1395E1,7.7521E2,5.179694E0,6.8095036E0,8.762542E0,1.0846756E1,1.3816764E1,1.754378E1,2.331491E1,3.467E0,9.615E0,1.6005001E1,2.3005001E1,3.116E1,4.0019997E1,2.5972464E0,3.1687415E0,7.188E1,1.5162256E0,2.0774999E0,4.7475E0,7.8100004E0,1.107E1,-1.7904999E1,9.446744E-1,1.1454678E0,1.3740718E0,1.578094E0,1.8096324E0,2.031114E0,2.306221E0,3.648959E0,4.2321086E0,1.0505E0,2.1315E1,1.9884697E-1,5.43E0,3.7145132E-1,4.5773476E-1,5.384451E-1,6.3287663E-1,2.5397262E-1,7.738326E-1,2.1778261E-3,5.762345E-2,1.1897151E-1,4.643151E-1,2.5629693E-1,3.083662E-1],"split_indices":[0,0,0,0,0,0,0,0,0,0,0,0,0,0,0,0,0,0,0,6,0,0,0,0,0,0,0,0,0,0,0,0,0,0,0,0,0,0,0,0,0,4,0,0,0,0,0,0,0,0,0,0,1,0,0,0,0,0,0,0,0,0,0,0,0,0,0],"split_type":[0,0,0,0,0,0,0,0,0,0,0,0,0,0,0,0,0,0,0,0,0,0,0,0,0,0,0,0,0,0,0,0,0,0,0,0,0,0,0,0,0,0,0,0,0,0,0,0,0,0,0,0,0,0,0,0,0,0,0,0,0,0,0,0,0,0,0],"sum_hessian":[3.354E3,3.169E3,1.85E2,2.517E3,6.52E2,1.73E2,1.2E1,1.672E3,8.45E2,3.86E2,2.66E2,1.05E2,6.8E1,5E0,7E0,9.32E2,7.4E2,5.36E2,3.09E2,2.25E2,1.61E2,1.77E2,8.9E1,5E1,5.5E1,4.4E1,2.4E1,4.75E2,4.57E2,4.08E2,3.32E2,2.65E2,2.71E2,1.29E2,1.8E2,2.23E2,2E0,2.22E2,2.53E2,2.12E2,2.45E2,1.98E2,2.1E2,1.66E2,1.66E2,1.28E2,1.37E2,1.33E2,1.38E2,1.07E2,1.16E2,1.52E2,7E1,9.5E1,1.58E2,7.1E1,1.41E2,1.17E2,1.28E2,2E0,1.96E2,7.4E1,7.8E1,6.8E1,2E0,4.7E1,1.11E2],"tree_param":{"num_deleted":"0","num_feature":"14","num_nodes":"67","size_leaf_vector":"0"}},{"base_weights":[4.523122E1,3.2688618E1,2.890773E2,1.841757E1,8.90141E1,2.4197191E2,8.1761115E2,9.967511E0,3.5587494E1,7.11461E1,1.2051555E2,2.0441544E2,3.144988E2,4.7430502E2,9.728894E2,5.120879E0,1.5927371E1,2.9769426E1,4.504429E1,6.372928E1,8.740516E1,1.08844604E2,1.4216273E2,1.7828795E2,2.2957047E2,2.5103126E0,7.7594905E0,1.32148E1,1.9587067E1,2.6416496E1,3.340907E1,4.079558E1,4.953087E1,5.6450554E1,6.810668E1,9.2428595E-1,3.835577E0,6.585727E0,9.024782E0,1.1973796E1,1.4945017E1,1.7663181E1,2.108508E1,2.4378344E1,2.7932224E1,6.841596E1,2.7569101E1,3.968523E-1,1.8658739E0,2.9327586E0,4.384942E0,5.7895722E0,7.1827164E0,8.340769E0,9.688378E0,1.0954847E1,1.2581612E1,-5.440139E-2,7.3178595E-1,1.6370665E0,7.0403705E0,2.450344E0,3.093032E0,3.9052308E0,4.6362295E0],"categories":[],"categories_nodes":[],"categories_segments":[],"categories_sizes":[],"default_left":[1,1,1,1,1,1,1,1,1,1,1,1,0,0,0,1,1,1,1,1,0,0,0,0,0,1,1,1,1,1,0,0,0,0,1,1,1,1,1,1,0,0,0,0,0,0,0,1,1,1,1,0,0,0,0,0,0,0,0,0,0,1,1,0,0],"id":3,"left_children":[1,3,5,7,9,11,13,15,17,19,21,23,-1,-1,-1,25,27,29,31,33,-1,-1,-1,-1,-1,35,37,39,41,43,-1,-1,-1,-1,45,47,49,51,53,55,-1,-1,-1,-1,-1,-1,-1,57,59,-1,63,-1,-1,-1,-1,-1,-1,-1,-1,-1,-1,-1,-1,-1,-1],"loss_changes":[1.0251697E7,2.5641648E6,3.885235E6,3.693267E5,3.54476E5,3.49737E5,2.31558E5,4.9283312E4,4.4876E4,4.435425E4,4.31395E4,2.6766E4,0E0,0E0,0E0,6.483049E3,7.3453906E3,5.499875E3,4.041125E3,5.3315E3,0E0,0E0,0E0,0E0,0E0,9.969612E2,6.371035E2,7.722578E2,5.6133594E2,1.7479688E2,0E0,0E0,0E0,0E0,3.08E2,1.0752382E2,1.15598145E2,7.581348E1,2.041211E1,2.5050781E1,0E0,0E0,0E0,0E0,0E0,0E0,0E0,2.1350557E1,8.082358E1,2.3010254E-1,1.0610352E0,0E0,0E0,0E0,0E0,0E0,0E0,0E0,0E0,0E0,0E0,0E0,0E0,0E0,0E0],"parents":[2147483647,0,0,1,1,2,2,3,3,4,4,5,5,6,6,7,7,8,8,9,9,10,10,11,11,15,15,16,16,17,17,18,18,19,19,25,25,26,26,27,27,28,28,29,29,34,34,35,35,36,36,37,37,38,38,39,39,47,47,48,48,49,49,50,50],"right_children":[2,4,6,8,10,12,14,16,18,20,22,24,-1,-1,-1,26,28,30,32,34,-1,-1,-1,-1,-1,36,38,40,42,44,-1,-1,-1,-1,46,48,50,52,54,56,-1,-1,-1,-1,-1,-1,-1,58,60,-1,64,-1,-1,-1,-1,-1,-1,-1,-1,-1,-1,-1,-1,-1,-1],"split_conditions":[1.98035E2,6.5635E1,5.83635E2,2.8535E1,1.19100006E2,3.1383502E2,8.67005E2,1.3275E1,4.56E1,9.549E1,1.5595499E2,2.4969E2,1.9813425E1,2.9881216E1,6.1292034E1,6.855E0,2.0494999E1,3.7295E1,5.615E1,7.5465E1,5.506525E0,6.85721E0,8.956252E0,1.1232141E1,1.4462939E1,3.3425E0,1.0005E1,1.714E1,2.4060001E1,3.2635002E1,2.1047714E0,2.5701218E0,3.1204448E0,3.556385E0,9.4895004E1,1.8425E0,4.7475E0,8.405E0,1.154E1,1.4675E1,9.4153607E-1,1.1127805E0,1.32836E0,1.5358356E0,1.7597301E0,4.3102055E0,1.7368534E0,8.5815E-1,2.36E1,1.8476379E-1,5.68E0,3.6474305E-1,4.5251113E-1,5.2546847E-1,6.1036783E-1,6.901554E-1,7.926415E-1,-3.4272876E-3,4.6102516E-2,1.0313519E-1,4.4354334E-1,1.5437168E-1,1.9486101E-1,2.4602954E-1,2.9208246E-1],"split_indices":[0,0,0,0,0,0,0,0,0,0,0,0,0,0,0,0,0,0,0,0,0,0,0,0,0,0,0,0,0,0,0,0,0,0,0,0,0,0,0,0,0,0,0,0,0,0,0,0,1,0,0,0,0,0,0,0,0,0,0,0,0,2147483647,2147483647,0,0],"split_type":[0,0,0,0,0,0,0,0,0,0,0,0,0,0,0,0,0,0,0,0,0,0,0,0,0,0,0,0,0,0,0,0,0,0,0,0,0,0,0,0,0,0,0,0,0,0,0,0,0,0,0,0,0,0,0,0,0,0,0,0,0,0,0,0,0],"sum_hessian":[3.354E3,3.191E3,1.63E2,2.547E3,6.44E2,1.51E2,1.2E1,1.708E3,8.39E2,4.13E2,2.31E2,1.02E2,4.9E1,5E0,7E0,9.43E2,7.65E2,5.22E2,3.17E2,2.87E2,1.26E2,1.54E2,7.7E1,5.4E1,4.8E1,4.75E2,4.68E2,4.42E2,3.23E2,2.76E2,2.46E2,1.68E2,1.49E2,1.13E2,1.74E2,2.17E2,2.58E2,2.46E2,2.22E2,2.62E2,1.8E2,1.47E2,1.76E2,1.25E2,1.51E2,1.72E2,2E0,1.4E2,7.7E1,1E2,1.58E2,1.1E2,1.36E2,1.16E2,1.06E2,1.05E2,1.57E2,6E1,8E1,7.5E1,2E0,2.9E1,7.1E1,6E1,9.8E1],"tree_param":{"num_deleted":"2","num_feature":"14","num_nodes":"65","size_leaf_vector":"0"}},{"base_weights":[4.243734E1,3.0795689E1,2.7471405E2,1.7264807E1,8.387102E1,2.2907942E2,7.73115E2,9.476936E0,3.3635303E1,6.67004E1,1.1363698E2,1.967737E2,3.0338934E2,4.49404E2,9.1925885E2,5.0764194E0,1.5443427E1,2.8445515E1,4.2744064E1,5.72468E1,7.79809E1,1.0304046E2,1.3634239E2,1.689986E2,2.1945609E2,2.4112148E0,7.6114745E0,1.280353E1,1.8664022E1,2.5485329E1,3.2292316E1,3.8690876E1,4.643123E1,5.748112E1,2.0434057E1,6.909966E1,8.262796E1,9.630747E-1,3.735835E0,6.395863E0,8.963084E0,1.1529103E1,1.4150284E1,1.6864935E1,2.0103554E1,2.3621778E1,2.7168951E1,5.2211586E1,6.081289E1,4.25714E-1,1.9539664E0,2.9936192E0,4.2731314E0,5.614224E0,6.976011E0,8.203445E0,9.636093E0,4.1162148E-2,8.147841E-1,1.7343956E0,7.157865E0,2.6625998E0,3.254697E0],"categories":[],"categories_nodes":[],"categories_segments":[],"categories_sizes":[],"default_left":[1,1,1,1,1,1,1,1,1,1,1,1,0,0,0,1,1,1,1,1,1,0,0,0,0,1,1,1,1,1,0,0,0,1,0,0,0,1,1,1,1,0,0,0,0,0,0,0,0,1,1,1,0,0,0,0,0,0,0,0,0,0,0],"id":4,"left_children":[1,3,5,7,9,11,13,15,17,19,21,23,-1,-1,-1,25,27,29,31,33,35,-1,-1,-1,-1,37,39,41,43,45,-1,-1,-1,47,-1,-1,-1,49,51,53,55,-1,-1,-1,-1,-1,-1,-1,-1,57,59,61,-1,-1,-1,-1,-1,-1,-1,-1,-1,-1,-1],"loss_changes":[9.063743E6,2.2937788E6,3.461991E6,3.2452906E5,3.241245E5,2.955945E5,2.018895E5,4.529136E4,3.7594875E4,3.968525E4,4.2732E4,2.9693E4,0E0,0E0,0E0,6.7110625E3,5.9930312E3,5.1667188E3,2.6271875E3,8.0075E2,1.967E3,0E0,0E0,0E0,0E0,9.30583E2,7.806211E2,5.336953E2,5.1042188E2,3.0575E2,0E0,0E0,0E0,8.103125E2,0E0,0E0,0E0,1.23765274E2,8.850073E1,8.417871E1,4.313672E1,0E0,0E0,0E0,0E0,0E0,0E0,0E0,0E0,2.2857956E1,8.128061E1,8.4051514E-1,0E0,0E0,0E0,0E0,0E0,0E0,0E0,0E0,0E0,0E0,0E0],"parents":[2147483647,0,0,1,1,2,2,3,3,4,4,5,5,6,6,7,7,8,8,9,9,10,10,11,11,15,15,16,16,17,17,18,18,19,19,20,20,25,25,26,26,27,27,28,28,29,29,33,33,37,37,38,38,39,39,40,40,49,49,50,50,51,51],"right_children":[2,4,6,8,10,12,14,16,18,20,22,24,-1,-1,-1,26,28,30,32,34,36,-1,-1,-1,-1,38,40,42,44,46,-1,-1,-1,48,-1,-1,-1,50,52,54,56,-1,-1,-1,-1,-1,-1,-1,-1,58,60,62,-1,-1,-1,-1,-1,-1,-1,-1,-1,-1,-1],"split_conditions":[2.0420999E2,6.5635E1,5.83635E2,2.9125E1,1.19100006E2,3.26675E2,8.67005E2,1.3934999E1,4.655E1,8.8240005E1,1.6082501E2,2.5233E2,1.911353E1,2.8312452E1,5.7913307E1,7.05E0,2.0849998E1,3.8465E1,5.615E1,7.8805005E2,9.797E1,6.491549E0,8.589571E0,1.0646912E1,1.3825733E1,3.6100001E0,1.0465E1,1.7175E1,2.4515E1,3.3765E1,2.034416E0,2.4375253E0,2.9251676E0,7.3619995E1,1.2873456E0,4.3532786E0,5.2055616E0,2.0774999E0,5.16E0,8.66E0,1.2195E1,7.263335E-1,8.9146787E-1,1.0624909E0,1.266524E0,1.488172E0,1.7116439E0,3.28933E0,3.831212E0,1.1655E0,2.478E1,4.29425E0,2.6920727E-1,3.536961E-1,4.3948868E-1,5.168171E-1,6.070739E-1,2.5932153E-3,5.13314E-2,1.0926693E-1,4.509455E-1,1.6774379E-1,2.0504592E-1],"split_indices":[0,0,0,0,0,0,0,0,0,0,0,0,0,0,0,0,0,0,0,6,0,0,0,0,0,0,0,0,0,0,0,0,0,0,0,0,0,0,0,0,0,0,0,0,0,0,0,0,0,0,1,0,0,0,0,0,0,0,0,0,0,0,0],"split_type":[0,0,0,0,0,0,0,0,0,0,0,0,0,0,0,0,0,0,0,0,0,0,0,0,0,0,0,0,0,0,0,0,0,0,0,0,0,0,0,0,0,0,0,0,0,0,0,0,0,0,0,0,0,0,0,0,0,0,0,0,0,0,0],"sum_hessian":[3.354E3,3.195E3,1.59E2,2.547E3,6.48E2,1.47E2,1.2E1,1.727E3,8.2E2,4.13E2,2.35E2,1.05E2,4.2E1,5E0,7E0,9.95E2,7.32E2,5.25E2,2.95E2,2.28E2,1.85E2,1.64E2,7.1E1,5.1E1,5.4E1,4.86E2,5.09E2,4.05E2,3.27E2,3.01E2,2.24E2,1.46E2,1.49E2,2.26E2,2E0,6.9E1,1.16E2,2.33E2,2.53E2,2.71E2,2.38E2,2.13E2,1.92E2,1.51E2,1.76E2,1.5E2,1.51E2,9.4E1,1.32E2,1.52E2,8.1E1,1.09E2,1.44E2,1.2E2,1.51E2,1.18E2,1.2E2,7.7E1,7.5E1,7.9E1,2E0,5.3E1,5.6E1],"tree_param":{"num_deleted":"0","num_feature":"14","num_nodes":"63","size_leaf_vector":"0"}},{"base_weights":[3.9817608E1,2.7567034E1,2.3500702E2,1.5073793E1,7.101504E1,1.9907446E2,7.310415E2,7.8973956E0,2.794635E1,5.5625114E1,9.502026E1,1.608814E2,2.61505E2,4.2581027E2,8.685847E2,4.178266E0,1.2562943E1,2.2978619E1,3.4865437E1,4.9990566E1,6.632025E1,8.46534E1,1.0742917E2,1.4045091E2,1.809928E2,2.3112904E2,3.158932E2,1.8604109E0,6.154787E0,1.0668879E1,1.5260774E1,2.0181263E1,2.5654854E1,3.213795E1,3.938152E1,4.6543148E1,5.4671303E1,1.0813865E2,4.34769E1,4.4486436E-1,2.7888114E0,4.970845E0,7.1780577E0,9.44446E0,1.1665285E1,1.4090841E1,1.6301254E1,4.677489E1,1.7896729E1,5.511529E1,1.9575827E1,3.8602177E-2,8.124359E-1,2.1793485E0,3.4055076E0,4.404991E0,5.5648055E0,6.630399E0,7.707281E0,4.6130824E0,1.1708039E1,-2.9506493E-1,2.2103505E-1,6.0011256E-1,9.794033E-1,2.0495777E0,5.6249638E0],"categories":[],"categories_nodes":[],"categories_segments":[],"categories_sizes":[],"default_left":[1,1,1,1,1,1,1,1,1,1,1,1,1,0,0,1,1,1,1,1,0,0,1,0,0,0,0,1,1,1,1,0,0,0,0,1,1,0,0,1,1,1,1,0,1,0,0,0,0,0,0,1,1,1,0,0,0,0,0,0,0,0,0,0,0,0,0],"id":5,"left_children":[1,3,5,7,9,11,13,15,17,19,21,23,25,-1,-1,27,29,31,33,35,-1,-1,37,-1,-1,-1,-1,39,41,43,45,-1,-1,-1,-1,47,49,-1,-1,51,53,55,57,-1,59,-1,-1,-1,-1,-1,-1,61,63,65,-1,-1,-1,-1,-1,-1,-1,-1,-1,-1,-1,-1,-1],"loss_changes":[8.01594E6,1.7131122E6,3.383578E6,2.2647631E5,2.551685E5,4.0143E5,1.7592E5,2.7311258E4,2.9377625E4,2.2717875E4,2.61535E4,2.3064E4,4.0982E4,0E0,0E0,4.015503E3,3.4089844E3,3.3302188E3,3.2302812E3,2.086625E3,0E0,0E0,7.88625E2,0E0,0E0,0E0,0E0,5.3232227E2,5.385664E2,3.9491016E2,1.1844531E2,0E0,0E0,0E0,0E0,3.0471875E2,7.2859375E2,0E0,0E0,2.4160168E1,8.466223E1,5.0436035E1,2.1935547E1,0E0,1.3527344E1,0E0,0E0,0E0,0E0,0E0,0E0,4.813224E0,2.4255905E0,4.4810852E1,0E0,0E0,0E0,0E0,0E0,0E0,0E0,0E0,0E0,0E0,0E0,0E0,0E0],"parents":[2147483647,0,0,1,1,2,2,3,3,4,4,5,5,6,6,7,7,8,8,9,9,10,10,11,11,12,12,15,15,16,16,17,17,18,18,19,19,22,22,27,27,28,28,29,29,30,30,35,35,36,36,39,39,40,40,41,41,42,42,44,44,51,51,52,52,53,53],"right_children":[2,4,6,8,10,12,14,16,18,20,22,24,26,-1,-1,28,30,32,34,36,-1,-1,38,-1,-1,-1,-1,40,42,44,46,-1,-1,-1,-1,48,50,-1,-1,52,54,56,58,-1,60,-1,-1,-1,-1,-1,-1,62,64,66,-1,-1,-1,-1,-1,-1,-1,-1,-1,-1,-1,-1,-1],"split_conditions":[1.785E2,6.0045E1,5.83635E2,2.506E1,1.0532E2,2.901E2,8.67005E2,1.225E1,4.0705E1,8.3535E1,1.3223499E2,2.2148999E2,3.8385E2,2.6826048E1,5.4720837E1,6.065E0,1.8365002E1,3.2565002E1,5.0449997E1,7.188E1,4.178176E0,5.333164E0,2.1025E1,8.848408E0,1.1402547E1,1.456113E1,1.9901272E1,2.3375E0,9.005E0,1.5025E1,2.1494999E1,1.2714196E0,1.6162558E0,2.0246909E0,2.4810357E0,7.1770004E1,7.6779004E2,6.812735E0,2.7390447E0,1.1655E0,4.29425E0,7.5200005E0,1.0465E1,5.95001E-1,-6.5975E1,8.87723E-1,1.0269791E0,2.946818E0,1.1274939E0,3.4722633E0,1.2332771E0,4.4125E-1,1.6075001E0,4.9954498E2,2.1454698E-1,2.7751446E-1,3.5058275E-1,4.1771516E-1,4.8555872E-1,2.906242E-1,7.3760647E-1,-1.858909E-2,1.3925209E-2,3.7807092E-2,6.170241E-2,1.291234E-1,3.543727E-1],"split_indices":[0,0,0,0,0,0,0,0,0,0,0,0,0,0,0,0,0,0,0,0,0,0,4,0,0,0,0,0,0,0,0,0,0,0,0,0,6,0,0,0,0,0,0,0,6,0,0,0,0,0,0,0,0,9,0,0,0,0,0,0,0,0,0,0,0,0,0],"split_type":[0,0,0,0,0,0,0,0,0,0,0,0,0,0,0,0,0,0,0,0,0,0,0,0,0,0,0,0,0,0,0,0,0,0,0,0,0,0,0,0,0,0,0,0,0,0,0,0,0,0,0,0,0,0,0,0,0,0,0,0,0,0,0,0,0,0,0],"sum_hessian":[3.354E3,3.157E3,1.97E2,2.453E3,7.04E2,1.85E2,1.2E1,1.576E3,8.77E2,4.31E2,2.73E2,1.17E2,6.8E1,5E0,7E0,8.78E2,6.98E2,5.13E2,3.64E2,2.86E2,1.45E2,1.53E2,1.2E2,6.2E1,5.5E1,4.7E1,2.1E1,4.05E2,4.73E2,4.13E2,2.85E2,2.55E2,2.58E2,2.32E2,1.32E2,1.71E2,1.15E2,1.18E2,2E0,1.61E2,2.44E2,2.22E2,2.51E2,1.9E2,2.23E2,1.41E2,1.44E2,1.69E2,2E0,1.13E2,2E0,7.7E1,8.4E1,1.25E2,1.19E2,1.18E2,1.04E2,1.3E2,1.21E2,2E0,2.21E2,2.7E1,5E1,3.9E1,4.5E1,1.22E2,3E0],"tree_param":{"num_deleted":"0","num_feature":"14","num_nodes":"67","size_leaf_vector":"0"}},{"base_weights":[3.7361965E1,2.7063025E1,2.4284978E2,1.5050707E1,7.328487E1,2.0182162E2,6.912587E2,7.987888E0,2.87017E1,5.822223E1,9.9859604E1,1.731164E2,2.6788986E2,4.3372638E2,8.5003986E2,4.1669445E0,1.2781624E1,2.3866684E1,3.6467964E1,5.0073906E1,6.8434265E1,8.9533745E1,1.18286125E2,1.5046346E2,1.9547841E2,2.0556443E0,6.324164E0,1.0552159E1,1.5473448E1,2.0887556E1,2.6681398E1,3.1829645E1,3.928644E1,4.6194557E1,5.3415623E1,6.0690086E1,7.2517525E1,8.996023E1,3.779616E1,7.3727125E-1,3.1328604E0,5.239888E0,7.2183332E0,9.41428E0,1.15753145E1,1.3992329E1,1.675498E1,1.9381912E1,2.2132734E1,2.4851679E1,2.8253347E1,2.443514E-1,1.3882699E0,2.405741E0,3.6021852E0,4.5242805E0,5.590835E0,6.5736537E0,7.7360315E0,2.6280534E0,9.469835E0,-1.125086E-1,4.9031726E-1,1.208857E0,5.033139E0,2.0038254E0,2.5621214E0,3.0368092E0,3.740626E0],"categories":[],"categories_nodes":[],"categories_segments":[],"categories_sizes":[],"default_left":[1,1,1,1,1,1,1,1,1,1,1,1,0,0,0,1,1,1,1,1,1,1,0,0,0,1,1,1,1,1,1,0,0,0,0,0,0,0,0,1,1,1,1,1,0,0,0,0,0,0,0,1,1,1,1,0,0,0,0,0,0,0,0,0,0,0,0,0,0],"id":6,"left_children":[1,3,5,7,9,11,13,15,17,19,21,23,-1,-1,-1,25,27,29,31,33,35,37,-1,-1,-1,39,41,43,45,47,49,-1,-1,-1,-1,-1,-1,-1,-1,51,53,55,57,59,-1,-1,-1,-1,-1,-1,-1,61,63,65,67,-1,-1,-1,-1,-1,-1,-1,-1,-1,-1,-1,-1,-1,-1],"loss_changes":[7.0936365E6,1.773417E6,2.804072E6,2.4447075E5,2.57974E5,2.343065E5,1.629025E5,3.0608695E4,3.1610375E4,3.17715E4,3.450325E4,2.428375E4,0E0,0E0,0E0,4.236385E3,4.289703E3,3.93725E3,3.063625E3,6.308125E2,1.4489375E3,4.2E1,0E0,0E0,0E0,6.6943176E2,4.0912695E2,3.671953E2,3.9952344E2,6.784375E1,8.0203125E1,0E0,0E0,0E0,0E0,0E0,0E0,0E0,0E0,6.8331276E1,8.006055E1,2.7947754E1,3.2583008E1,5.013867E1,0E0,0E0,0E0,0E0,0E0,0E0,0E0,1.0851535E1,5.4077805E1,1.4653931E0,8.508301E-1,0E0,0E0,0E0,0E0,0E0,0E0,0E0,0E0,0E0,0E0,0E0,0E0,0E0,0E0],"parents":[2147483647,0,0,1,1,2,2,3,3,4,4,5,5,6,6,7,7,8,8,9,9,10,10,11,11,15,15,16,16,17,17,18,18,19,19,20,20,21,21,25,25,26,26,27,27,28,28,29,29,30,30,39,39,40,40,41,41,42,42,43,43,51,51,52,52,53,53,54,54],"right_children":[2,4,6,8,10,12,14,16,18,20,22,24,-1,-1,-1,26,28,30,32,34,36,38,-1,-1,-1,40,42,44,46,48,50,-1,-1,-1,-1,-1,-1,-1,-1,52,54,56,58,60,-1,-1,-1,-1,-1,-1,-1,62,64,66,68,-1,-1,-1,-1,-1,-1,-1,-1,-1,-1,-1,-1,-1,-1],"split_conditions":[2.0420999E2,6.487E1,5.83635E2,2.746E1,1.18475006E2,3.26675E2,1.045495E3,1.307E1,4.48E1,8.8240005E1,1.5595499E2,2.6211E2,1.6877062E1,2.7324762E1,5.3552513E1,6.775E0,1.9599998E1,3.561E1,5.1395E1,7.5035E1,9.797E1,1.3957E2,7.452026E0,9.4791975E0,1.231514E1,3.24E0,9.58E0,1.6005001E1,2.2805E1,3.116E1,4.0019997E1,2.0052676E0,2.475046E0,2.910257E0,3.3651843E0,3.8234756E0,4.568604E0,5.6674943E0,2.381158E0,1.67E0,4.7475E0,7.8100004E0,1.0995E1,-1.7904999E1,7.292448E-1,8.815167E-1,1.0555638E0,1.2210605E0,1.3943623E0,1.5656558E0,1.7799609E0,7.14E-1,3.54725E2,3.8674998E0,5.29E0,2.8502968E-1,3.5222262E-1,4.141402E-1,4.8736998E-1,1.6556737E-1,5.9659964E-1,-7.088042E-3,3.0889988E-2,7.6157995E-2,3.1708777E-1,1.26241E-1,1.6141365E-1,1.9131899E-1,2.3565945E-1],"split_indices":[0,0,0,0,0,0,0,0,0,0,0,0,0,0,0,0,0,0,0,0,0,1,0,0,0,0,0,0,0,0,0,0,0,0,0,0,0,0,0,0,0,0,0,4,0,0,0,0,0,0,0,0,9,0,0,0,0,0,0,0,0,0,0,0,0,0,0,0,0],"split_type":[0,0,0,0,0,0,0,0,0,0,0,0,0,0,0,0,0,0,0,0,0,0,0,0,0,0,0,0,0,0,0,0,0,0,0,0,0,0,0,0,0,0,0,0,0,0,0,0,0,0,0,0,0,0,0,0,0,0,0,0,0,0,0,0,0,0,0,0,0],"sum_hessian":[3.354E3,3.195E3,1.59E2,2.537E3,6.58E2,1.47E2,1.2E1,1.673E3,8.64E2,4.22E2,2.36E2,1.05E2,4.2E1,6E0,6E0,9.32E2,7.41E2,5.35E2,3.29E2,2.38E2,1.84E2,1.55E2,8.1E1,5.6E1,4.9E1,4.72E2,4.6E2,4.08E2,3.33E2,2.64E2,2.71E2,1.29E2,2E2,1.17E2,1.21E2,6.9E1,1.15E2,1.53E2,2E0,2.13E2,2.59E2,2.11E2,2.49E2,1.98E2,2.1E2,1.6E2,1.73E2,1.27E2,1.37E2,1.33E2,1.38E2,1.22E2,9.1E1,1.04E2,1.55E2,7.4E1,1.37E2,1.17E2,1.32E2,2E0,1.96E2,5E1,7.2E1,8.8E1,3E0,3.3E1,7.1E1,3.5E1,1.2E2],"tree_param":{"num_deleted":"0","num_feature":"14","num_nodes":"69","size_leaf_vector":"0"}},{"base_weights":[3.5057716E1,2.4662539E1,2.1510602E2,1.3523502E1,6.457934E1,1.8048715E2,6.539307E2,7.123382E0,2.531121E1,5.081427E1,8.711546E1,1.4758583E2,2.3454678E2,4.1030515E2,8.0413763E2,3.7397912E0,1.1342922E1,2.0789183E1,3.1637085E1,4.4650272E1,5.9961365E1,7.86423E1,1.0208023E2,1.269381E2,1.63553E2,2.0636594E2,2.848173E2,1.6687192E0,5.502965E0,9.494475E0,1.3746882E1,1.8403397E1,2.3334213E1,2.8873596E1,3.5573658E1,4.1462208E1,4.8132885E1,5.5248314E1,6.487246E1,3.9218075E1,1.03052216E2,3.860606E-1,2.4866636E0,4.4857173E0,6.4647617E0,8.457661E0,1.0376932E1,1.2690044E1,1.4916093E1,1.6938963E1,1.9521112E1,4.1724953E1,1.5204894E1,4.8528446E1,1.6661827E1,5.5904972E1,1.669469E1,2.9961383E-2,7.082921E-1,2.0032613E0,3.1230192E0,3.9205518E0,4.9997983E0,5.963146E0,6.910197E0,1.0417331E1,4.0362086E0,-2.7030486E-1,1.9422595E-1,4.5138025E-1,8.078157E-1,1.8919808E0,4.762975E0],"categories":[],"categories_nodes":[],"categories_segments":[],"categories_sizes":[],"default_left":[1,1,1,1,1,1,1,1,1,1,1,1,1,0,0,1,1,1,1,1,1,0,1,0,0,0,0,1,1,1,1,1,0,0,0,1,1,1,0,0,0,1,1,1,1,0,1,0,0,0,0,0,0,0,0,0,0,1,1,1,0,0,0,0,0,0,0,0,0,0,0,0,0],"id":7,"left_children":[1,3,5,7,9,11,13,15,17,19,21,23,25,-1,-1,27,29,31,33,35,37,-1,39,-1,-1,-1,-1,41,43,45,47,49,-1,-1,-1,51,53,55,-1,-1,-1,57,59,61,63,-1,65,-1,-1,-1,-1,-1,-1,-1,-1,-1,-1,67,69,71,-1,-1,-1,-1,-1,-1,-1,-1,-1,-1,-1,-1,-1],"loss_changes":[6.2740275E6,1.4099524E6,2.66204E6,1.870686E5,2.102395E5,2.695305E5,1.45783E5,2.2943875E4,2.4315125E4,2.1680125E4,2.506675E4,1.517475E4,3.047325E4,0E0,0E0,3.2590527E3,3.051086E3,2.679375E3,2.9109375E3,9.1321875E2,3.739375E2,0E0,1.5186875E3,0E0,0E0,0E0,0E0,4.3233618E2,4.4356348E2,2.8553125E2,1.9253516E2,1.09640625E2,0E0,0E0,0E0,3.59E2,6.728125E2,1.4464375E3,0E0,0E0,0E0,1.8567694E1,7.126294E1,4.9546387E1,1.3758789E1,0E0,1.3283203E1,0E0,0E0,0E0,0E0,0E0,0E0,0E0,0E0,0E0,0E0,3.8997023E0,1.8087158E0,3.58255E1,0E0,0E0,0E0,0E0,0E0,0E0,0E0,0E0,0E0,0E0,0E0,0E0,0E0],"parents":[2147483647,0,0,1,1,2,2,3,3,4,4,5,5,6,6,7,7,8,8,9,9,10,10,11,11,12,12,15,15,16,16,17,17,18,18,19,19,20,20,22,22,27,27,28,28,29,29,30,30,31,31,35,35,36,36,37,37,41,41,42,42,43,43,44,44,46,46,57,57,58,58,59,59],"right_children":[2,4,6,8,10,12,14,16,18,20,22,24,26,-1,-1,28,30,32,34,36,38,-1,40,-1,-1,-1,-1,42,44,46,48,50,-1,-1,-1,52,54,56,-1,-1,-1,58,60,62,64,-1,66,-1,-1,-1,-1,-1,-1,-1,-1,-1,-1,68,70,72,-1,-1,-1,-1,-1,-1,-1,-1,-1,-1,-1,-1,-1],"split_conditions":[1.8876001E2,6.1515E1,5.83635E2,2.6125E1,1.0955E2,2.98655E2,1.045495E3,1.2515E1,4.19E1,8.3745E1,1.4234E2,2.25375E2,3.9458002E2,2.5849224E1,5.066067E1,6.135E0,1.8645E1,3.3765E1,5.1395E1,7.188E1,9.5865E1,4.9544654E0,-2.6966E2,7.997101E0,1.0303839E1,1.3001054E1,1.794349E1,2.3375E0,9.219999E0,1.5295E1,2.205E1,2.9305E1,1.4700555E0,1.8190366E0,2.2411406E0,7.1770004E1,7.6779004E2,9.518E1,4.086965E0,2.4707386E0,6.4922895E0,1.1655E0,4.6025E0,7.585E0,1.0605E1,5.328326E-1,2.1635E1,7.994728E-1,9.397139E-1,1.0671546E0,1.2298301E0,2.6286721E0,9.5790833E-1,3.0572922E0,1.0496951E0,3.5220132E0,1.0517656E0,4.4125E-1,1.44E0,2.478E1,1.9675021E-1,2.4699476E-1,3.149873E-1,3.756782E-1,4.353424E-1,6.5629184E-1,2.5428113E-1,-1.7029207E-2,1.2236235E-2,2.8436957E-2,5.0892387E-2,1.1919479E-1,3.0006745E-1],"split_indices":[0,0,0,0,0,0,0,0,0,0,0,0,0,0,0,0,0,0,0,0,0,0,8,0,0,0,0,0,0,0,0,0,0,0,0,0,6,0,0,0,0,0,0,0,0,0,5,0,0,0,0,0,0,0,0,0,0,0,0,1,0,0,0,0,0,0,0,0,0,0,0,0,0],"split_type":[0,0,0,0,0,0,0,0,0,0,0,0,0,0,0,0,0,0,0,0,0,0,0,0,0,0,0,0,0,0,0,0,0,0,0,0,0,0,0,0,0,0,0,0,0,0,0,0,0,0,0,0,0,0,0,0,0,0,0,0,0,0,0,0,0,0,0,0,0,0,0,0,0],"sum_hessian":[3.354E3,3.172E3,1.82E2,2.481E3,6.91E2,1.7E2,1.2E1,1.609E3,8.72E2,4.31E2,2.6E2,1.08E2,6.2E1,6E0,6E0,8.94E2,7.15E2,5.11E2,3.61E2,2.61E2,1.7E2,1.7E2,9E1,5.1E1,5.7E1,4.3E1,1.9E1,4.12E2,4.82E2,4.07E2,3.08E2,2.68E2,2.43E2,2.17E2,1.44E2,1.43E2,1.18E2,9.3E1,7.7E1,2E0,8.8E1,1.61E2,2.51E2,2.37E2,2.45E2,1.92E2,2.15E2,1.68E2,1.4E2,1.23E2,1.45E2,1.41E2,2E0,1.16E2,2E0,9.1E1,2E0,7.7E1,8.4E1,1.45E2,1.06E2,1.17E2,1.2E2,1.22E2,1.23E2,2.13E2,2E0,2.7E1,5E1,2.5E1,5.9E1,1.41E2,4E0],"tree_param":{"num_deleted":"0","num_feature":"14","num_nodes":"73","size_leaf_vector":"0"}},{"base_weights":[3.2899483E1,2.3786121E1,2.1473325E2,1.3647356E1,6.614305E1,1.7780594E2,6.1861847E2,7.3121367E0,2.6465189E1,5.3875E1,9.071575E1,1.5230946E2,2.365227E2,3.591436E2,7.3589734E2,3.91571E0,1.1917224E1,2.2166168E1,3.40388E1,4.7011673E1,6.458655E1,8.24637E1,1.0709378E2,1.3284483E2,1.730616E2,1.8749666E0,5.880303E0,9.818471E0,1.4314259E1,1.9627377E1,2.5125738E1,3.045305E1,3.682431E1,4.2902187E1,5.054708E1,8.290756E1,3.4558212E1,7.333303E-1,2.898712E0,5.004444E0,6.9558034E0,8.877458E0,1.0854953E1,1.2886876E1,1.54405155E1,1.8257769E1,2.0883642E1,5.09405E1,1.6649986E1,3.2282138E-1,1.4996827E0,2.3344207E0,3.3223708E0,4.3788004E0,5.4717016E0,6.2726936E0,7.3257437E0,5.1239162E1,2.1217276E1,-4.181762E-2,5.717163E-1,1.2965765E0,6.3482485E0,2.0003705E0,2.4689593E0],"categories":[],"categories_nodes":[],"categories_segments":[],"categories_sizes":[],"default_left":[1,1,1,1,1,1,1,1,1,1,1,1,0,0,0,1,1,1,1,1,0,1,0,0,0,1,1,1,1,1,0,0,0,0,1,0,0,1,1,1,1,0,0,0,0,0,0,1,0,1,1,1,0,0,0,0,0,0,0,0,0,0,0,1,1],"id":8,"left_children":[1,3,5,7,9,11,13,15,17,19,21,23,-1,-1,-1,25,27,29,31,33,-1,35,-1,-1,-1,37,39,41,43,45,-1,-1,-1,-1,47,-1,-1,49,51,53,55,-1,-1,-1,-1,-1,-1,57,-1,59,61,-1,-1,-1,-1,-1,-1,-1,-1,-1,-1,-1,-1,-1,-1],"loss_changes":[5.554519E6,1.3716099E6,2.2763095E6,2.0931222E5,1.81113E5,1.85542E5,1.31309E5,2.6980719E4,2.7018375E4,2.7399625E4,1.873975E4,1.98265E4,0E0,0E0,0E0,3.982167E3,3.5470156E3,3.6168438E3,1.9449375E3,1.5508125E3,0E0,1.116875E2,0E0,0E0,0E0,5.7055945E2,4.4277734E2,2.8792188E2,3.4760156E2,1.3317188E2,0E0,0E0,0E0,0E0,9.12125E2,0E0,0E0,7.2816376E1,5.392334E1,5.8771973E1,1.0908203E1,0E0,0E0,0E0,0E0,0E0,0E0,6.690625E1,0E0,1.3909695E1,7.1535645E1,1.8469238E-1,0E0,0E0,0E0,0E0,0E0,0E0,0E0,0E0,0E0,0E0,0E0,0E0,0E0],"parents":[2147483647,0,0,1,1,2,2,3,3,4,4,5,5,6,6,7,7,8,8,9,9,10,10,11,11,15,15,16,16,17,17,18,18,19,19,21,21,25,25,26,26,27,27,28,28,29,29,34,34,37,37,38,38,39,39,40,40,47,47,49,49,50,50,51,51],"right_children":[2,4,6,8,10,12,14,16,18,20,22,24,-1,-1,-1,26,28,30,32,34,-1,36,-1,-1,-1,38,40,42,44,46,-1,-1,-1,-1,48,-1,-1,50,52,54,56,-1,-1,-1,-1,-1,-1,58,-1,60,62,-1,-1,-1,-1,-1,-1,-1,-1,-1,-1,-1,-1,-1,-1],"split_conditions":[2.0420999E2,6.7895004E1,5.83635E2,2.9125E1,1.25865005E2,3.26675E2,8.67005E2,1.3934999E1,4.7985E1,9.549E1,1.6379001E2,2.64275E2,1.490093E1,2.2626047E1,4.6361534E1,7.105E0,2.052E1,3.836E1,5.7225E1,7.9005005E1,4.0689526E0,1.1897E2,6.746908E0,8.369225E0,1.0902881E1,3.5875E0,1.0605E1,1.7154999E1,2.442E1,3.3765E1,1.5829215E0,1.9185423E0,2.3199315E0,2.702838E0,9.4895004E1,5.2231765E0,2.1771674E0,2.0774999E0,5.185E0,8.885E0,1.1765E1,5.5927986E-1,6.8386203E-1,8.118732E-1,9.727525E-1,1.1502395E0,1.3156695E0,2.0855E2,1.0489491E0,9.0244997E-1,2.478E1,1.470685E-1,2.0930935E-1,2.7586442E-1,3.447172E-1,3.9517972E-1,4.6152186E-1,3.2280674E0,1.3366884E0,-2.6345102E-3,3.601813E-2,8.168432E-2,3.9993966E-1,1.2602334E-1,1.5554444E-1],"split_indices":[0,0,0,0,0,0,0,0,0,0,0,0,0,0,0,0,0,0,0,0,0,1,0,0,0,0,0,0,0,0,0,0,0,0,0,0,0,0,0,0,0,0,0,0,0,0,0,1,0,0,1,0,0,0,0,0,0,0,0,0,0,0,0,2147483647,2147483647],"split_type":[0,0,0,0,0,0,0,0,0,0,0,0,0,0,0,0,0,0,0,0,0,0,0,0,0,0,0,0,0,0,0,0,0,0,0,0,0,0,0,0,0,0,0,0,0,0,0,0,0,0,0,0,0,0,0,0,0,0,0,0,0,0,0,0,0],"sum_hessian":[3.354E3,3.195E3,1.59E2,2.579E3,6.16E2,1.47E2,1.2E1,1.727E3,8.52E2,4.13E2,2.03E2,1.05E2,4.2E1,5E0,7E0,9.95E2,7.32E2,5.46E2,3.06E2,2.55E2,1.58E2,1.39E2,6.4E1,5.8E1,4.7E1,4.89E2,5.06E2,3.93E2,3.39E2,2.98E2,2.48E2,1.39E2,1.67E2,1.24E2,1.31E2,1.37E2,2E0,2.32E2,2.57E2,2.82E2,2.24E2,2.11E2,1.82E2,1.55E2,1.84E2,1.5E2,1.48E2,1.29E2,2E0,1.52E2,8E1,1.13E2,1.44E2,1.25E2,1.57E2,8.5E1,1.39E2,1.27E2,2E0,6.2E1,9E1,7.8E1,2E0,3.7E1,7.6E1],"tree_param":{"num_deleted":"2","num_feature":"14","num_nodes":"65","size_leaf_vector":"0"}},{"base_weights":[3.0869543E1,2.2216038E1,2.0019333E2,1.2392761E1,6.018747E1,1.657426E2,5.849523E2,6.4655147E0,2.3418036E1,4.861869E1,8.336753E1,1.4662555E2,2.3796051E2,3.653641E2,7.209758E2,3.2978516E0,1.0224582E1,1.8837132E1,2.9180931E1,4.1879433E1,5.794204E1,7.566165E1,9.8799545E1,1.2431079E2,1.6761229E2,1.693863E0,5.0710645E0,8.349758E0,1.2358711E1,1.673223E1,2.096846E1,2.5717226E1,3.2327133E1,3.8239536E1,4.489023E1,5.0715096E1,6.0368446E1,7.6045105E1,3.1651617E1,6.8934083E-1,2.6580114E0,4.176178E0,5.6965227E0,7.2739573E0,9.001479E0,1.1213871E1,1.3471818E1,1.5318238E1,1.750336E1,4.513535E1,1.8978083E1,3.1695184E-1,1.439675E0,2.1676881E0,3.0398705E0,3.7268376E0,4.4573617E0,5.266065E0,6.0979285E0,3.4242744E0,9.032902E0,-5.9252415E-2,5.3795284E-1,1.2348014E0,6.0816216E0,1.8571724E0,2.3014646E0,3.0613124E0,1.0902891E0],"categories":[],"categories_nodes":[],"categories_segments":[],"categories_sizes":[],"default_left":[1,1,1,1,1,1,1,1,1,1,1,1,0,0,0,1,1,1,1,1,1,1,0,0,0,1,1,1,1,1,0,0,0,0,1,0,0,0,0,1,1,1,1,0,1,0,0,0,0,0,0,1,1,1,1,0,0,0,0,0,0,0,0,0,0,1,1,0,0],"id":9,"left_children":[1,3,5,7,9,11,13,15,17,19,21,23,-1,-1,-1,25,27,29,31,33,35,37,-1,-1,-1,39,41,43,45,47,-1,-1,-1,-1,49,-1,-1,-1,-1,51,53,55,57,-1,59,-1,-1,-1,-1,-1,-1,61,63,-1,67,-1,-1,-1,-1,-1,-1,-1,-1,-1,-1,-1,-1,-1,-1],"loss_changes":[4.911447E6,1.1902554E6,2.0636505E6,1.6570575E5,1.71863E5,1.735785E5,1.248805E5,1.9637406E4,2.2866438E4,2.5219688E4,1.832975E4,3.629825E4,0E0,0E0,0E0,2.5455127E3,2.9176484E3,1.8788125E3,3.4295625E3,1.1217812E3,1.299375E2,1.07625E2,0E0,0E0,0E0,4.5627234E2,2.1464941E2,2.1847852E2,2.9621875E2,9.9296875E0,0E0,0E0,0E0,0E0,7.21875E0,0E0,0E0,0E0,0E0,6.4647644E1,3.8533936E1,6.0041504E0,1.0739746E1,0E0,1.2533203E1,0E0,0E0,0E0,0E0,0E0,0E0,1.3085094E1,6.571835E1,2.5360107E-1,2.222046E0,0E0,0E0,0E0,0E0,0E0,0E0,0E0,0E0,0E0,0E0,0E0,0E0,0E0,0E0],"parents":[2147483647,0,0,1,1,2,2,3,3,4,4,5,5,6,6,7,7,8,8,9,9,10,10,11,11,15,15,16,16,17,17,18,18,19,19,20,20,21,21,25,25,26,26,27,27,28,28,29,29,34,34,39,39,40,40,41,41,42,42,44,44,51,51,52,52,53,53,54,54],"right_children":[2,4,6,8,10,12,14,16,18,20,22,24,-1,-1,-1,26,28,30,32,34,36,38,-1,-1,-1,40,42,44,46,48,-1,-1,-1,-1,50,-1,-1,-1,-1,52,54,56,58,-1,60,-1,-1,-1,-1,-1,-1,62,64,-1,68,-1,-1,-1,-1,-1,-1,-1,-1,-1,-1,-1,-1,-1,-1],"split_conditions":[2.00695E2,6.487E1,5.83635E2,2.6939999E1,1.23215E2,3.557E2,1.045495E3,1.2559999E1,4.2995E1,9.0435E1,1.6082501E2,2.6778E2,1.4991512E1,2.3017939E1,4.542148E1,6.775E0,1.8645E1,3.45E1,5.1395E1,7.5465E1,9.8405E1,1.3957E2,6.2243714E0,7.83158E0,1.0559574E1,3.5875E0,9.25E0,1.4745E1,2.2335E1,2.9619999E1,1.321013E0,1.6201853E0,2.0366094E0,2.4090908E0,1.3965E1,3.195051E0,3.8032122E0,4.7908416E0,1.9940519E0,2.17E0,5.115E0,7.8100004E0,1.0635E1,4.582593E-1,-2.2055E1,7.064739E-1,8.4872454E-1,9.65049E-1,1.1027118E0,2.843527E0,1.1956192E0,8.0595005E-1,2.478E1,1.3656436E-1,6.745E0,2.3479077E-1,2.8081378E-1,3.317621E-1,3.841695E-1,2.157293E-1,5.6907284E-1,-3.7329022E-3,3.389103E-2,7.779249E-2,3.8314217E-1,1.1700186E-1,1.4499226E-1,1.9286269E-1,6.8688214E-2],"split_indices":[0,0,0,0,0,0,0,0,0,0,0,0,0,0,0,0,0,0,0,0,0,1,0,0,0,0,0,0,0,0,0,0,0,0,4,0,0,0,0,0,0,0,0,0,4,0,0,0,0,0,0,0,1,0,0,0,0,0,0,0,0,0,0,0,0,2147483647,2147483647,0,0],"split_type":[0,0,0,0,0,0,0,0,0,0,0,0,0,0,0,0,0,0,0,0,0,0,0,0,0,0,0,0,0,0,0,0,0,0,0,0,0,0,0,0,0,0,0,0,0,0,0,0,0,0,0,0,0,0,0,0,0,0,0,0,0,0,0,0,0,0,0,0,0],"sum_hessian":[3.354E3,3.192E3,1.62E2,2.537E3,6.55E2,1.5E2,1.2E1,1.651E3,8.86E2,4.39E2,2.16E2,1.21E2,2.9E1,6E0,6E0,8.97E2,7.54E2,4.96E2,3.9E2,2.58E2,1.81E2,1.48E2,6.8E1,6.2E1,5.9E1,4.72E2,4.25E2,4.04E2,3.5E2,2.54E2,2.42E2,1.9E2,2E2,1.23E2,1.35E2,5.1E1,1.3E2,1.46E2,2E0,2.32E2,2.4E2,1.78E2,2.47E2,1.57E2,2.47E2,1.78E2,1.72E2,9.7E1,1.57E2,1.33E2,2E0,1.56E2,7.6E1,1.08E2,1.32E2,7.4E1,1.04E2,1.26E2,1.21E2,2E0,2.45E2,5.8E1,9.8E1,7.4E1,2E0,3.7E1,7.1E1,1.3E2,2E0],"tree_param":{"num_deleted":"2","num_feature":"14","num_nodes":"69","size_leaf_vector":"0"}},{"base_weights":[2.8966564E1,2.1280405E1,1.9775836E2,1.2116484E1,5.9773003E1,1.6796268E2,6.326522E2,6.450075E0,2.3494406E1,4.84686E1,8.292803E1,1.4980424E2,2.806964E2,3.4761157E0,1.0550835E1,1.9639597E1,3.0399227E1,4.1692036E1,5.751099E1,7.461388E1,9.880376E1,1.23103966E2,1.6749869E2,1.7013224E0,5.254591E0,8.812131E0,1.2802494E1,1.7403128E1,2.2407513E1,2.7161722E1,3.2815243E1,3.82312E1,4.4782764E1,7.503696E1,3.0845139E1,6.7971575E-1,2.6239862E0,4.470286E0,6.1626806E0,7.9271665E0,9.833805E0,1.16233015E1,1.37651005E1,1.620307E1,1.859117E1,1.1429006E1,2.731014E1,4.5183628E1,1.3820654E1,2.797323E-1,1.3476909E0,2.107078E0,2.9886045E0,3.957548E0,4.8643475E0,5.614952E0,6.533751E0,7.9545336E0,3.2322338E0,4.5477974E1,1.854475E1,1.7700141E-2,5.48516E-1,1.1797001E0,5.826194E0,1.9174331E0,2.3325918E0],"categories":[],"categories_nodes":[],"categories_segments":[],"categories_sizes":[],"default_left":[1,1,1,1,1,1,0,1,1,1,1,1,0,1,1,1,1,1,0,1,0,0,0,1,1,1,1,1,0,1,0,0,1,0,0,1,1,1,1,1,0,0,0,0,0,0,0,1,0,1,1,1,0,0,0,0,0,0,0,0,0,0,0,0,0,0,0],"id":10,"left_children":[1,3,5,7,9,11,-1,13,15,17,19,21,-1,23,25,27,29,31,-1,33,-1,-1,-1,35,37,39,41,43,-1,45,-1,-1,47,-1,-1,49,51,53,55,57,-1,-1,-1,-1,-1,-1,-1,59,-1,61,63,65,-1,-1,-1,-1,-1,-1,-1,-1,-1,-1,-1,-1,-1,-1,-1],"loss_changes":[4.348436E6,1.1315811E6,1.7856E6,1.6708872E5,1.5748275E5,2.4044575E5,0E0,2.1098117E4,2.2346625E4,2.31545E4,1.91585E4,3.654625E4,0E0,3.1664248E3,2.7372812E3,3.0518906E3,1.51E3,8.7640625E2,0E0,2.038125E2,0E0,0E0,0E0,4.7422913E2,3.2998438E2,2.9636328E2,1.975586E2,1.4359375E2,0E0,7.7734375E0,0E0,0E0,8.897656E2,0E0,0E0,6.401315E1,4.3648315E1,3.590869E1,1.0060547E1,3.4550781E0,0E0,0E0,0E0,0E0,0E0,0E0,0E0,9.753125E1,0E0,1.0695645E1,6.0838135E1,3.6013794E-1,0E0,0E0,0E0,0E0,0E0,0E0,0E0,0E0,0E0,0E0,0E0,0E0,0E0,0E0,0E0],"parents":[2147483647,0,0,1,1,2,2,3,3,4,4,5,5,7,7,8,8,9,9,10,10,11,11,13,13,14,14,15,15,16,16,17,17,19,19,23,23,24,24,25,25,26,26,27,27,29,29,32,32,35,35,36,36,37,37,38,38,39,39,47,47,49,49,50,50,51,51],"right_children":[2,4,6,8,10,12,-1,14,16,18,20,22,-1,24,26,28,30,32,-1,34,-1,-1,-1,36,38,40,42,44,-1,46,-1,-1,48,-1,-1,50,52,54,56,58,-1,-1,-1,-1,-1,-1,-1,60,-1,62,64,66,-1,-1,-1,-1,-1,-1,-1,-1,-1,-1,-1,-1,-1,-1,-1],"split_conditions":[2.1189E2,6.878E1,6.9937E2,2.9305E1,1.27975E2,4.1421002E2,3.985709E1,1.4025E1,4.865E1,9.549E1,1.68315E2,2.75365E2,1.7683874E1,7.29E0,2.122E1,3.908E1,5.7895E1,7.9845E1,3.6231925E0,1.15595E2,6.2246366E0,7.75555E0,1.0552418E1,3.8075E0,1.0635E1,1.7575E1,2.4869999E1,3.4295E1,1.4116733E0,-9.190001E0,2.0673604E0,2.4085658E0,9.4895004E1,4.7273283E0,1.9432437E0,1.9925001E0,5.29E0,9.005E0,1.2195E1,2.1635E1,6.195297E-1,7.3226804E-1,8.672013E-1,1.0207934E0,1.1712437E0,7.200274E-1,1.7205389E0,1.13405E2,8.707012E-1,1.1655E0,2.478E1,4.6025E0,1.8828209E-1,2.4932553E-1,3.0645388E-1,3.5374197E-1,4.116263E-1,5.0113565E-1,2.0363073E-1,2.8651123E0,1.1683192E0,1.115109E-3,3.4556508E-2,7.4321106E-2,3.6705023E-1,1.2079829E-1,1.4695328E-1],"split_indices":[0,0,0,0,0,0,0,0,0,0,0,0,0,0,0,0,0,0,0,1,0,0,0,0,0,0,0,0,0,4,0,0,0,0,0,0,0,0,0,5,0,0,0,0,0,0,0,6,0,0,1,0,0,0,0,0,0,0,0,0,0,0,0,0,0,0,0],"split_type":[0,0,0,0,0,0,0,0,0,0,0,0,0,0,0,0,0,0,0,0,0,0,0,0,0,0,0,0,0,0,0,0,0,0,0,0,0,0,0,0,0,0,0,0,0,0,0,0,0,0,0,0,0,0,0,0,0,0,0,0,0,0,0,0,0,0,0],"sum_hessian":[3.354E3,3.209E3,1.45E2,2.593E3,6.16E2,1.37E2,8E0,1.732E3,8.61E2,4.16E2,2E2,1.2E2,1.7E1,1.005E3,7.27E2,5.55E2,3.06E2,2.41E2,1.75E2,1.35E2,6.5E1,5.1E1,6.9E1,5.04E2,5.01E2,4.13E2,3.14E2,3.11E2,2.44E2,1.36E2,1.7E2,1.2E2,1.21E2,1.33E2,2E0,2.4E2,2.64E2,2.72E2,2.29E2,2.26E2,1.87E2,1.47E2,1.67E2,1.62E2,1.49E2,2E0,1.34E2,1.19E2,2E0,1.51E2,8.9E1,1.12E2,1.52E2,1.23E2,1.49E2,9.9E1,1.3E2,2.24E2,2E0,1.17E2,2E0,7.7E1,7.4E1,8.7E1,2E0,6.6E1,4.6E1],"tree_param":{"num_deleted":"0","num_feature":"14","num_nodes":"67","size_leaf_vector":"0"}},{"base_weights":[2.7175343E1,2.0159452E1,1.9058084E2,1.1624744E1,5.7842026E1,1.6096263E2,5.972237E2,6.1815357E0,2.2711906E1,4.709476E1,8.027162E1,1.4364195E2,2.676447E2,3.3551037E0,1.0191393E1,1.8775171E1,2.9247503E1,4.0241302E1,5.5233368E1,7.1161804E1,9.402227E1,1.2261118E2,1.6252164E2,1.6589612E0,5.0844464E0,8.522775E0,1.2376549E1,1.6777729E1,2.1493818E1,2.5939932E1,3.1426277E1,4.0439575E1,1.2221657E1,7.162079E1,2.954098E1,6.6481286E-1,2.54304E0,4.3388605E0,5.9869003E0,7.645647E0,9.5062685E0,1.11358385E1,1.3163831E1,1.55180025E1,1.78163E1,1.0948987E1,2.6084122E1,3.1608164E1,9.552625E0,3.695624E1,4.311473E1,2.7797437E-1,1.317735E0,2.0885608E0,2.9307525E0,3.8426483E0,4.710254E0,5.455295E0,6.29792E0,2.992377E0,7.673962E0,-8.2002334E-2,4.6221253E-1,1.1603106E0,5.601219E0,1.8265026E0,2.277935E0,2.951006E0,1.468936E0],"categories":[],"categories_nodes":[],"categories_segments":[],"categories_sizes":[],"default_left":[1,1,1,1,1,1,0,1,1,1,1,1,0,1,1,1,1,1,0,1,0,0,0,1,1,1,1,1,0,1,1,1,0,0,0,1,1,1,1,1,0,0,0,0,0,0,0,0,0,0,0,1,1,1,1,0,0,0,0,0,0,0,0,0,0,0,0,1,1],"id":11,"left_children":[1,3,5,7,9,11,-1,13,15,17,19,21,-1,23,25,27,29,31,-1,33,-1,-1,-1,35,37,39,41,43,-1,45,47,49,-1,-1,-1,51,53,55,57,59,-1,-1,-1,-1,-1,-1,-1,-1,-1,-1,-1,61,63,65,-1,-1,-1,-1,-1,-1,-1,-1,-1,-1,-1,-1,-1,-1,-1],"loss_changes":[3.842447E6,1.034268E6,1.565946E6,1.5827766E5,1.3940738E5,2.0177E5,0E0,1.9935594E4,2.1680656E4,2.03115E4,1.7235E4,2.53375E4,0E0,3.0274404E3,2.5489453E3,2.5826406E3,1.5124688E3,7.44625E2,0E0,1.575E2,0E0,0E0,0E0,4.5885583E2,3.185254E2,2.861797E2,1.5914844E2,1.3826562E2,0E0,4.0546875E0,4.54E2,4.66E2,0E0,0E0,0E0,6.2272392E1,4.2688477E1,3.423877E1,3.5058594E0,6.682617E0,0E0,0E0,0E0,0E0,0E0,0E0,0E0,0E0,0E0,0E0,0E0,1.0450371E1,5.5538696E1,2.340454E0,1.7456055E-2,0E0,0E0,0E0,0E0,0E0,0E0,0E0,0E0,0E0,0E0,0E0,0E0,0E0,0E0],"parents":[2147483647,0,0,1,1,2,2,3,3,4,4,5,5,7,7,8,8,9,9,10,10,11,11,13,13,14,14,15,15,16,16,17,17,19,19,23,23,24,24,25,25,26,26,27,27,29,29,30,30,31,31,35,35,36,36,37,37,38,38,39,39,51,51,52,52,53,53,54,54],"right_children":[2,4,6,8,10,12,-1,14,16,18,20,22,-1,24,26,28,30,32,-1,34,-1,-1,-1,36,38,40,42,44,-1,46,48,50,-1,-1,-1,52,54,56,58,60,-1,-1,-1,-1,-1,-1,-1,-1,-1,-1,-1,62,64,66,-1,-1,-1,-1,-1,-1,-1,-1,-1,-1,-1,-1,-1,-1,-1],"split_conditions":[2.1688501E2,7.188E1,6.9937E2,2.99E1,1.3111499E2,4.3006E2,3.762509E1,1.435E1,4.9309998E1,9.8405E1,1.6844E2,2.901E2,1.6861618E1,7.5200005E0,2.173E1,4.0239998E1,5.879E1,7.8805005E2,3.4797022E0,2.1025E1,5.9234033E0,7.7245045E0,1.0238863E1,3.875E0,1.1135E1,1.789E1,2.506E1,3.4864998E1,1.3541106E0,-9.190001E0,7.1770004E1,8.1445E1,7.699644E-1,4.5121098E0,1.8610817E0,2.17E0,5.68E0,9.219999E0,1.2559999E1,-6.5975E1,5.9889495E-1,7.015578E-1,8.293213E-1,9.776342E-1,1.1224269E0,6.897862E-1,1.6432997E0,1.9913144E0,6.0181534E-1,2.3282433E0,2.716228E0,7.529E-1,4.9241498E2,4.6025E0,1.8463741E-1,2.4208684E-1,2.9674602E-1,3.436836E-1,3.96769E-1,1.8851976E-1,4.8345962E-1,-5.1661474E-3,2.911939E-2,7.309957E-2,3.528768E-1,1.15069665E-1,1.4350991E-1,1.8591338E-1,9.254297E-2],"split_indices":[0,0,0,0,0,0,0,0,0,0,0,0,0,0,0,0,0,6,0,4,0,0,0,0,0,0,0,0,0,4,0,0,0,0,0,0,0,0,0,6,0,0,0,0,0,0,0,0,0,0,0,0,9,0,2,0,0,0,0,0,0,0,0,0,0,0,0,2147483647,2147483647],"split_type":[0,0,0,0,0,0,0,0,0,0,0,0,0,0,0,0,0,0,0,0,0,0,0,0,0,0,0,0,0,0,0,0,0,0,0,0,0,0,0,0,0,0,0,0,0,0,0,0,0,0,0,0,0,0,0,0,0,0,0,0,0,0,0,0,0,0,0,0,0],"sum_hessian":[3.354E3,3.217E3,1.37E2,2.624E3,5.93E2,1.29E2,8E0,1.761E3,8.63E2,4.03E2,1.9E2,1.13E2,1.6E1,1.034E3,7.27E2,5.41E2,3.22E2,2.22E2,1.81E2,1.18E2,7.2E1,5.7E1,5.6E1,5.23E2,5.11E2,4.15E2,3.12E2,3.16E2,2.25E2,1.33E2,1.89E2,2.2E2,2E0,1.16E2,2E0,2.47E2,2.76E2,2.83E2,2.28E2,2.24E2,1.91E2,1.27E2,1.85E2,1.5E2,1.66E2,2E0,1.31E2,1.87E2,2E0,1.02E2,1.18E2,1.56E2,9.1E1,1.3E2,1.46E2,1.26E2,1.57E2,9.1E1,1.37E2,2E0,2.22E2,5.3E1,1.03E2,8.9E1,2E0,5.9E1,7.1E1,1.43E2,3E0],"tree_param":{"num_deleted":"2","num_feature":"14","num_nodes":"69","size_leaf_vector":"0"}},{"base_weights":[2.5495306E1,1.8949438E1,1.8029092E2,1.0897472E1,5.4381413E1,1.5344836E2,5.905908E2,5.7374625E0,2.1175648E1,4.4798756E1,7.699458E1,1.3540515E2,2.5719226E2,3.0708334E0,9.377821E0,1.75033E1,2.7420162E1,3.8109142E1,5.2965923E1,6.782131E1,8.844363E1,1.1528164E2,1.5215323E2,1.4962554E0,4.6331434E0,7.760117E0,1.1348404E1,1.5489113E1,1.9952208E1,2.4634218E1,2.972274E1,3.5206593E1,4.161147E1,4.7745102E1,5.5890266E1,6.832873E1,2.8300259E1,5.7038426E-1,2.280987E0,3.8732493E0,5.3747964E0,6.9813566E0,8.63844E0,1.0206579E1,1.2183661E1,1.4344328E1,1.64265E1,1.814688E1,2.0854279E1,2.9910923E1,9.151415E0,3.5471916E1,1.1708347E1,2.421538E-1,1.1606544E0,1.8273429E0,2.624843E0,3.3284802E0,4.1371202E0,4.782765E0,5.687071E0,7.0154386E0,3.3700342E0,-1.78399E-1,3.753564E-1,9.8784953E-1,5.4395013E0,1.5208927E0,1.944221E0],"categories":[],"categories_nodes":[],"categories_segments":[],"categories_sizes":[],"default_left":[1,1,1,1,1,1,0,1,1,1,1,1,0,1,1,1,1,1,1,1,0,0,0,1,1,1,1,1,1,0,1,1,0,0,0,0,0,1,1,1,1,1,0,0,0,0,0,0,0,0,0,0,0,1,1,1,0,0,0,0,0,0,0,0,0,0,0,0,0],"id":12,"left_children":[1,3,5,7,9,11,-1,13,15,17,19,21,-1,23,25,27,29,31,33,35,-1,-1,-1,37,39,41,43,45,47,-1,49,51,-1,-1,-1,-1,-1,53,55,57,59,61,-1,-1,-1,-1,-1,-1,-1,-1,-1,-1,-1,63,65,67,-1,-1,-1,-1,-1,-1,-1,-1,-1,-1,-1,-1,-1],"loss_changes":[3.3961102E6,9.1806375E5,1.407211E6,1.3909666E5,1.257005E5,2.0664625E5,0E0,1.694959E4,1.9631469E4,2.0983E4,1.24861875E4,2.0207E4,0E0,2.4801064E3,2.2677383E3,2.4285312E3,1.3397812E3,9.239375E2,1.865E2,1.1178125E2,0E0,0E0,0E0,3.6561206E2,2.6491602E2,2.1944727E2,1.9132422E2,9.5953125E1,2.38125E1,0E0,3.9214062E2,4.26375E2,0E0,0E0,0E0,0E0,0E0,4.486145E1,3.7788208E1,2.27417E1,1.975879E1,3.6816406E0,0E0,0E0,0E0,0E0,0E0,0E0,0E0,0E0,0E0,0E0,0E0,8.525791E0,5.5997253E1,1.3769226E0,0E0,0E0,0E0,0E0,0E0,0E0,0E0,0E0,0E0,0E0,0E0,0E0,0E0],"parents":[2147483647,0,0,1,1,2,2,3,3,4,4,5,5,7,7,8,8,9,9,10,10,11,11,13,13,14,14,15,15,16,16,17,17,18,18,19,19,23,23,24,24,25,25,26,26,27,27,28,28,30,30,31,31,37,37,38,38,39,39,40,40,41,41,53,53,54,54,55,55],"right_children":[2,4,6,8,10,12,-1,14,16,18,20,22,-1,24,26,28,30,32,34,36,-1,-1,-1,38,40,42,44,46,48,-1,50,52,-1,-1,-1,-1,-1,54,56,58,60,62,-1,-1,-1,-1,-1,-1,-1,-1,-1,-1,-1,64,66,68,-1,-1,-1,-1,-1,-1,-1,-1,-1,-1,-1,-1,-1],"split_conditions":[2.2148999E2,7.188E1,8.67005E2,2.9619999E1,1.3360501E2,4.3006E2,3.7207222E1,1.4105E1,4.9309998E1,1.00675E2,1.6844E2,2.88195E2,1.6203114E1,7.29E0,2.122E1,3.9545E1,6.0045E1,8.5869995E1,1.1295E2,2.1025E1,5.5719485E0,7.2627435E0,9.585653E0,3.5875E0,1.0465E1,1.7575E1,2.4785E1,3.4295E1,4.2864998E1,1.5519558E0,7.1770004E1,7.8805005E2,2.6215227E0,3.0079415E0,3.521087E0,4.30471E0,1.7829163E0,1.9725001E0,5.29E0,8.46E0,1.1665E1,2.0305E1,5.4422176E-1,6.430145E-1,7.675707E-1,9.0369266E-1,1.0348696E0,1.1432534E0,1.3138195E0,1.8843882E0,5.7653916E-1,2.2347307E0,7.376259E-1,6.1240005E-1,2.478E1,4.1225E0,1.653651E-1,2.0969425E-1,2.606386E-1,3.013142E-1,3.5828546E-1,4.4197264E-1,2.1231216E-1,-1.1239137E-2,2.3647454E-2,6.223452E-2,3.426886E-1,9.581625E-2,1.2248593E-1],"split_indices":[0,0,0,0,0,0,0,0,0,0,0,0,0,0,0,0,0,0,0,4,0,0,0,0,0,0,0,0,0,0,0,6,0,0,0,0,0,0,0,0,0,5,0,0,0,0,0,0,0,0,0,0,0,0,1,0,0,0,0,0,0,0,0,0,0,0,0,0,0],"split_type":[0,0,0,0,0,0,0,0,0,0,0,0,0,0,0,0,0,0,0,0,0,0,0,0,0,0,0,0,0,0,0,0,0,0,0,0,0,0,0,0,0,0,0,0,0,0,0,0,0,0,0,0,0,0,0,0,0,0,0,0,0,0,0,0,0,0,0,0,0],"sum_hessian":[3.354E3,3.219E3,1.35E2,2.624E3,5.95E2,1.28E2,7E0,1.748E3,8.76E2,4.2E2,1.75E2,1.11E2,1.7E1,1.01E3,7.38E2,5.54E2,3.22E2,2.34E2,1.86E2,1.01E2,7.4E1,5.4E1,5.7E1,5.04E2,5.06E2,4.08E2,3.3E2,3.08E2,2.46E2,1.51E2,1.71E2,1.34E2,1E2,7.3E1,1.13E2,9.9E1,2E0,2.32E2,2.72E2,2.53E2,2.53E2,2.21E2,1.87E2,1.45E2,1.85E2,1.46E2,1.62E2,8.9E1,1.57E2,1.69E2,2E0,1.32E2,2E0,1.5E2,8.2E1,1.2E2,1.52E2,8.7E1,1.66E2,9.3E1,1.6E2,2.18E2,3E0,3.6E1,1.14E2,8E1,2E0,3.7E1,8.3E1],"tree_param":{"num_deleted":"0","num_feature":"14","num_nodes":"69","size_leaf_vector":"0"}},{"base_weights":[2.3920992E1,1.753501E1,1.6416129E2,9.976789E0,4.9282963E1,1.3338292E2,4.687875E2,5.291748E0,1.9302942E1,3.943736E1,6.750852E1,1.1746398E2,1.8696996E2,3.0157993E2,6.135997E2,2.7151103E0,8.471533E0,1.5755198E1,2.442415E1,3.4395702E1,4.6725277E1,6.0004623E1,7.966707E1,9.889313E1,1.2954259E2,1.3163316E0,4.093704E0,6.9154086E0,1.0313047E1,1.3907787E1,1.754154E1,2.1689255E1,2.6846243E1,3.4561314E1,9.681687E0,4.6867824E-1,2.0010521E0,3.4465172E0,4.756519E0,6.162855E0,7.689398E0,9.218832E0,1.1136918E1,1.634268E1,1.8613714E1,2.178452E1,9.092887E0,3.2135242E1,3.8180534E1,7.52635E-2,8.3306074E-1,1.5408852E0,2.2923508E0,3.0136058E0,3.750595E0,4.3829236E0,5.0838647E0,1.0999924E0,6.204448E0,3.234214E1,1.1216598E1,-2.3299977E-1,1.8638179E-1,7.091404E-1,3.318343E0,1.3416576E0,1.6734753E0,2.0771253E0,2.4789217E0],"categories":[],"categories_nodes":[],"categories_segments":[],"categories_sizes":[],"default_left":[1,1,1,1,1,1,1,1,1,1,1,1,0,0,0,1,1,1,1,1,0,0,0,0,0,1,1,1,1,0,1,1,0,1,0,1,1,1,1,1,0,0,0,0,0,0,0,1,0,1,1,1,1,0,0,0,0,0,0,0,0,0,0,0,0,0,0,0,0],"id":13,"left_children":[1,3,5,7,9,11,13,15,17,19,21,23,-1,-1,-1,25,27,29,31,33,-1,-1,-1,-1,-1,35,37,39,41,-1,43,45,-1,47,-1,49,51,53,55,57,-1,-1,-1,-1,-1,-1,-1,59,-1,61,63,65,67,-1,-1,-1,-1,-1,-1,-1,-1,-1,-1,-1,-1,-1,-1,-1,-1],"loss_changes":[3.001766E6,7.6977356E5,1.3063532E6,1.1323856E5,1.08053125E5,9.234625E4,1.297285E5,1.4134773E4,1.53675E4,1.3200375E4,1.48355E4,1.0966125E4,0E0,0E0,0E0,1.8381123E3,2.1438086E3,1.4555938E3,1.7560625E3,6.5590625E2,0E0,0E0,0E0,0E0,0E0,2.753352E2,1.8993848E2,1.9841406E2,2.1465625E2,0E0,2.7429688E1,7.109375E0,0E0,8.8034375E2,0E0,3.061494E1,3.1721924E1,2.1212158E1,6.4570312E0,3.9291992E1,0E0,0E0,0E0,0E0,0E0,0E0,0E0,2.864375E2,0E0,3.6058102E0,3.183226E1,5.284271E-1,1.2355347E0,0E0,0E0,0E0,0E0,0E0,0E0,0E0,0E0,0E0,0E0,0E0,0E0,0E0,0E0,0E0,0E0],"parents":[2147483647,0,0,1,1,2,2,3,3,4,4,5,5,6,6,7,7,8,8,9,9,10,10,11,11,15,15,16,16,17,17,18,18,19,19,25,25,26,26,27,27,28,28,30,30,31,31,33,33,35,35,36,36,37,37,38,38,39,39,47,47,49,49,50,50,51,51,52,52],"right_children":[2,4,6,8,10,12,14,16,18,20,22,24,-1,-1,-1,26,28,30,32,34,-1,-1,-1,-1,-1,36,38,40,42,-1,44,46,-1,48,-1,50,52,54,56,58,-1,-1,-1,-1,-1,-1,-1,60,-1,62,64,66,68,-1,-1,-1,-1,-1,-1,-1,-1,-1,-1,-1,-1,-1,-1,-1,-1],"split_conditions":[2.1189E2,6.878E1,5.83635E2,2.9125E1,1.26435E2,3.60825E2,1.1343201E3,1.3440001E1,4.5985E1,9.549E1,1.6379001E2,2.6778E2,1.1779107E1,1.8999537E1,3.865678E1,6.855E0,2.0315E1,3.7295E1,5.7199997E1,9.4895004E1,2.9436924E0,3.7802913E0,5.0190253E0,6.230267E0,8.161183E0,3.24E0,1.0005E1,1.6735E1,2.4060001E1,8.761906E-1,4.1605E1,2.79338E3,1.6913134E0,8.3745E1,6.099463E-1,1.46E0,4.7475E0,8.385E0,1.154E1,-1.7904999E1,4.8443207E-1,5.807864E-1,7.016258E-1,1.0295888E0,1.172664E0,1.3724247E0,5.728519E-1,7.6779004E2,2.4053738E0,4.4125E-1,3.9647E2,4.025E0,5.9449997E0,1.8985717E-1,2.3628749E-1,2.7612418E-1,3.2028347E-1,6.929952E-2,3.9088026E-1,2.037555E0,7.0664567E-1,-1.4678986E-2,1.1742053E-2,4.4675846E-2,2.090556E-1,8.452443E-2,1.0542894E-1,1.308589E-1,1.5617207E-1],"split_indices":[0,0,0,0,0,0,0,0,0,0,0,0,0,0,0,0,0,0,0,0,0,0,0,0,0,0,0,0,0,0,0,8,0,0,0,0,0,0,0,4,0,0,0,0,0,0,0,6,0,0,9,0,0,0,0,0,0,0,0,0,0,0,0,0,0,0,0,0,0],"split_type":[0,0,0,0,0,0,0,0,0,0,0,0,0,0,0,0,0,0,0,0,0,0,0,0,0,0,0,0,0,0,0,0,0,0,0,0,0,0,0,0,0,0,0,0,0,0,0,0,0,0,0,0,0,0,0,0,0,0,0,0,0,0,0,0,0,0,0,0,0],"sum_hessian":[3.354E3,3.209E3,1.45E2,2.593E3,6.16E2,1.33E2,1.2E1,1.727E3,8.66E2,4.02E2,2.14E2,1.05E2,2.8E1,7E0,5E0,9.55E2,7.72E2,5.14E2,3.52E2,2.41E2,1.61E2,1.36E2,7.8E1,4.5E1,6E1,4.75E2,4.8E2,4.21E2,3.51E2,2.57E2,2.57E2,1.7E2,1.82E2,2.39E2,2E0,2.13E2,2.62E2,2.46E2,2.34E2,2.18E2,2.03E2,1.56E2,1.95E2,1.29E2,1.28E2,1.68E2,2E0,1.49E2,9E1,1.03E2,1.1E2,1.04E2,1.58E2,1.06E2,1.4E2,1.16E2,1.18E2,2E0,2.16E2,1.47E2,2E0,2.7E1,7.6E1,1.06E2,4E0,4.6E1,5.8E1,7.9E1,7.9E1],"tree_param":{"num_deleted":"0","num_feature":"14","num_nodes":"69","size_leaf_vector":"0"}},{"base_weights":[2.244736E1,1.6655163E1,1.5942107E2,9.669493E0,4.823585E1,1.2833313E2,4.43689E2,5.239861E0,1.9177961E1,4.0354824E1,6.954896E1,1.127187E2,1.7559703E2,2.8495535E2,5.813857E2,2.8005166E0,8.63114E0,1.5974018E1,2.472461E1,3.4501484E1,4.8151913E1,6.1962357E1,7.89555E1,9.468243E1,1.21515205E2,1.3890538E0,4.2447205E0,7.1561265E0,1.0510317E1,1.4298747E1,1.8281986E1,2.2365063E1,2.661687E1,3.1506435E1,3.797249E1,2.2784664E1,6.2586746E1,5.508151E-1,2.1135945E0,3.5981622E0,4.961615E0,6.356485E0,7.944538E0,9.665075E0,1.141945E1,1.327911E1,1.51503725E1,3.173108E1,1.07455E1,2.2330728E-1,1.1037272E0,1.7246171E0,2.437911E0,3.183684E0,3.8875594E0,4.486281E0,5.2166753E0,2.4188673E0,6.3819823E0,3.4055397E-2,4.7701794E-1,9.5853376E-1,5.0916233E0,1.5120825E0,1.8889138E0,2.457621E0,1.089305E0],"categories":[],"categories_nodes":[],"categories_segments":[],"categories_sizes":[],"default_left":[1,1,1,1,1,1,1,1,1,1,1,1,0,0,0,1,1,1,1,1,0,1,0,0,0,1,1,1,1,1,0,0,0,1,0,0,0,1,1,1,1,1,0,0,0,0,0,0,0,1,1,1,1,0,0,0,0,0,0,0,0,0,0,0,0,0,0],"id":14,"left_children":[1,3,5,7,9,11,13,15,17,19,21,23,-1,-1,-1,25,27,29,31,33,-1,35,-1,-1,-1,37,39,41,43,45,-1,-1,-1,47,-1,-1,-1,49,51,53,55,57,-1,-1,-1,-1,-1,-1,-1,59,61,63,65,-1,-1,-1,-1,-1,-1,-1,-1,-1,-1,-1,-1,-1,-1],"loss_changes":[2.65913E6,7.099052E5,1.1449335E6,1.1100947E5,9.5119375E4,7.171875E4,1.1847325E5,1.4874594E4,1.4497281E4,1.7872188E4,6.2404375E3,3.725625E3,0E0,0E0,0E0,2.1324287E3,2.0119609E3,1.8032812E3,7.665E2,1.3817812E3,0E0,8.000625E2,0E0,0E0,0E0,3.219397E2,2.2224707E2,2.174414E2,1.4244531E2,7.147656E1,0E0,0E0,0E0,3.0729688E2,0E0,0E0,0E0,4.466214E1,3.1748901E1,2.0729248E1,6.057617E0,6.2490234E0,0E0,0E0,0E0,0E0,0E0,0E0,0E0,7.5221453E0,4.8389046E1,1.7880249E0,1.3897705E0,0E0,0E0,0E0,0E0,0E0,0E0,0E0,0E0,0E0,0E0,0E0,0E0,0E0,0E0],"parents":[2147483647,0,0,1,1,2,2,3,3,4,4,5,5,6,6,7,7,8,8,9,9,10,10,11,11,15,15,16,16,17,17,18,18,19,19,21,21,25,25,26,26,27,27,28,28,29,29,33,33,37,37,38,38,39,39,40,40,41,41,49,49,50,50,51,51,52,52],"right_children":[2,4,6,8,10,12,14,16,18,20,22,24,-1,-1,-1,26,28,30,32,34,-1,36,-1,-1,-1,38,40,42,44,46,-1,-1,-1,48,-1,-1,-1,50,52,54,56,58,-1,-1,-1,-1,-1,-1,-1,60,62,64,66,-1,-1,-1,-1,-1,-1,-1,-1,-1,-1,-1,-1,-1,-1],"split_conditions":[2.2148999E2,7.316E1,5.83635E2,3.116E1,1.37695E2,3.60825E2,1.1343201E3,1.4675E1,5.104E1,1.0532E2,1.7734E2,2.6778E2,1.10626135E1,1.7952187E1,3.66273E1,7.5950003E0,2.2165E1,4.1605E1,6.096E1,8.8240005E1,3.0335705E0,-3.2642E2,4.9741964E0,5.964993E0,7.655458E0,3.875E0,1.1135E1,1.7945E1,2.6875E1,3.6E1,1.1517651E0,1.408999E0,1.6768628E0,7.8805005E2,2.3922668E0,1.4354339E0,3.942965E0,2.17E0,5.725E0,9.219999E0,1.2559999E1,-2.2055E1,5.005059E-1,6.088998E-1,7.194253E-1,8.365839E-1,9.544735E-1,1.999058E0,6.769665E-1,1.273E0,4.9241498E2,4.7025E0,5.785E0,2.005721E-1,2.4491625E-1,2.826357E-1,3.2865053E-1,1.5238865E-1,4.020649E-1,2.1454901E-3,3.0052131E-2,6.0387626E-2,3.2077226E-1,9.5261194E-2,1.1900157E-1,1.5483013E-1,6.862622E-2],"split_indices":[0,0,0,0,0,0,0,0,0,0,0,0,0,0,0,0,0,0,0,0,0,10,0,0,0,0,0,0,0,0,0,0,0,6,0,0,0,0,0,0,0,4,0,0,0,0,0,0,0,0,9,0,2,0,0,0,0,0,0,0,0,0,0,0,0,0,0],"split_type":[0,0,0,0,0,0,0,0,0,0,0,0,0,0,0,0,0,0,0,0,0,0,0,0,0,0,0,0,0,0,0,0,0,0,0,0,0,0,0,0,0,0,0,0,0,0,0,0,0,0,0,0,0,0,0,0,0,0,0,0,0,0,0,0,0,0,0],"sum_hessian":[3.354E3,3.219E3,1.35E2,2.637E3,5.82E2,1.23E2,1.2E1,1.8E3,8.37E2,4.27E2,1.55E2,9.5E1,2.8E1,7E0,5E0,1.048E3,7.52E2,5.33E2,3.04E2,2.47E2,1.8E2,9E1,6.5E1,3.5E1,6E1,5.31E2,5.17E2,4.24E2,3.28E2,3.13E2,2.2E2,1.41E2,1.63E2,1.38E2,1.09E2,2E0,8.8E1,2.47E2,2.84E2,2.75E2,2.42E2,2.15E2,2.09E2,1.76E2,1.52E2,1.5E2,1.63E2,1.36E2,2E0,1.56E2,9.1E1,1.32E2,1.52E2,1.18E2,1.57E2,9.1E1,1.51E2,2E0,2.13E2,9E1,6.6E1,8.9E1,2E0,6.2E1,7E1,1.49E2,3E0],"tree_param":{"num_deleted":"0","num_feature":"14","num_nodes":"67","size_leaf_vector":"0"}},{"base_weights":[2.1065376E1,1.5656616E1,1.509606E2,9.098426E0,4.551462E1,1.2767535E2,5.01744E2,4.9121323E0,1.8031301E1,3.798992E1,6.5546196E1,1.1199655E2,2.1639714E2,2.6491091E0,8.123647E0,1.5003726E1,2.329537E1,3.255261E1,4.532153E1,5.8190285E1,7.431805E1,9.590328E1,1.258025E2,1.3031431E0,4.002818E0,6.8350444E0,9.997453E0,1.340363E1,1.7170065E1,2.1207289E1,2.5192745E1,2.963029E1,3.570207E1,2.182771E1,5.876866E1,4.903615E-1,1.9594414E0,3.4424303E0,4.7631636E0,6.1010056E0,7.700067E0,9.204095E0,1.0704727E1,1.2367453E1,1.4135771E1,6.980572E0,1.7230148E1,2.9845274E1,1.0294189E1,2.0944399E-1,1.0158277E0,1.6326663E0,2.3270721E0,3.0168347E0,3.7379704E0,6.1314225E0,2.7355175E0,-2.9641923E-2,3.877595E-1,8.5623837E-1,4.9861293E0,1.3994569E0,1.8095815E0,2.3483493E0,1.0378354E0],"categories":[],"categories_nodes":[],"categories_segments":[],"categories_sizes":[],"default_left":[1,1,1,1,1,1,0,1,1,1,1,1,0,1,1,1,1,1,0,1,0,0,0,1,1,1,1,1,1,0,0,1,0,0,0,1,1,1,0,1,0,0,0,0,0,0,0,0,0,1,1,1,1,0,0,0,0,0,0,0,0,0,0,0,0],"id":15,"left_children":[1,3,5,7,9,11,-1,13,15,17,19,21,-1,23,25,27,29,31,-1,33,-1,-1,-1,35,37,39,41,43,45,-1,-1,47,-1,-1,-1,49,51,53,-1,55,-1,-1,-1,-1,-1,-1,-1,-1,-1,57,59,61,63,-1,-1,-1,-1,-1,-1,-1,-1,-1,-1,-1,-1],"loss_changes":[2.3547662E6,6.305002E5,1.0304625E6,9.874808E4,8.493425E4,1.5242775E5,0E0,1.306766E4,1.3085719E4,1.54270625E4,5.8058125E3,1.237525E4,0E0,1.9225083E3,1.728125E3,1.6347656E3,6.780625E2,1.2154531E3,0E0,6.1003125E2,0E0,0E0,0E0,2.828224E2,2.0815234E2,2.3494531E2,7.037109E1,6.338672E1,1.7476562E1,0E0,0E0,2.4980469E2,0E0,0E0,0E0,3.506666E1,3.1519775E1,2.7337646E1,0E0,8.308594E0,0E0,0E0,0E0,0E0,0E0,0E0,0E0,0E0,0E0,6.704832E0,4.8320953E1,4.0276794E0,1.293457E0,0E0,0E0,0E0,0E0,0E0,0E0,0E0,0E0,0E0,0E0,0E0,0E0],"parents":[2147483647,0,0,1,1,2,2,3,3,4,4,5,5,7,7,8,8,9,9,10,10,11,11,13,13,14,14,15,15,16,16,17,17,19,19,23,23,24,24,25,25,26,26,27,27,28,28,31,31,35,35,36,36,37,37,39,39,49,49,50,50,51,51,52,52],"right_children":[2,4,6,8,10,12,-1,14,16,18,20,22,-1,24,26,28,30,32,-1,34,-1,-1,-1,36,38,40,42,44,46,-1,-1,48,-1,-1,-1,50,52,54,-1,56,-1,-1,-1,-1,-1,-1,-1,-1,-1,58,60,62,64,-1,-1,-1,-1,-1,-1,-1,-1,-1,-1,-1,-1],"split_conditions":[2.242E2,7.3845E1,8.67005E2,3.116E1,1.3778E2,4.3006E2,3.160987E1,1.4775E1,5.1395E1,1.06405E2,1.7734E2,2.9222998E2,1.363302E1,7.5950003E0,2.2805E1,4.1605E1,6.1989998E1,8.8240005E1,2.8552563E0,-3.2642E2,4.682037E0,6.041907E0,7.9255576E0,3.7079E0,1.154E1,1.8645E1,2.6875E1,3.561E1,-1.6065E1,1.3360592E0,1.587143E0,7.8805005E2,2.2492304E0,1.3751457E0,3.7024257E0,2.17E0,5.9449997E0,9.385E0,3.0007932E-1,2.111E1,4.8510423E-1,5.79858E-1,6.743978E-1,7.7914953E-1,8.905536E-1,4.3977606E-1,1.0854994E0,1.8802522E0,6.4853394E-1,9.5085E-1,2.478E1,4.7075E0,5.785E0,1.9006059E-1,2.3549214E-1,3.862796E-1,1.723376E-1,-1.8674411E-3,2.442885E-2,5.394302E-2,3.1412616E-1,8.816578E-2,1.14003636E-1,1.4794602E-1,6.538363E-2],"split_indices":[0,0,0,0,0,0,0,0,0,0,0,0,0,0,0,0,0,0,0,10,0,0,0,0,0,0,0,0,4,0,0,6,0,0,0,0,0,0,0,5,0,0,0,0,0,0,0,0,0,0,1,0,2,0,0,0,0,0,0,0,0,0,0,0,0],"split_type":[0,0,0,0,0,0,0,0,0,0,0,0,0,0,0,0,0,0,0,0,0,0,0,0,0,0,0,0,0,0,0,0,0,0,0,0,0,0,0,0,0,0,0,0,0,0,0,0,0,0,0,0,0,0,0,0,0,0,0,0,0,0,0,0,0],"sum_hessian":[3.354E3,3.221E3,1.33E2,2.642E3,5.79E2,1.26E2,7E0,1.8E3,8.42E2,4.23E2,1.56E2,1.09E2,1.7E1,1.057E3,7.43E2,5.37E2,3.05E2,2.46E2,1.77E2,8.9E1,6.7E1,5.4E1,5.5E1,5.31E2,5.26E2,4.43E2,3E2,3.13E2,2.24E2,1.51E2,1.54E2,1.33E2,1.13E2,2E0,8.7E1,2.38E2,2.93E2,3.06E2,2.2E2,2.44E2,1.99E2,1.48E2,1.52E2,1.37E2,1.76E2,2E0,2.22E2,1.31E2,2E0,1.56E2,8.2E1,1.58E2,1.35E2,1.3E2,1.76E2,2.41E2,3E0,6.7E1,8.9E1,8E1,2E0,7.2E1,8.6E1,1.32E2,3E0],"tree_param":{"num_deleted":"0","num_feature":"14","num_nodes":"65","size_leaf_vector":"0"}},{"base_weights":[1.9764055E1,1.41850815E1,1.3108054E2,7.930062E0,3.8720684E1,1.0677814E2,3.9767084E2,4.175531E0,1.5091478E1,3.0632952E1,5.2744415E1,9.1229256E1,1.4513182E2,2.672818E2,5.528369E2,2.2061164E0,6.716561E0,1.2476353E1,1.9297829E1,2.6554136E1,3.5736874E1,4.6063297E1,6.1370102E1,7.659759E1,1.0124714E2,1.2545349E2,1.741219E2,1.0767814E0,3.3331702E0,5.5461936E0,8.11061E0,1.0999673E1,1.3983966E1,1.7406502E1,2.122201E1,2.6655527E1,9.861833E0,6.1867256E1,2.4673084E1,2.0804141E-1,1.5244067E0,2.7813175E0,3.8331263E0,4.9412484E0,6.1031938E0,7.4440336E0,8.846618E0,1.0136212E1,1.1664485E1,6.687389E0,1.7492262E1,2.4615429E1,2.8417864E1,2.9173177E-2,4.368842E-1,1.1389734E0,1.8522443E0,2.479407E0,3.0370216E0,3.5071533E0,4.0564785E0,7.35974E-1,4.980605E0,-2.3366128E-1,1.307332E-1,3.1797922E-1,4.9459386E-1,3.959263E0,1.0521193E0,1.8667697E0,4.3593082E-1],"categories":[],"categories_nodes":[],"categories_segments":[],"categories_sizes":[],"default_left":[1,1,1,1,1,1,1,1,1,1,1,1,1,0,0,1,1,1,1,1,0,0,1,0,0,0,0,1,1,1,1,1,0,1,0,1,0,0,0,1,1,1,1,1,0,0,0,0,0,0,0,0,0,1,1,1,1,0,0,0,0,0,0,0,0,0,0,0,0,0,0],"id":16,"left_children":[1,3,5,7,9,11,13,15,17,19,21,23,25,-1,-1,27,29,31,33,35,-1,-1,37,-1,-1,-1,-1,39,41,43,45,47,-1,49,-1,51,-1,-1,-1,53,55,57,59,61,-1,-1,-1,-1,-1,-1,-1,-1,-1,63,65,67,69,-1,-1,-1,-1,-1,-1,-1,-1,-1,-1,-1,-1,-1,-1],"loss_changes":[2.081702E6,4.9018525E5,9.941425E5,6.8447E4,7.199394E4,7.5020625E4,1.15252125E5,8.357443E3,9.395344E3,7.6696875E3,1.0773625E4,8.075125E3,1.5453125E3,0E0,0E0,1.1979541E3,1.1460469E3,1.0550391E3,8.4610156E2,1.3315625E2,0E0,0E0,2.979375E2,0E0,0E0,0E0,0E0,1.8361835E2,1.1956445E2,1.0462402E2,9.653711E1,4.192578E1,0E0,4.2972656E1,0E0,1.3459375E2,0E0,0E0,0E0,6.6183534E0,3.7314453E1,1.0071533E1,3.611084E0,2.8938965E1,0E0,0E0,0E0,0E0,0E0,0E0,0E0,0E0,0E0,2.486347E0,3.299284E-1,3.1597626E1,2.6218872E0,0E0,0E0,0E0,0E0,0E0,0E0,0E0,0E0,0E0,0E0,0E0,0E0,0E0,0E0],"parents":[2147483647,0,0,1,1,2,2,3,3,4,4,5,5,6,6,7,7,8,8,9,9,10,10,11,11,12,12,15,15,16,16,17,17,18,18,19,19,22,22,27,27,28,28,29,29,30,30,31,31,33,33,35,35,39,39,40,40,41,41,42,42,43,43,53,53,54,54,55,55,56,56],"right_children":[2,4,6,8,10,12,14,16,18,20,22,24,26,-1,-1,28,30,32,34,36,-1,-1,38,-1,-1,-1,-1,40,42,44,46,48,-1,50,-1,52,-1,-1,-1,54,56,58,60,62,-1,-1,-1,-1,-1,-1,-1,-1,-1,64,66,68,70,-1,-1,-1,-1,-1,-1,-1,-1,-1,-1,-1,-1,-1,-1],"split_conditions":[2.0420999E2,6.5635E1,5.83635E2,2.744E1,1.19100006E2,3.2991498E2,1.20689E3,1.3275E1,4.4945E1,8.876E1,1.4559E2,2.4601999E2,4.1421002E2,1.6838753E1,3.4828728E1,6.775E0,1.9654999E1,3.6E1,5.472E1,7.8805005E2,2.2514231E0,2.9019878E0,1.11205E2,4.8256483E0,6.37857E0,7.90357E0,1.096968E1,2.3375E0,9.725E0,1.6205E1,2.3529999E1,3.116E1,8.8098985E-1,-1.5705E1,1.3369867E0,7.58E1,6.2129545E-1,3.8976371E0,1.5544044E0,1.277E0,4.6025E0,8.385E0,1.11E1,-1.7904999E1,3.8450122E-1,4.689741E-1,5.573369E-1,6.385814E-1,7.3486257E-1,4.213055E-1,1.1020125E0,1.5507721E0,1.7903254E0,3.613E-1,1.6075001E0,2.38E0,6.745E0,1.5620264E-1,1.9133237E-1,2.2095066E-1,2.5555816E-1,4.6366364E-2,3.1377813E-1,-1.4720661E-2,8.236192E-3,2.003269E-2,3.1159414E-2,2.4943358E-1,6.628352E-2,1.1760649E-1,2.7463643E-2],"split_indices":[0,0,0,0,0,0,0,0,0,0,0,0,0,0,0,0,0,0,0,6,0,0,1,0,0,0,0,0,0,0,0,0,0,4,0,0,0,0,0,0,0,0,0,4,0,0,0,0,0,0,0,0,0,0,0,0,0,0,0,0,0,0,0,0,0,0,0,0,0,0,0],"split_type":[0,0,0,0,0,0,0,0,0,0,0,0,0,0,0,0,0,0,0,0,0,0,0,0,0,0,0,0,0,0,0,0,0,0,0,0,0,0,0,0,0,0,0,0,0,0,0,0,0,0,0,0,0,0,0,0,0,0,0,0,0,0,0,0,0,0,0,0,0,0,0],"sum_hessian":[3.354E3,3.195E3,1.59E2,2.547E3,6.48E2,1.47E2,1.2E1,1.672E3,8.75E2,4.13E2,2.35E2,1.07E2,4E1,8E0,4E0,9.43E2,7.29E2,5.42E2,3.33E2,2.33E2,1.8E2,1.36E2,9.9E1,4.7E1,6E1,2.7E1,1.3E1,4.72E2,4.71E2,3.99E2,3.3E2,2.78E2,2.64E2,1.73E2,1.6E2,2.31E2,2E0,9.7E1,2E0,1.61E2,3.11E2,2.27E2,2.44E2,1.96E2,2.03E2,1.79E2,1.51E2,1.28E2,1.5E2,2E0,1.71E2,1.14E2,1.17E2,9.1E1,7E1,1.45E2,1.66E2,1.09E2,1.18E2,1.06E2,1.38E2,2E0,1.94E2,2.5E1,6.6E1,2.5E1,4.5E1,3E0,1.42E2,1.64E2,2E0],"tree_param":{"num_deleted":"0","num_feature":"14","num_nodes":"71","size_leaf_vector":"0"}},{"base_weights":[1.8550076E1,1.3948957E1,1.3832642E2,8.117423E0,4.1169003E1,1.15808754E2,4.5035645E2,4.316768E0,1.6039627E1,3.442984E1,6.0504448E1,1.0143611E2,1.9438689E2,2.400482E0,7.251159E0,1.3177818E1,2.071329E1,2.9503347E1,4.129909E1,5.2604042E1,6.671757E1,9.0222496E1,1.1694948E2,1.179584E0,3.6214554E0,6.1080613E0,8.7879095E0,1.1914469E1,1.5374405E1,1.8954384E1,2.2804724E1,2.6766638E1,3.2361107E1,5.3326527E1,1.8933882E1,4.528022E-1,1.7764584E0,3.0799243E0,4.2867613E0,5.5037003E0,6.823748E0,8.086986E0,9.413072E0,1.10742855E1,1.2769008E1,6.406519E0,1.5434768E1,1.952108E-1,9.2725056E-1,1.4685409E0,2.0954838E0,2.7454023E0,3.3524535E0,3.9262772E0,4.517134E0,5.5340586E0,2.420103E0,9.932807E-3,3.8974422E-1,7.84956E-1,4.6498466E0,1.2817177E0,1.6057026E0,2.1140227E0,9.1347945E-1],"categories":[],"categories_nodes":[],"categories_segments":[],"categories_sizes":[],"default_left":[1,1,1,1,1,1,0,1,1,1,1,1,0,1,1,1,1,1,0,1,0,0,0,1,1,1,1,1,1,0,0,0,0,0,0,1,1,1,1,1,0,0,0,0,0,0,0,1,1,1,1,0,0,0,0,0,0,0,0,0,0,0,0,0,0],"id":17,"left_children":[1,3,5,7,9,11,-1,13,15,17,19,21,-1,23,25,27,29,31,-1,33,-1,-1,-1,35,37,39,41,43,45,-1,-1,-1,-1,-1,-1,47,49,51,53,55,-1,-1,-1,-1,-1,-1,-1,57,59,61,63,-1,-1,-1,-1,-1,-1,-1,-1,-1,-1,-1,-1,-1,-1],"loss_changes":[1.8470284E6,5.12696E5,8.19092E5,8.011255E4,7.21905E4,1.12419125E5,0E0,1.0109855E4,1.1269781E4,1.3164094E4,3.6569375E3,7.0185625E3,0E0,1.6220645E3,1.1953086E3,1.3097969E3,7.67E2,1.0968281E3,0E0,6.688281E2,0E0,0E0,0E0,2.3648285E2,1.8315186E2,1.4021484E2,5.5771484E1,1.0700391E2,5.5898438E0,0E0,0E0,0E0,0E0,0E0,0E0,3.0128025E1,2.63927E1,1.8510986E1,2.3618164E0,7.95166E0,0E0,0E0,0E0,0E0,0E0,0E0,0E0,5.8350563E0,4.2434433E1,1.9394226E0,1.2462769E0,0E0,0E0,0E0,0E0,0E0,0E0,0E0,0E0,0E0,0E0,0E0,0E0,0E0,0E0],"parents":[2147483647,0,0,1,1,2,2,3,3,4,4,5,5,7,7,8,8,9,9,10,10,11,11,13,13,14,14,15,15,16,16,17,17,19,19,23,23,24,24,25,25,26,26,27,27,28,28,35,35,36,36,37,37,38,38,39,39,47,47,48,48,49,49,50,50],"right_children":[2,4,6,8,10,12,-1,14,16,18,20,22,-1,24,26,28,30,32,-1,34,-1,-1,-1,36,38,40,42,44,46,-1,-1,-1,-1,-1,-1,48,50,52,54,56,-1,-1,-1,-1,-1,-1,-1,58,60,62,64,-1,-1,-1,-1,-1,-1,-1,-1,-1,-1,-1,-1,-1,-1],"split_conditions":[2.36E2,7.58E1,8.67005E2,3.116E1,1.4392E2,4.4981E2,2.8372456E1,1.5355E1,5.1395E1,1.0955E2,1.7734E2,3.1383502E2,1.2246374E1,7.8100004E0,2.2805E1,4.2864998E1,6.3435E1,9.0435E1,2.6018429E0,9.85E1,4.203207E0,5.684017E0,7.3678174E0,3.875E0,1.1655E1,1.9064999E1,2.6875E1,3.7145E1,-1.6065E1,1.1941262E0,1.4366976E0,1.6862983E0,2.0387497E0,3.3595712E0,1.1928346E0,2.3375E0,6.035E0,9.615E0,1.3360001E1,2.111E1,4.2989615E-1,5.094801E-1,5.9302354E-1,6.9768E-1,8.044475E-1,4.036107E-1,9.7239035E-1,1.2574999E0,4.9241498E2,4.7475E0,5.785E0,1.7296036E-1,2.1120457E-1,2.4735546E-1,2.8457946E-1,3.486457E-1,1.5246649E-1,6.257668E-4,2.4553886E-2,4.9452227E-2,2.9294035E-1,8.0748215E-2,1.0115927E-1,1.3318343E-1,5.7549205E-2],"split_indices":[0,0,0,0,0,0,0,0,0,0,0,0,0,0,0,0,0,0,0,7,0,0,0,0,0,0,0,0,4,0,0,0,0,0,0,0,0,0,0,5,0,0,0,0,0,0,0,0,9,0,2,0,0,0,0,0,0,0,0,0,0,0,0,0,0],"split_type":[0,0,0,0,0,0,0,0,0,0,0,0,0,0,0,0,0,0,0,0,0,0,0,0,0,0,0,0,0,0,0,0,0,0,0,0,0,0,0,0,0,0,0,0,0,0,0,0,0,0,0,0,0,0,0,0,0,0,0,0,0,0,0,0,0],"sum_hessian":[3.354E3,3.231E3,1.23E2,2.662E3,5.69E2,1.16E2,7E0,1.8E3,8.62E2,4.24E2,1.45E2,1E2,1.6E1,1.09E3,7.1E2,5.37E2,3.25E2,2.5E2,1.74E2,6.8E1,7.7E1,6.2E1,3.8E1,5.46E2,5.44E2,4.1E2,3E2,3.45E2,1.92E2,1.82E2,1.43E2,1.33E2,1.17E2,6.6E1,2E0,2.47E2,2.99E2,3.03E2,2.41E2,2.27E2,1.83E2,1.48E2,1.52E2,1.81E2,1.64E2,2E0,1.9E2,1.61E2,8.6E1,1.55E2,1.44E2,1.41E2,1.62E2,1.01E2,1.4E2,2.24E2,3E0,8.3E1,7.8E1,8.4E1,2E0,7E1,8.5E1,1.41E2,3E0],"tree_param":{"num_deleted":"0","num_feature":"14","num_nodes":"65","size_leaf_vector":"0"}},{"base_weights":[1.7404655E1,1.3186593E1,1.3300366E2,7.60948E0,3.8948166E1,1.1209396E2,4.4855817E2,4.040746E0,1.5022824E1,3.2275646E1,5.7348648E1,9.710308E1,1.9015463E2,2.2507696E0,6.78944E0,1.2475931E1,1.965818E1,2.7889193E1,3.9086464E1,4.981522E1,6.367934E1,8.659734E1,1.1151499E2,1.0831412E0,3.372349E0,5.7433944E0,8.255009E0,1.1158881E1,1.4559379E1,1.802787E1,2.1402637E1,2.5262785E1,3.0786587E1,1.7456932E1,5.0471603E1,3.8633087E-1,1.6136466E0,2.8649328E0,4.0188932E0,5.11237E0,6.3649173E0,7.602342E0,8.810427E0,1.0383706E1,1.1984799E1,6.1374454E0,1.460988E1,2.5400112E1,1.0387444E1,1.3559403E-1,7.6232624E-1,1.2707969E0,1.8693755E0,2.4703045E0,3.085646E0,3.693997E0,4.24496E0,1.8204092E0,5.1350536E0,8.858475E0,3.4712162E0,-1.8452474E-1,2.2748682E-1,6.288386E-1,4.557342E0,1.0990878E0,1.3742552E0,1.6820458E0,2.0371463E0],"categories":[],"categories_nodes":[],"categories_segments":[],"categories_sizes":[],"default_left":[1,1,1,1,1,1,0,1,1,1,1,1,0,1,1,1,1,1,0,1,0,0,0,1,1,1,1,1,1,0,0,1,0,0,0,1,1,1,1,1,0,0,1,0,0,0,0,0,0,1,1,1,1,0,0,0,0,0,0,0,0,0,0,0,0,0,0,0,0],"id":18,"left_children":[1,3,5,7,9,11,-1,13,15,17,19,21,-1,23,25,27,29,31,-1,33,-1,-1,-1,35,37,39,41,43,45,-1,-1,47,-1,-1,-1,49,51,53,55,57,-1,-1,59,-1,-1,-1,-1,-1,-1,61,63,65,67,-1,-1,-1,-1,-1,-1,-1,-1,-1,-1,-1,-1,-1,-1,-1,-1],"loss_changes":[1.634157E6,4.6492394E5,7.283006E5,7.039228E4,6.8868875E4,1.1259775E5,0E0,8.835975E3,9.966734E3,1.16069375E4,4.0769375E3,4.87825E3,0E0,1.4251079E3,1.0395234E3,1.3769219E3,4.815703E2,1.2159844E3,0E0,6.906406E2,0E0,0E0,0E0,1.9751526E2,1.708916E2,1.3100488E2,3.9234375E1,9.835156E1,1.3515625E0,0E0,0E0,2.8273438E1,0E0,0E0,0E0,2.1862915E1,2.4278015E1,1.9813965E1,2.0935059E0,6.48291E0,0E0,0E0,8.245117E0,0E0,0E0,0E0,0E0,0E0,0E0,4.1897187E0,4.4246815E1,8.522949E-1,1.979126E0,0E0,0E0,0E0,0E0,0E0,0E0,0E0,0E0,0E0,0E0,0E0,0E0,0E0,0E0,0E0,0E0],"parents":[2147483647,0,0,1,1,2,2,3,3,4,4,5,5,7,7,8,8,9,9,10,10,11,11,13,13,14,14,15,15,16,16,17,17,19,19,23,23,24,24,25,25,26,26,27,27,28,28,31,31,35,35,36,36,37,37,38,38,39,39,42,42,49,49,50,50,51,51,52,52],"right_children":[2,4,6,8,10,12,-1,14,16,18,20,22,-1,24,26,28,30,32,-1,34,-1,-1,-1,36,38,40,42,44,46,-1,-1,48,-1,-1,-1,50,52,54,56,58,-1,-1,60,-1,-1,-1,-1,-1,-1,62,64,66,68,-1,-1,-1,-1,-1,-1,-1,-1,-1,-1,-1,-1,-1,-1,-1,-1],"split_conditions":[2.4147E2,7.58E1,1.045495E3,3.1064999E1,1.4392E2,4.58215E2,2.8259165E1,1.5355E1,5.309E1,1.11585E2,1.79345E2,3.20245E2,1.1979742E1,7.6549997E0,2.3005001E1,4.2864998E1,6.357E1,9.1945E1,2.4624472E0,-2.6966E2,4.0117984E0,5.4556327E0,7.0254445E0,3.5875E0,1.1655E1,1.8645E1,2.684E1,3.7295E1,-1.6065E1,1.1357559E0,1.3483661E0,1.3965E1,1.939555E0,1.0997868E0,3.179711E0,1.8425E0,5.43E0,9.280001E0,1.3440001E1,-2.2055E1,4.009898E-1,4.7894755E-1,3.1005001E1,6.541735E-1,7.550424E-1,3.8665906E-1,9.204225E-1,1.6002071E0,6.5440893E-1,5.3255E-1,2.493E1,4.29425E0,6.475E0,1.5562919E-1,1.9439569E-1,2.327218E-1,2.6743248E-1,1.1468578E-1,3.2350838E-1,5.580839E-1,2.1868663E-1,-1.1625059E-2,1.433167E-2,3.961683E-2,2.8711256E-1,6.924254E-2,8.657808E-2,1.05968885E-1,1.2834021E-1],"split_indices":[0,0,0,0,0,0,0,0,0,0,0,0,0,0,0,0,0,0,0,8,0,0,0,0,0,0,0,0,4,0,0,4,0,0,0,0,0,0,0,4,0,0,0,0,0,0,0,0,0,0,1,0,0,0,0,0,0,0,0,0,0,0,0,0,0,0,0,0,0],"split_type":[0,0,0,0,0,0,0,0,0,0,0,0,0,0,0,0,0,0,0,0,0,0,0,0,0,0,0,0,0,0,0,0,0,0,0,0,0,0,0,0,0,0,0,0,0,0,0,0,0,0,0,0,0,0,0,0,0,0,0,0,0,0,0,0,0,0,0,0,0],"sum_hessian":[3.354E3,3.237E3,1.17E2,2.662E3,5.75E2,1.11E2,6E0,1.798E3,8.64E2,4.24E2,1.51E2,9.5E1,1.6E1,1.09E3,7.08E2,5.6E2,3.04E2,2.61E2,1.63E2,7.3E1,7.8E1,5.9E1,3.6E1,5.35E2,5.55E2,4.16E2,2.92E2,3.47E2,2.13E2,1.63E2,1.41E2,1.42E2,1.19E2,2E0,7.1E1,2.32E2,3.03E2,3.14E2,2.41E2,2.11E2,2.05E2,1.41E2,1.51E2,1.86E2,1.61E2,2E0,2.11E2,1.4E2,2E0,1.4E2,9.2E1,1.32E2,1.71E2,1.17E2,1.97E2,1.06E2,1.35E2,2E0,2.09E2,1.49E2,2E0,3.1E1,1.09E2,9E1,2E0,5.4E1,7.8E1,8.6E1,8.5E1],"tree_param":{"num_deleted":"0","num_feature":"14","num_nodes":"69","size_leaf_vector":"0"}},{"base_weights":[1.6330975E1,1.2058919E1,1.17358086E2,6.816184E0,3.4165928E1,9.327641E1,3.380326E2,3.5878146E0,1.316944E1,2.7161037E1,4.75158E1,8.288148E1,1.3313528E2,2.3384537E2,5.139925E2,1.9184988E0,5.840484E0,1.0763257E1,1.6848648E1,2.3616756E1,3.2164383E1,4.214381E1,5.650363E1,6.8260666E1,8.960068E1,8.9155513E-1,2.8528829E0,4.786428E0,7.031165E0,9.595525E0,1.2203209E1,1.4879946E1,1.8376377E1,2.1598413E1,2.5393866E1,4.2405476E1,1.640803E1,3.1431842E-1,1.3596357E0,2.3693604E0,3.3537965E0,4.219949E0,5.245331E0,6.4345555E0,7.689002E0,8.853174E0,1.0176836E1,1.4955674E1,6.0325837E0,2.206456E1,1.4973447E1,2.5565527E1,1.0005534E1,1.6334746E0,2.484361E-1,1.1153518E0,1.5881865E0,2.0673687E0,2.589663E0,3.1039815E0,3.622078E0,4.251498E0,1.7609949E0,-6.0369045E-1,1.850211E1,2.0859939E-1,4.88865E0,3.511349E-2,4.434875E-1,9.375236E-1,1.2047544E0,1.6045288E0,3.451786E-1],"categories":[],"categories_nodes":[],"categories_segments":[],"categories_sizes":[],"default_left":[1,1,1,1,1,1,1,1,1,1,1,1,0,0,0,1,1,1,1,1,0,1,0,0,0,1,1,1,1,1,0,1,0,1,1,0,0,1,1,1,1,1,0,0,0,0,0,0,0,0,1,0,0,1,1,1,1,0,0,0,0,0,0,0,0,0,0,0,0,0,0,0,0],"id":19,"left_children":[1,3,5,7,9,11,13,15,17,19,21,23,-1,-1,-1,25,27,29,31,33,-1,35,-1,-1,-1,37,39,41,43,45,-1,47,-1,49,51,-1,-1,53,55,57,59,61,-1,-1,-1,-1,-1,-1,-1,-1,63,-1,-1,65,67,69,71,-1,-1,-1,-1,-1,-1,-1,-1,-1,-1,-1,-1,-1,-1,-1,-1],"loss_changes":[1.4465806E6,3.7296894E5,6.91202E5,5.33625E4,5.6407812E4,4.0342625E4,1.181315E5,6.486795E3,7.5825938E3,6.4578125E3,7.8063125E3,3.8060625E3,0E0,0E0,0E0,9.512593E2,8.888047E2,7.791328E2,7.642031E2,3.1954688E2,0E0,2.2007812E2,0E0,0E0,0E0,1.2791443E2,1.1799902E2,8.00293E1,8.514258E1,3.893164E1,0E0,1.4296875E1,0E0,4.0203125E1,6.9125E1,0E0,0E0,1.8192732E1,1.2856384E1,1.2476196E1,5.713623E0,6.555176E0,0E0,0E0,0E0,0E0,0E0,0E0,0E0,0E0,6.1580054E2,0E0,0E0,4.5362415E1,8.514247E0,9.3730164E-1,2.1478577E0,0E0,0E0,0E0,0E0,0E0,0E0,0E0,0E0,0E0,0E0,0E0,0E0,0E0,0E0,0E0,0E0],"parents":[2147483647,0,0,1,1,2,2,3,3,4,4,5,5,6,6,7,7,8,8,9,9,10,10,11,11,15,15,16,16,17,17,18,18,19,19,21,21,25,25,26,26,27,27,28,28,29,29,31,31,33,33,34,34,37,37,38,38,39,39,40,40,41,41,50,50,53,53,54,54,55,55,56,56],"right_children":[2,4,6,8,10,12,14,16,18,20,22,24,-1,-1,-1,26,28,30,32,34,-1,36,-1,-1,-1,38,40,42,44,46,-1,48,-1,50,52,-1,-1,54,56,58,60,62,-1,-1,-1,-1,-1,-1,-1,-1,64,-1,-1,66,68,70,72,-1,-1,-1,-1,-1,-1,-1,-1,-1,-1,-1,-1,-1,-1,-1,-1],"split_conditions":[2.2148999E2,6.939E1,5.83635E2,2.9125E1,1.27975E2,3.79505E2,1.25502E3,1.3925E1,4.7155E1,9.797E1,1.68315E2,2.6778E2,8.387523E0,1.4732259E1,3.2381527E1,6.8450003E0,2.0494999E1,3.836E1,5.7335E1,8.084E1,2.0263562E0,1.1308E2,3.5597289E0,4.300422E0,5.6448426E0,3.24E0,1.0285E1,1.6735E1,2.495E1,3.343E1,7.6880217E-1,2.79338E3,1.1577117E0,3.91825E1,2.7378E2,2.671545E0,1.0337058E0,-9.11845E2,5.16E0,8.46E0,1.225E1,2.0305E1,3.3045584E-1,4.05377E-1,4.8440713E-1,5.5775E-1,6.411407E-1,9.422075E-1,3.8005278E-1,1.3900673E0,7.1955E1,1.6106282E0,6.303487E-1,1.71E0,1.3575001E0,4.0525E0,5.785E0,1.3024424E-1,1.6314878E-1,1.9555084E-1,2.2819091E-1,2.6784438E-1,1.10942684E-1,-3.80325E-2,1.165633E0,1.31417615E-2,3.0798495E-1,2.21215E-3,2.7939713E-2,5.906399E-2,7.589953E-2,1.0108531E-1,2.1746252E-2],"split_indices":[0,0,0,0,0,0,0,0,0,0,0,0,0,0,0,0,0,0,0,0,0,6,0,0,0,0,0,0,0,0,0,8,0,3,7,0,0,10,0,0,0,5,0,0,0,0,0,0,0,0,0,0,0,0,0,0,2,0,0,0,0,0,0,0,0,0,0,0,0,0,0,0,0],"split_type":[0,0,0,0,0,0,0,0,0,0,0,0,0,0,0,0,0,0,0,0,0,0,0,0,0,0,0,0,0,0,0,0,0,0,0,0,0,0,0,0,0,0,0,0,0,0,0,0,0,0,0,0,0,0,0,0,0,0,0,0,0,0,0,0,0,0,0,0,0,0,0,0,0],"sum_hessian":[3.354E3,3.219E3,1.35E2,2.603E3,6.16E2,1.23E2,1.2E1,1.727E3,8.76E2,4.06E2,2.1E2,1E2,2.3E1,9E0,3E0,9.93E2,7.34E2,5.32E2,3.44E2,2.41E2,1.65E2,1.35E2,7.5E1,3.5E1,6.5E1,4.74E2,5.19E2,3.92E2,3.42E2,2.98E2,2.34E2,1.55E2,1.89E2,1.19E2,1.22E2,1.33E2,2E0,2.13E2,2.61E2,2.67E2,2.52E2,1.8E2,2.12E2,1.85E2,1.57E2,1.38E2,1.6E2,1.53E2,2E0,1.09E2,1E1,1.2E2,2E0,9E0,2.04E2,1.29E2,1.32E2,1.17E2,1.5E2,1.37E2,1.15E2,1.77E2,3E0,2E0,8E0,7E0,2E0,9.8E1,1.06E2,4.7E1,8.2E1,1.3E2,2E0],"tree_param":{"num_deleted":"0","num_feature":"14","num_nodes":"73","size_leaf_vector":"0"}},{"base_weights":[1.5328015E1,1.1590413E1,1.1776045E2,6.8991327E0,3.5279446E1,1.0012855E2,4.3020126E2,3.6807756E0,1.3819188E1,2.917807E1,5.060229E1,8.580356E1,1.7597536E2,2.0265884E0,6.209132E0,1.1343088E1,1.7946682E1,2.5336634E1,3.4595337E1,4.467238E1,5.6825874E1,7.546892E1,9.807845E1,9.9534357E-1,3.052373E0,5.189009E0,7.536631E0,9.990648E0,1.2986376E1,1.6252571E1,1.9401451E1,2.3347965E1,2.7756708E1,1.5246432E1,4.5217445E1,4.0232658E-1,1.5059738E0,2.5712252E0,3.5898187E0,4.637497E0,5.755863E0,6.9199557E0,8.090786E0,9.45179E0,1.06792555E1,5.496721E0,1.3026218E1,6.835031E0,1.6331518E1,2.3685154E1,9.538205E-1,1.5722112E-1,7.9934436E-1,1.2341145E0,1.7556969E0,2.3370833E0,2.8346667E0,3.2590997E0,3.7706902E0,1.594149E0,4.65849E0,2.3840673E1,9.15463E0,-1.5362607E-1,2.4409734E-1,6.8488747E-1,4.2336683E0,1.077617E0,1.3239936E0,1.7712239E0,7.306284E-1],"categories":[],"categories_nodes":[],"categories_segments":[],"categories_sizes":[],"default_left":[1,1,1,1,1,1,0,1,1,1,1,1,0,1,1,1,1,1,0,1,0,0,0,1,1,1,1,1,1,1,0,1,0,0,0,1,1,1,1,1,0,0,0,0,0,1,1,0,0,1,0,1,1,1,1,0,0,0,0,0,0,0,0,0,0,0,0,0,0,0,0],"id":20,"left_children":[1,3,5,7,9,11,-1,13,15,17,19,21,-1,23,25,27,29,31,-1,33,-1,-1,-1,35,37,39,41,43,-1,47,-1,49,-1,-1,-1,51,53,55,57,59,-1,-1,-1,-1,-1,-1,-1,-1,-1,61,-1,63,65,67,69,-1,-1,-1,-1,-1,-1,-1,-1,-1,-1,-1,-1,-1,-1,-1,-1],"loss_changes":[1.2831025E6,3.5960162E5,6.069779E5,6.0170492E4,4.8540875E4,1.0767575E5,0E0,7.7122617E3,8.565266E3,7.1353438E3,3.0341562E3,4.90325E3,0E0,1.1796211E3,9.4946875E2,1.0681562E3,4.7332812E2,4.540625E2,0E0,6.258125E2,0E0,0E0,0E0,1.6866626E2,1.3558105E2,1.0336035E2,5.1660156E1,1.0380859E1,1.5625E-2,2.8710938E0,0E0,9.741406E2,0E0,0E0,0E0,2.5175251E1,1.8200134E1,1.1818115E1,3.3830566E0,6.3740234E0,0E0,0E0,0E0,0E0,0E0,0E0,0E0,0E0,0E0,7.5515625E1,0E0,4.412346E0,3.601553E1,6.409149E-1,1.1570129E0,0E0,0E0,0E0,0E0,0E0,0E0,0E0,0E0,0E0,0E0,0E0,0E0,0E0,0E0,0E0,0E0],"parents":[2147483647,0,0,1,1,2,2,3,3,4,4,5,5,7,7,8,8,9,9,10,10,11,11,13,13,14,14,15,15,16,16,17,17,19,19,23,23,24,24,25,25,26,26,27,27,28,28,29,29,31,31,35,35,36,36,37,37,38,38,39,39,49,49,51,51,52,52,53,53,54,54],"right_children":[2,4,6,8,10,12,-1,14,16,18,20,22,-1,24,26,28,30,32,-1,34,-1,-1,-1,36,38,40,42,44,-1,48,-1,50,-1,-1,-1,52,54,56,58,60,-1,-1,-1,-1,-1,-1,-1,-1,-1,62,-1,64,66,68,70,-1,-1,-1,-1,-1,-1,-1,-1,-1,-1,-1,-1,-1,-1,-1,-1],"split_conditions":[2.4147E2,7.9005005E1,1.1343201E3,3.289E1,1.4404E2,4.724E2,2.710268E1,1.591E1,5.461E1,1.1295E2,1.84555E2,3.1383502E2,1.1086448E1,8E0,2.4060001E1,4.2864998E1,6.487E1,9.549E1,2.1795063E0,-3.2642E2,3.5800302E0,4.754542E0,6.1789427E0,4.025E0,1.1765E1,1.939E1,2.807E1,3.828E1,8.181417E-1,-1.1190001E1,1.2222915E0,9.4895004E1,1.7486726E0,9.605253E-1,2.848699E0,2.3375E0,6.065E0,1.0005E1,1.3440001E1,-4.837E1,3.626194E-1,4.3595722E-1,5.0971955E-1,5.954628E-1,6.727931E-1,3.4629342E-1,8.2065177E-1,4.3060696E-1,1.0288856E0,2.0855E2,6.0090695E-2,5.9705E-1,4.9954498E2,4.7475E0,5.785E0,1.4723626E-1,1.7858401E-1,2.0532328E-1,2.3755349E-1,1.0043139E-1,2.934849E-1,1.5019624E0,5.767417E-1,-9.678443E-3,1.5378132E-2,4.314791E-2,2.667211E-1,6.788988E-2,8.34116E-2,1.1158711E-1,4.6029586E-2],"split_indices":[0,0,0,0,0,0,0,0,0,0,0,0,0,0,0,0,0,0,0,10,0,0,0,0,0,0,0,0,4,4,0,0,0,0,0,0,0,0,0,6,0,0,0,0,0,2147483647,2147483647,0,0,1,0,0,9,0,2,0,0,0,0,0,0,0,0,0,0,0,0,0,0,0,0],"split_type":[0,0,0,0,0,0,0,0,0,0,0,0,0,0,0,0,0,0,0,0,0,0,0,0,0,0,0,0,0,0,0,0,0,0,0,0,0,0,0,0,0,0,0,0,0,0,0,0,0,0,0,0,0,0,0,0,0,0,0,0,0,0,0,0,0,0,0,0,0,0,0],"sum_hessian":[3.354E3,3.237E3,1.17E2,2.703E3,5.34E2,1.12E2,5E0,1.846E3,8.57E2,3.84E2,1.5E2,9.6E1,1.6E1,1.117E3,7.29E2,5.38E2,3.19E2,2.28E2,1.56E2,8.1E1,6.9E1,5.6E1,4E1,5.58E2,5.59E2,4.15E2,3.14E2,2.99E2,2.39E2,1.53E2,1.66E2,1.31E2,9.7E1,2E0,7.9E1,2.59E2,2.99E2,2.98E2,2.61E2,2.15E2,2E2,1.55E2,1.59E2,1.76E2,1.23E2,2E0,2.37E2,2E0,1.51E2,1.29E2,2E0,1.61E2,9.8E1,1.46E2,1.53E2,1.63E2,1.35E2,9.9E1,1.62E2,2E0,2.13E2,1.27E2,2E0,3.5E1,1.26E2,9.6E1,2E0,5.8E1,8.8E1,1.5E2,3E0],"tree_param":{"num_deleted":"2","num_feature":"14","num_nodes":"71","size_leaf_vector":"0"}},{"base_weights":[1.4383347E1,1.0943427E1,1.12978714E2,6.467396E0,3.333647E1,9.5563896E1,4.076157E2,3.4990296E0,1.306156E1,2.7355612E1,4.788324E1,8.2034546E1,1.6823047E2,1.9001595E0,5.880923E0,1.0738095E1,1.6853706E1,2.3757402E1,3.2429718E1,4.2225792E1,5.423059E1,7.229359E1,9.366834E1,9.12646E-1,2.8411903E0,4.86392E0,7.130001E0,9.461444E0,1.2215534E1,1.5096661E1,1.805779E1,2.1340195E1,2.5498009E1,4.2717903E1,1.4207334E1,3.1998053E-1,1.3481331E0,2.3806283E0,3.354736E0,4.316078E0,5.3657784E0,6.55624E0,7.7202654E0,4.9512925E0,1.2255944E1,2.155537E1,7.05432E0,9.296359E-2,6.209834E-1,1.1002673E0,1.6100516E0,2.1148124E0,2.5962698E0,3.0346668E0,3.5271902E0,1.4655136E0,4.3370466E0,1.1325677E1,1.2985579E1,-1.7254178E-1,1.7121074E-1,5.069128E-1,4.1402946E0,9.5701474E-1,1.2177005E0,1.6238742E0,6.961062E-1],"categories":[],"categories_nodes":[],"categories_segments":[],"categories_sizes":[],"default_left":[1,1,1,1,1,1,0,1,1,1,1,1,0,1,1,1,1,1,0,1,0,0,0,1,1,1,1,0,1,0,0,1,0,0,0,1,1,1,1,1,0,0,0,0,1,0,0,1,1,1,1,0,0,0,0,0,0,0,0,0,0,0,0,0,0,0,0],"id":21,"left_children":[1,3,5,7,9,11,-1,13,15,17,19,21,-1,23,25,27,29,31,-1,33,-1,-1,-1,35,37,39,41,-1,43,-1,-1,45,-1,-1,-1,47,49,51,53,55,-1,-1,-1,-1,57,-1,-1,59,61,63,65,-1,-1,-1,-1,-1,-1,-1,-1,-1,-1,-1,-1,-1,-1,-1,-1],"loss_changes":[1.1366459E6,3.2483666E5,5.408554E5,5.288211E4,4.5671312E4,9.237744E4,0E0,7.0951855E3,7.2113906E3,6.2587812E3,3.312E3,3.7675625E3,0E0,1.036343E3,9.1678516E2,8.7089453E2,3.9803906E2,4.193672E2,0E0,5.926719E2,0E0,0E0,0E0,1.4074832E2,1.27302734E2,9.121582E1,6.25E1,0E0,9.472656E0,0E0,0E0,1.6148438E2,0E0,0E0,0E0,1.5863802E1,1.8678589E1,1.199231E1,4.0891113E0,5.837158E0,0E0,0E0,0E0,0E0,1.3796875E1,0E0,0E0,2.813396E0,3.8046215E1,1.6103516E0,7.772217E-1,0E0,0E0,0E0,0E0,0E0,0E0,0E0,0E0,0E0,0E0,0E0,0E0,0E0,0E0,0E0,0E0],"parents":[2147483647,0,0,1,1,2,2,3,3,4,4,5,5,7,7,8,8,9,9,10,10,11,11,13,13,14,14,15,15,16,16,17,17,19,19,23,23,24,24,25,25,26,26,28,28,31,31,35,35,36,36,37,37,38,38,39,39,44,44,47,47,48,48,49,49,50,50],"right_children":[2,4,6,8,10,12,-1,14,16,18,20,22,-1,24,26,28,30,32,-1,34,-1,-1,-1,36,38,40,42,-1,44,-1,-1,46,-1,-1,-1,48,50,52,54,56,-1,-1,-1,-1,58,-1,-1,60,62,64,66,-1,-1,-1,-1,-1,-1,-1,-1,-1,-1,-1,-1,-1,-1,-1,-1],"split_conditions":[2.4601999E2,7.9005005E1,1.1343201E3,3.343E1,1.4404E2,4.83595E2,2.5679789E1,1.591E1,5.472E1,1.1295E2,1.8958E2,3.20245E2,1.0598519E1,7.8100004E0,2.4060001E1,4.3125E1,6.357E1,9.1945E1,2.0430722E0,9.85E1,3.4165273E0,4.554496E0,5.901106E0,3.5875E0,1.1665E1,1.9105E1,2.8505001E1,5.96071E-1,-1.6065E1,9.510896E-1,1.1376408E0,9.665E0,1.6063746E0,2.691228E0,8.95062E-1,1.77245E0,5.9449997E0,9.615E0,1.3360001E1,-2.2055E1,3.3804405E-1,4.1304314E-1,4.8637673E-1,3.1193143E-1,4.734E1,1.3579884E0,4.4442216E-1,5.15E-1,2.493E1,4.7075E0,5.785E0,1.3323317E-1,1.6356501E-1,1.9118401E-1,2.2221299E-1,9.232736E-2,2.7323395E-1,7.1351767E-1,8.1809145E-1,-1.0870133E-2,1.0786276E-2,3.193551E-2,2.6083857E-1,6.029193E-2,7.6715134E-2,1.0230408E-1,4.385469E-2],"split_indices":[0,0,0,0,0,0,0,0,0,0,0,0,0,0,0,0,0,0,0,7,0,0,0,0,0,0,0,0,4,0,0,4,0,0,0,0,0,0,0,4,0,0,0,0,0,0,0,0,1,0,2,0,0,0,0,0,0,0,0,0,0,0,0,0,0,0,0],"split_type":[0,0,0,0,0,0,0,0,0,0,0,0,0,0,0,0,0,0,0,0,0,0,0,0,0,0,0,0,0,0,0,0,0,0,0,0,0,0,0,0,0,0,0,0,0,0,0,0,0,0,0,0,0,0,0,0,0,0,0,0,0,0,0,0,0,0,0],"sum_hessian":[3.354E3,3.242E3,1.12E2,2.703E3,5.39E2,1.07E2,5E0,1.865E3,8.38E2,3.84E2,1.55E2,9.2E1,1.5E1,1.117E3,7.48E2,5.22E2,3.16E2,2.28E2,1.56E2,8.6E1,6.9E1,5.4E1,3.8E1,5.46E2,5.71E2,4.15E2,3.33E2,2.84E2,2.38E2,1.34E2,1.82E2,1.01E2,1.27E2,8.4E1,2E0,2.32E2,3.14E2,3.04E2,2.67E2,2.03E2,2.12E2,1.75E2,1.58E2,2E0,2.36E2,9.9E1,2E0,1.33E2,9.9E1,1.64E2,1.5E2,1.41E2,1.63E2,1E2,1.67E2,2E0,2.01E2,1.11E2,1.25E2,3E1,1.03E2,9.7E1,2E0,7.8E1,8.6E1,1.47E2,3E0],"tree_param":{"num_deleted":"0","num_feature":"14","num_nodes":"67","size_leaf_vector":"0"}},{"base_weights":[1.3497048E1,1.2292839E1,2.640323E2,7.7491713E0,5.1335667E1,1.9599486E2,4.9352957E2,4.2262607E0,1.7861248E1,4.0306923E1,7.986625E1,2.2648964E0,7.52326E0,1.4563739E1,2.3615206E1,3.4387608E1,4.9019608E1,7.1048515E1,9.9769035E1,1.1723005E0,3.4958215E0,6.173374E0,9.067989E0,1.2545711E1,1.6630192E1,2.104433E1,2.622063E1,3.4578487E1,1.3253718E1,5.287368E-1,1.7547894E0,2.96656E0,4.207353E0,5.4391694E0,6.8421474E0,8.335506E0,9.886291E0,1.1704111E1,1.3446027E1,5.9303575E0,1.6694918E1,2.1167437E1,8.120437E0,3.2021915E1,3.8277657E1,1.3698672E-1,8.565222E-1,1.4156159E0,2.0326002E0,2.6016533E0,3.235756E0,3.8661222E0,4.5000725E0,2.5591297E0,6.8686094E0,4.743338E0,1.1771106E1,2.1710526E1,1.6451828E1,-8.516516E-2,2.3407175E-1,3.3222423E0,7.9980576E-1,1.2451288E0,1.5451452E0,1.8214988E0,2.1605535E0,9.651003E-1,3.9024904E0,1.9137978E1,-4.253637E0],"categories":[],"categories_nodes":[],"categories_segments":[],"categories_sizes":[],"default_left":[1,1,1,1,1,0,0,1,1,1,1,1,1,1,1,1,0,0,0,1,1,1,1,1,1,1,0,1,0,1,1,1,1,0,1,0,0,1,0,0,0,1,0,0,0,1,1,1,1,0,0,1,0,0,0,0,0,0,1,0,0,0,0,0,0,0,0,0,0,0,0],"id":22,"left_children":[1,3,5,7,9,-1,-1,11,13,15,17,19,21,23,25,27,-1,-1,-1,29,31,33,35,37,39,41,-1,43,-1,45,47,49,51,-1,53,-1,-1,55,-1,-1,-1,57,-1,-1,-1,59,61,63,65,-1,-1,67,-1,-1,-1,-1,-1,-1,69,-1,-1,-1,-1,-1,-1,-1,-1,-1,-1,-1,-1],"loss_changes":[1.0089478E6,5.9211025E5,1.5310112E5,1.06546984E5,1.0628125E5,0E0,0E0,1.4345324E4,1.432275E4,1.1362344E4,9.7593125E3,1.8706973E3,1.6705703E3,1.8514219E3,1.3237188E3,1.6296875E2,0E0,0E0,0E0,2.7647504E2,2.341831E2,1.8128516E2,1.4775977E2,3.5078125E1,6.789844E1,6.039453E1,0E0,2.1175E2,0E0,4.5211388E1,3.368225E1,2.8811035E1,1.027002E1,0E0,8.376953E0,0E0,0E0,8.986328E0,0E0,0E0,0E0,1.1605469E1,0E0,0E0,0E0,3.5138893E0,2.4193436E1,2.006897E0,1.763855E0,0E0,0E0,1.0476929E1,0E0,0E0,0E0,0E0,0E0,0E0,1.1381475E3,0E0,0E0,0E0,0E0,0E0,0E0,0E0,0E0,0E0,0E0,0E0,0E0],"parents":[2147483647,0,0,1,1,2,2,3,3,4,4,7,7,8,8,9,9,10,10,11,11,12,12,13,13,14,14,15,15,19,19,20,20,21,21,22,22,23,23,24,24,25,25,27,27,29,29,30,30,31,31,32,32,34,34,37,37,41,41,45,45,46,46,47,47,48,48,51,51,58,58],"right_children":[2,4,6,8,10,-1,-1,12,14,16,18,20,22,24,26,28,-1,-1,-1,30,32,34,36,38,40,42,-1,44,-1,46,48,50,52,-1,54,-1,-1,56,-1,-1,-1,58,-1,-1,-1,60,62,64,66,-1,-1,68,-1,-1,-1,-1,-1,-1,70,-1,-1,-1,-1,-1,-1,-1,-1,-1,-1,-1,-1],"split_conditions":[5.0415002E2,1.25865005E2,1.3541799E3,4.5269997E1,2.4765E2,1.2347676E1,3.1092363E1,2.0585E1,7.9845E1,1.6844E2,3.557E2,1.024E1,3.2745E1,6.09E1,1.00675E2,1.1308E2,3.0882354E0,4.4760566E0,6.2854495E0,5.29E0,1.591E1,2.6125E1,3.9114998E1,5.309E1,-2.111E1,1.13405E2,1.6518998E0,1.4404E2,8.3498424E-1,2.3375E0,7.585E0,1.267E1,1.779E1,3.4266767E-1,-4.4239998E1,5.251369E-1,6.228363E-1,-1.5705E1,8.470997E-1,3.7361252E-1,1.0517799E0,1.8783E2,5.115875E-1,2.0173807E0,2.4114923E0,6.965E-1,2.38E0,6.285E0,8.885E0,1.6390416E-1,2.0385262E-1,-3.9795E1,2.8350458E-1,1.6122517E-1,4.327224E-1,2.988303E-1,7.4157965E-1,1.3677632E0,7.675E0,-5.365405E-3,1.4746521E-2,2.0930126E-1,5.0387762E-2,7.844311E-2,9.7344145E-2,1.1475442E-1,1.3611487E-1,6.080132E-2,2.458569E-1,1.2056926E0,-2.6797912E-1],"split_indices":[0,0,0,0,0,0,0,0,0,0,0,0,0,0,0,6,0,0,0,0,0,0,0,0,4,6,0,0,0,0,0,0,0,0,2,0,0,4,0,0,0,10,0,0,0,0,0,0,0,0,0,6,0,0,0,0,0,0,2,0,0,0,0,0,0,0,0,0,0,0,0],"split_type":[0,0,0,0,0,0,0,0,0,0,0,0,0,0,0,0,0,0,0,0,0,0,0,0,0,0,0,0,0,0,0,0,0,0,0,0,0,0,0,0,0,0,0,0,0,0,0,0,0,0,0,0,0,0,0,0,0,0,0,0,0,0,0,0,0,0,0,0,0,0,0],"sum_hessian":[3.354E3,3.339E3,1.5E1,2.992E3,3.47E2,1.3E1,2E0,2.22E3,7.72E2,2.52E2,9.5E1,1.393E3,8.27E2,4.93E2,2.79E2,1.53E2,9.9E1,6.9E1,2.6E1,7.39E2,6.54E2,4.44E2,3.83E2,2.53E2,2.4E2,1.45E2,1.34E2,1.51E2,2E0,3.52E2,3.87E2,3.78E2,2.76E2,2.16E2,2.28E2,2.08E2,1.75E2,1.38E2,1.15E2,2E0,2.38E2,1.43E2,2E0,9.5E1,5.6E1,1.61E2,1.91E2,1.77E2,2.1E2,1.65E2,2.13E2,1.34E2,1.42E2,2E0,